4.685308952692786993e-02
-1.364431853948797346e-01
5.583039195305220664e-02
3.056866730798910720e-02
-1.422729026292413601e-01
5.754106602432799283e-02
-1.555613244227280027e-02
-3.047740305236366909e-02
1.743788950084178557e-01
-6.535038651104835283e-02
1.534014434475740318e-01
-8.648861912551382425e-02
3.092150134863015654e-02
9.117298158033777800e-02
-1.620604873324860695e-01
-2.161076931382148736e-01
-7.122160617413757916e-03
1.618317479361898181e-01
9.471613990618700518e-02
1.526818125200068987e-01
4.520718135970495238e-02
-1.264178696549095038e-01
3.023904084480446078e-02
1.172516067792243322e-01
-2.200856406894116657e-02
1.173151279929410401e-01
-1.088441406504837006e-01
1.373643601820525306e-01
7.892106135811871592e-02
1.310433140445666222e-01
-5.699778872942296015e-02
-8.529281850588071867e-03
3.687097484760950422e-02
-1.143368642899583731e-01
-3.845191082997340137e-02
2.000628888507472725e-01
2.729011563270373336e-02
-7.405742747779631152e-02
-7.518015584826603925e-02
-4.662859246443833150e-02
-4.400450393838706981e-02
-1.154371580280665194e-01
4.181663941240208043e-02
2.132206979673834102e-02
-9.697364385834829348e-03
8.646238941268728773e-02
-8.071587465575078002e-02
6.792341736209916991e-02
4.376273217665214293e-02
1.382307603854135425e-01
1.130643365963256014e-01
1.472077616875209875e-02
1.671672762598304038e-02
2.801941191569654044e-02
-2.015743886999847023e-01
-1.373359397041400976e-01
1.027771661843982082e-01
4.493985907926558582e-02
-2.946140358239797141e-01
9.603639850187233040e-02
1.022121946236213275e-01
-9.048799585169216286e-02
9.881916838084779664e-03
9.731626963705054811e-02
3.809906515787646331e-02
1.614661300194183274e-02
6.302186166731538197e-02
4.419569312873795203e-02
-1.395785294206135785e-01
-4.015382884515660694e-02
-9.677866412444065258e-04
-1.857624399199818144e-01
7.995159202639692819e-02
1.238433545052447238e-01
1.437955330495510609e-01
8.364108012033098782e-03
-5.302501068567663789e-02
4.772285354714429773e-02
-3.808111567871471509e-02
9.922883738137883245e-04
-3.870283668905079993e-02
1.072184513113715321e-01
-1.818181131214441013e-02
1.302629450479727939e-02
3.686239205379042427e-02
5.804817199646192249e-03
-1.589836337521197684e-01
-1.020173441117285668e-01
2.791978919982713789e-02
-2.673023170545583693e-01
-2.474353753708489478e-01
-1.524917868651096686e-01
-1.239054008924105332e-01
-1.711078155691823366e-01
-9.764304917044759266e-03
-5.323436109750843970e-02
5.904707006587452123e-02
2.173348199741916356e-02
1.004844784997443868e-01
1.747629451987471327e-01
-1.630284557292809300e-01
-1.006350364936152708e-01
6.930772788512137850e-02
-8.027781958197979795e-02
4.810960117072121678e-02
-6.359191604451125412e-02
-8.469150093118420208e-02
-3.184139657020854802e-02
-1.263243351646901012e-02
-8.835939397018040264e-02
2.211538584309016950e-04
-5.990411317196214780e-02
-2.708648681426505112e-02
-4.732344235361714974e-02
-3.915971103799804898e-02
-2.652788867901244574e-01
9.629624679474374591e-04
-6.288674658797372731e-03
4.911083593588495139e-02
-9.645334685334218394e-02
-1.991601661286558356e-01
-2.552251115855318497e-01
-4.303137334156513505e-02
-5.685714360721220995e-02
-2.592170651368203710e-02
6.020120914129148404e-02
1.027174856222764186e-02
-8.370296174578500947e-02
5.452137583058633968e-02
-7.723664290024394308e-02
-1.066570626080340506e-01
-3.784639556790682369e-02
-1.835937654297462029e-01
-7.763862347229553984e-02
-1.125663032966953137e-01
-3.669151028083138949e-02
5.430063152152520781e-04
-8.831937638799625123e-02
9.205846370676765145e-02
-2.943136394910246881e-02
-1.204433821316600040e-01
2.270382626831305567e-02
9.856682513798237233e-02
-8.068858704762410516e-02
1.476766095534700340e-01
2.566816675039056417e-01
-2.516421743936086419e-01
3.581268878992700105e-03
-2.998321940379405914e-01
-1.574059141020296426e-01
-1.912630268696130509e-01
-5.605659362481899000e-02
4.160440354081629266e-02
5.316203968353724191e-02
7.174534298482830585e-02
-5.805365104489466910e-02
-3.400227801404620553e-02
2.178216924072315375e-02
-7.840952992010734313e-02
-4.258632843032279791e-02
-1.579018047487051601e-01
-9.317692439716275532e-02
1.718951382593503219e-01
-5.534397572480583699e-02
-2.929431122174834187e-02
8.682349373882942978e-02
-5.758017934830255563e-02
5.110483373323968653e-02
-1.611292786369480923e-02
-1.633286794573796455e-02
5.561019063172344817e-02
-1.855734937086458633e-02
1.362062673220016231e-03
1.441180743018618260e-01
-1.497946755856699452e-01
-7.476320733128119511e-02
-3.782745206084850431e-01
-3.738162867077621798e-01
-4.968096813850553795e-01
1.097566013051653605e-01
-8.045478935578898039e-02
-2.066215399859346047e-01
-2.796990540133575398e-01
-1.691383382197002017e-01
-2.479710255047081757e-01
-8.718456790924945798e-02
3.014007459352407298e-02
-2.096133805022443175e-01
-2.887245574702675295e-03
-2.255842728981652945e-01
-5.938932014773606188e-02
-1.800579644412330857e-02
-4.955059529933835555e-02
1.423585437152600497e-01
-7.171784967617358952e-02
1.164748499782244096e-01
-9.838646304168703616e-03
7.470088228653389006e-02
-2.625515942589731061e-02
3.135755004767490361e-02
-9.494395421487802911e-02
-2.044178349297012809e-01
-2.281251428293832595e-01
-4.744016409801732337e-02
-1.422137042575369603e-01
-2.864657595728790640e-01
-1.585258324636112937e-01
-2.559734693919760717e-01
-5.282088838928949981e-01
-4.755318316250393140e-01
-3.230934390147514046e-01
-1.674033841152345603e-01
1.237621164872618109e-03
1.987654885676961858e-01
2.882161276147192086e-01
9.626567163802074445e-02
-1.263528411261276296e-02
-1.701646138404046271e-01
-6.221133223996498651e-02
-1.491343465715043275e-02
4.305191568869658203e-02
3.732247031165310258e-02
-2.282404841492796307e-02
-3.924811096013437056e-03
-9.753962940952221050e-02
2.940075837617219662e-02
4.079260394959491332e-02
3.377191446157176181e-03
3.099715512148737331e-03
-1.048322733881626723e-01
-2.855130637488769232e-03
1.464401772175245309e-01
7.744207411623135751e-02
-3.619302488788226357e-01
1.196602385460419221e-02
-2.275369886701079647e-01
1.590855858428347203e-01
2.212093594440587424e-02
1.791284285424456224e-02
-6.479525398369838374e-02
7.990644286583514777e-02
6.915484563980972554e-02
1.738641888660118207e-01
4.800123449515866780e-01
2.285948133279276651e-01
-1.482602576780531478e-01
-1.880458707434662369e-01
1.019331326794841869e-01
-1.032427990482661651e-01
2.559630815368105217e-01
1.297083974957246588e-01
4.193092292246542591e-02
7.118873847079852657e-02
-6.819915219235109238e-02
1.237405296004903121e-01
1.086648178443812840e-01
1.530610563554034853e-01
-1.587355255418412478e-02
1.107864558134393079e-01
6.304010744405669220e-02
2.189524624299057642e-01
4.007181069238550941e-02
-5.664552772983938445e-02
1.112191231798403124e-01
3.512669118186361183e-01
3.638408174542501761e-01
4.025313326662787183e-01
1.265260883733650144e-01
1.641018505985337161e-01
1.985559764232920354e-01
2.029709921367913450e-01
3.750211695730375494e-01
2.067122844327511089e-01
1.182991937538671046e-01
-3.726570102613037117e-01
-1.445653839377851746e-01
-1.975853533567805548e-02
2.843268381842030748e-02
1.924643843046272285e-01
-4.598487053587815843e-02
2.055502188286821574e-02
-1.132172040769213184e-01
1.314172347289330189e-01
9.955973160081828255e-02
1.583796180130016829e-01
3.982804921295607370e-02
1.460357466542091046e-02
-3.856712718960990383e-02
3.227460530942157790e-01
1.479076350515489691e-01
7.411969147061116779e-03
5.218109691954667118e-02
2.299699067516929041e-01
4.248975089982595099e-01
2.389631375530142376e-01
1.198142159473705864e-01
-1.633480733302671573e-01
-1.952280985893081189e-01
-9.770655849938632287e-02
2.371039522464618229e-02
3.747610251423961758e-01
8.786735723838248746e-02
-2.221241545125649808e-01
-1.509855185388481458e-01
1.559557634016255911e-01
1.689168511536180695e-01
1.089511195233304058e-01
-1.115638891411686179e-01
1.315774802537886604e-02
6.995016699882260214e-02
2.304891030284897668e-01
1.368371316973801544e-01
-6.429074713587792922e-02
1.024043134710999475e-01
-2.349096321237215124e-02
-2.271758592481001350e-03
7.074260309979521488e-02
1.432708357329360305e-01
-1.328454165356726391e-01
-3.078569966835912122e-02
2.020031025957964854e-01
5.664911508648317467e-02
2.335249732147429980e-01
8.765633021935304026e-02
8.345706362812971291e-02
-5.508975052857826432e-02
6.627792476765440033e-02
-1.874317089545053938e-01
-1.099705798243370697e-01
1.455797009082716309e-01
-2.953871459092028973e-01
-1.912253948900005940e-01
1.794374517549897075e-01
2.923313391246488147e-01
1.993629982593105865e-01
1.353417941421733439e-01
1.205579173686082001e-01
-6.757979190027030292e-02
5.260733907870455278e-02
1.840252324325575006e-01
1.863423616806707817e-01
2.477620241629160946e-01
-1.015682056725562485e-02
-2.252288081806843034e-01
-2.900836382260013058e-01
-2.411752291945032933e-01
-2.498409930687355701e-02
-4.125189134194083562e-02
1.828223442610729388e-01
-1.895865672156858694e-01
-7.693205281880506619e-02
1.000139197113459472e-01
1.291174584001118508e-01
9.433113903867450245e-02
1.413158760554502702e-03
-1.583671117792868066e-01
-9.192812050579436331e-03
3.680384650028897808e-02
-8.099962272019797793e-02
1.530812200447721760e-01
4.427062782489494808e-01
2.971695997643598042e-01
1.460116744195024407e-01
4.559044330377888532e-02
-5.952305419226634753e-02
1.672757191109012498e-01
-1.904006078439495486e-01
8.697762911618969750e-02
4.712908302536551047e-02
-3.928449535383888302e-01
-4.612032070409001205e-01
-5.155419440715927060e-01
-6.380675152485008050e-01
-3.419153861658121851e-01
4.561193369198716929e-02
1.589169361898309096e-01
-8.690015680036707870e-04
-3.330861381480939021e-01
-5.280144064992598613e-02
1.857157138048038114e-01
2.204075015418739125e-01
1.930207129125020571e-01
-7.314322995174639408e-02
-3.225489147227859066e-01
-1.414441640086336327e-01
-1.991717959108806058e-01
1.924240605566796547e-01
1.204430766263749203e-01
2.922065211600716195e-01
2.023007550499666962e-01
2.140276829561169603e-01
6.598557599017475239e-02
5.140365175522010333e-02
1.417075541551413576e-01
1.335715935544787569e-01
-1.136307456821026296e-01
-1.286585928930223943e-01
-4.355610242874088378e-01
-3.759803075219101953e-01
-1.168311346959983038e-01
-3.369888750524093757e-01
-4.242248185443565217e-02
1.108641197827949787e-01
7.275247636636743287e-02
5.236441786476045412e-02
-1.692080706010254676e-01
1.860478197632983374e-02
1.270981913179023148e-01
1.572252029049526212e-01
9.411164468197696920e-02
-5.430801445637869485e-01
-4.095450302636735040e-01
1.028060605929771582e-01
5.141566462792109687e-02
2.300745904489854832e-01
-1.879573717301055019e-02
1.012186092527474074e-01
3.883901031308469726e-02
6.368341039870371867e-02
-8.983339729394919371e-02
1.962742428884169943e-01
-2.014691664442475744e-02
2.047058267526071507e-01
1.025677860637463218e-01
-4.543901094147060477e-02
1.676463208246820880e-01
4.890070368331757567e-01
2.936040409553850594e-01
1.255090030857845991e-02
-1.297884906175575670e-01
4.375945761912872906e-02
1.238052636972378773e-01
1.074402471051720404e-01
6.266490423935706933e-02
1.236687312635531277e-01
6.349756599847188043e-02
1.927492284414565951e-02
-1.415215630705024819e-01
-4.071834162454890937e-01
6.883079067860570222e-02
1.162065940922284851e-01
3.241588889958759157e-01
3.634455983453084571e-02
1.372227457114703897e-02
-2.459624177675645215e-02
2.153437891107720936e-01
-1.673054974414522333e-01
2.786400850475359917e-02
-5.720880858900211779e-02
-1.361412609112211958e-01
2.984172833771539871e-02
-5.250290786273527355e-02
-1.361636892078298133e-01
3.087371436113273138e-01
5.354808965961703748e-01
2.741080442458033173e-01
-4.200239472004868579e-02
-1.793141482578347601e-01
-1.042394947514879884e-02
2.412288968286314395e-01
1.008309929753806594e-01
1.657098936570571696e-02
3.982963376508235065e-01
2.062724299903682390e-01
-7.353222874557779898e-02
-2.838587522099362825e-01
-2.664477723684495203e-01
-4.708139960437559418e-02
1.134413393330292175e-01
-1.337458764457586519e-02
-5.401765116458909777e-01
-2.607501273619408089e-01
3.828744145017345946e-02
1.390976894897874294e-01
-9.634033409813511084e-02
-9.778485825227833939e-02
-1.188825421177815977e-01
-7.676684944390249621e-02
1.669672735496401106e-01
-1.827412556718680248e-01
-1.436067837853742535e-01
1.083216516648381061e-02
2.020748796907189948e-01
1.296681142255166341e-01
-2.543192992034982169e-01
1.179490474445540893e-01
1.607192108118951634e-01
1.020761959950377273e-01
-1.987020908144823961e-01
1.948241505292146875e-02
1.051675364845596622e-01
3.946751632072940663e-01
-2.819039692235558725e-01
-1.667847660554724887e-01
-9.945372690408760263e-02
1.655293398721553177e-01
3.456224431903500149e-01
-1.336186225448151577e-01
-2.300500634564560110e-01
-1.476985207598770396e-02
4.799850947906013354e-02
-1.698490939439661895e-02
1.503707808281655178e-01
5.461946274655591488e-02
-4.612102159687644226e-02
-1.006298135232459728e-01
1.938138177374839136e-02
-2.334815990288076348e-02
-2.729811791518079178e-01
-2.695650660260833220e-01
-1.233511410221357039e-02
-3.112290846217084794e-02
3.124009318872602026e-01
3.152594318325045442e-01
-2.231901609840201417e-01
-3.292935874101167726e-01
-3.150698907039396479e-01
9.750688499835989675e-02
1.421331592980982217e-01
-1.457263160884260944e-01
-1.224727777787836952e-01
-2.487575134714017366e-01
1.204429842339689999e-01
5.575217022966063585e-01
4.526565995831136613e-01
-1.691426182500858633e-01
-2.056210261375508164e-01
6.104885667502321644e-02
-1.502866255917596414e-02
-9.448691853211868552e-02
-5.289640504924982001e-03
-7.944546580153541426e-02
-2.167027452751582942e-02
-4.563665712114714479e-04
2.896074700095147350e-02
-1.142025532011514272e-01
-3.577696063844382213e-02
-2.587771103283512120e-01
-3.346708267823845229e-01
-1.394797361406674152e-01
1.191344045019701731e-01
1.845801849430710739e-01
-1.247569200343437018e-01
-2.677607285021210148e-01
-3.295646982021495641e-01
1.090329462359912877e-01
-1.339870541055280390e-02
-5.870132470960571780e-01
-4.728860177181648528e-01
-2.038798414522605407e-01
2.536140070447859274e-01
2.660338792226669691e-01
3.177970182258853526e-01
-8.252548495893759217e-02
-1.437707711134585120e-01
-5.632291236004682150e-03
1.997395342456695644e-01
2.225072264714698933e-01
5.547575477648756387e-03
1.165209708749857971e-02
2.668765613072629495e-02
-1.208231442871694842e-04
1.395536372703727948e-02
-1.295206741469037692e-01
-2.033509121494991856e-02
-2.174689877942204141e-01
-2.507913841208890271e-01
-1.978155431271545195e-01
2.481921365021735049e-01
9.352226995378683239e-02
2.098867877914382118e-01
-3.370007620556375594e-02
-5.767308820619851005e-04
-9.132687180358629864e-02
-9.224247937734383895e-02
-3.887328540065985716e-01
-5.060792411128635093e-01
-4.395688011586995625e-01
-4.073774422216754065e-02
6.261159166646032559e-02
-1.160910700959123382e-01
-1.033425675239033753e-01
-1.320182599155727554e-01
-1.617419008893181825e-02
-5.229920781386179773e-02
-1.076723292944387206e-01
-1.869982970760876440e-01
2.397617402417001088e-03
-7.793525007240496849e-02
1.031025319013821606e-02
1.724583155473936869e-02
-1.643008261070665887e-01
3.707664394033510780e-02
-6.335407357828060082e-02
-2.016560633497724575e-01
-1.749796885819408787e-01
1.628332471572985218e-01
3.592533102607406992e-01
2.662519344782487418e-01
2.391681159344850871e-01
1.704941220990266459e-01
1.530284036314354390e-01
6.582618423569934485e-02
-1.664397210663546081e-02
-3.368037920627407755e-02
-2.194127704933462319e-01
-1.322651369006160871e-01
-1.928163649589852979e-01
-2.739859974637622320e-01
-4.003039402093162002e-01
7.932817695400730396e-02
-1.366987009456617219e-01
1.467187079881540901e-01
7.606978793064275712e-02
3.824924114079062548e-02
1.471122674119917650e-01
1.980166974798401869e-01
5.574094528333717324e-02
6.471542738180381671e-02
-5.347482723411108030e-02
-2.103722922372263347e-03
1.226744136453795514e-01
-9.872266080155661649e-02
1.127023966579290409e-01
2.442499578041040231e-01
1.232423785481112227e-01
-1.211786565152109425e-02
1.000188894616440977e-01
1.254306152984241973e-01
2.114503769776372999e-01
2.750886563287079922e-01
-1.195491547383288194e-01
-1.407520180904208718e-01
-5.308305691450419805e-02
-1.579692085593198403e-01
-1.279926671183137243e-01
-2.091877240390694059e-01
-2.747288491470349300e-02
-9.824034428849831579e-02
9.915303688167750873e-02
2.014016831808715935e-01
-8.857047675149649912e-02
-1.434325643616740642e-02
-9.953653098044623615e-02
1.198758748933498874e-01
3.497588717410909237e-02
8.908739256256170691e-02
-1.051030280468545769e-01
9.690453998040760020e-02
-1.260007032016570161e-01
-2.609841415767153242e-02
8.073759681575150282e-02
1.430797890440453635e-01
9.944703251835496083e-02
-2.321154072464971796e-02
-1.661142768704611250e-01
1.160646677782846692e-01
-5.044282846501130235e-03
-2.571699096955833651e-04
2.665346478462500904e-02
-7.394071210587178228e-03
-1.496913299564978650e-01
-5.811203362941922551e-02
-1.807146421200461484e-01
-1.012751252385548978e-03
-9.581066001901716866e-02
2.081548680385620492e-02
1.066748609992778929e-01
-4.597385171044430369e-02
-1.985591727382719079e-02
-7.129899570849820845e-03
1.077666548502813175e-02
-1.200916157523015393e-01
6.394312789216037574e-02
-6.579133921957165676e-02
-3.154922410587095161e-02
-3.358358822553954987e-02
-9.139591999086998930e-02
-1.138123460009786564e-01
2.339856600546780935e-02
1.940816761533195878e-01
-1.168276564245987643e-02
5.676623812801682295e-02
-2.188474352379026280e-03
1.422457951543595889e-02
-1.601219861122326615e-01
-9.347315959361567062e-02
-1.767045902744256158e-01
1.281194591308456587e-01
-7.401012489743678813e-02
-6.022010293042782958e-02
-2.521601528305922497e-03
-6.269651451246105803e-03
3.128726756534281912e-03
2.815145904898211371e-02
6.290192042819445217e-02
1.613713443297463968e-01
5.332659027239007588e-02
-1.026151154800835075e-01
-1.011546254036461284e-02
1.792892736692560871e-02
5.306325178816047317e-02
-5.065270744020327481e-02
-4.908543188495014670e-02
-1.060327720554608139e-02
-4.186180329407077766e-02
1.097291616599220115e-01
1.267126705190864122e-01
1.312262579970620811e-02
3.389312239922621234e-02
6.537186982221139531e-02
1.436180150080153262e-01
2.191482200510845926e-02
-7.219625329948699266e-02
-5.834060550083710467e-02
-2.053558906363944780e-02
-3.283252198884371864e-02
7.704780740553611451e-02
1.445146527222579691e-01
-2.356350908893059537e-01
5.169937860928258688e-02
-3.775069140233659054e-02
-7.900492097896336108e-02
7.525580379168231304e-02
4.942507955574527295e-02
-3.768694575076521336e-02
6.075016874029026681e-02
-3.285232326917211093e-02
2.481438431338238715e-01
-2.291426689994952026e-01
3.090699960523473505e-04
-7.091175628410266440e-02
-1.345648309399164189e-01
1.209957269789290329e-01
-1.100398080234725601e-01
-1.404135317324771703e-01
-1.706045867462316346e-01
9.839397113429833308e-02
1.830116403412682391e-01
-4.594539495688147041e-02
1.811873625988545122e-01
6.696124081764628921e-02
-4.625618768041078049e-02
-6.637615959421201695e-02
-1.017868041043624647e-02
1.072221300732826565e-01
-2.529687441558639213e-02
-2.045456202767105824e-01
-1.393940098577134967e-01
1.376050065414179679e-01
-1.568209111455363958e-01
3.046413225750800938e-02
9.647027198937770109e-02
-8.670672714132020287e-02
-6.448826725719862540e-02
1.092938751014948667e-01
-3.892263224591868687e-02
-1.030342999984997475e-02
-1.701294960750013643e-02
2.093939319131730981e-02
1.473236240889769233e-01
2.391127831794087957e-02
8.474055808238960263e-02
-7.492726547183573005e-02
-1.829318349670599336e-02
7.759292066338099869e-02
-4.452519980285931517e-02
-1.234103172901732659e-01
3.344718145686468094e-03
1.194777706588603383e-01
8.506632596860701223e-02
-4.449770497862667873e-02
3.331959749322251606e-03
1.650959931349838539e-01
-2.228913576858005535e-02
-1.273185120393859615e-01
-1.526407165717764839e-03
1.591776803352566994e-01
1.194309446560872373e-01
-4.264265877755207823e-02
-6.301630950616991800e-02
-8.872938280474770498e-03
-5.350605174113296642e-02
1.248253355365441103e-02
-1.601615308335645194e-01
1.685420687768896253e-01
7.051215124734426520e-02
1.881635853269161274e-01
-1.021986019610342106e-01
2.298935720243426226e-02
-1.060682555715878189e-01
1.580742653608083192e-01
3.244614975898205828e-02
1.014889138523868278e-01
-2.556182057534582275e-01
1.546816978892335409e-02
-1.485467639389292660e-01
2.345629473222747216e-02
1.460722974441658051e-01
9.952275598823366771e-04
7.411012537276882861e-02
4.049004526703564588e-02
-1.407631501811227592e-01
1.272761951190496676e-01
1.640041425824960430e-01
5.963300330313539566e-02
5.510018269221839127e-02
7.786404909101063421e-02
-6.283257197619228351e-02
-1.096191265208029259e-01
2.461152900725533943e-01
9.418138854655955239e-02
6.362923599036317268e-02
1.313008769290563427e-02
1.795348954197770741e-01
3.787019028309840385e-02
-1.879748042515168027e-01
7.623022420723786496e-02
-7.568854533040961230e-02
6.744234933338867644e-02
7.024009809054433673e-02
-4.468166362224205296e-02
4.600415924136206508e-02
1.638561612481450602e-01
-8.432399099534580375e-03
6.324187540293163545e-02
9.765012168293529804e-02
-2.921677867327568401e-02
2.745758249240914939e-02
-7.539754015737092085e-02
-1.164378691360361123e-01
3.826475403117049479e-02
-1.057009878240251360e-01
-1.387404018131933314e-01
6.773121479500281150e-02
-1.011974147111506239e-01
1.214207293580322755e-01
-3.949819342533325561e-02
8.787809891105753668e-02
6.709641736442055471e-02
-3.240705665295315341e-03
-9.344165457722738988e-02
5.489195935071525950e-02
-9.026196954978872589e-02
-1.770617082498571540e-02
2.009406430807900851e-02
2.701255812947238044e-01
1.569668074274769565e-01
-3.372898583199333139e-02
-6.098521821928032383e-02
3.193715321754682368e-02
-9.233057127037409481e-03
4.244043492885710145e-02
-1.166887974322453475e-01
1.068843799013631940e-01
-6.173533986706598864e-02
-6.836853328322069212e-02
-4.763372443038759591e-02
-3.498903392841593712e-02
2.437942602413580573e-01
1.468951718129453410e-02
3.142619748143905822e-02
-1.655600980045300319e-01
1.758185545693576601e-01
3.343669749152646670e-02
-1.894029812575297733e-01
1.333302198359025692e-01
3.511105297209281273e-02
-1.768945167215022207e-01
-5.131497057471106488e-03
-2.504584042219957785e-01
-5.088535734595577703e-02
1.035911755613884710e-01
4.070901417883548284e-02
2.232156576929957281e-01
-4.656355698565496637e-02
3.160462418128163337e-02
8.148492782768296250e-02
-6.730256062935979777e-02
9.880632795976518334e-02
3.002318741637145100e-02
-8.093438454127305226e-02
-1.819659004172543421e-02
9.269584111197574916e-02
2.827915518989291832e-01
-1.549018336555972875e-01
-1.411979260922831825e-01
9.088794152943993621e-02
-3.100183126072002249e-02
1.961412089071167264e-01
1.859853409260912305e-01
1.004111905185699483e-01
-1.381877844337800754e-01
-3.361949257570690658e-02
6.177064721380230022e-02
-1.459300621995154035e-01
-1.905660648303681912e-02
-7.363598657900857769e-03
5.483424694729632787e-02
8.002575562442443150e-04
1.009166069145008698e-01
3.698530643364682929e-02
-3.238393948176036818e-02
1.575152521461165717e-02
-2.209840581856407221e-02
2.518867749805885070e-02
1.503774620940626916e-01
7.841341978324992135e-02
-1.150874440265668014e-01
-1.552139099619735119e-01
-1.749848959919351188e-01
-2.522161665421493448e-01
-1.528671230862435060e-01
-2.417051051708854204e-01
5.445299741227093565e-02
-5.774030372494647068e-02
1.904522267864202853e-02
-1.680436368155502069e-01
-5.630190079705525014e-02
8.401811845860618355e-02
1.715632573703395614e-01
-1.832028504221569487e-02
9.174021040496511611e-03
-1.368051567389083345e-01
1.056380548917750517e-01
-1.575623973521047411e-02
-1.962026702873128498e-02
1.066210416207001715e-01
-7.808352181208290388e-02
-1.089088876227276015e-01
-1.352011717017194414e-01
-2.464144506967494708e-01
1.861341067135827143e-01
2.335270567899136451e-02
1.068923604719384107e-01
-1.010645198342859513e-01
-2.441744817835354853e-01
-1.476572959684600006e-01
-2.260491113610674230e-01
-3.562212586159843597e-01
-2.324491150304648923e-01
-8.907257993556905173e-02
-1.126254827417719174e-04
-1.413110931833602701e-01
1.908155224390915006e-01
9.107222889141786126e-02
1.012687849895717168e-01
-9.908869757832480807e-02
6.911373314132498828e-03
9.310522130727889867e-02
9.129248495597830360e-02
-5.450487460132268785e-02
1.108290361743520802e-01
-8.440846950391311942e-02
-1.388254583830310640e-01
-1.306963438137289935e-01
1.480082683079630423e-01
-9.291344838636508841e-02
-1.610988658792068540e-01
-7.978445653251443892e-02
8.913517912464895276e-02
1.997888456852476291e-01
2.556544632074567863e-02
-1.181156536193290196e-01
-3.790710441621084614e-01
-1.867213571812042783e-01
-1.248385250922337264e-01
-1.503749194549271750e-01
3.671954392022984404e-02
-7.970078248861499348e-02
-1.941873529140998589e-02
-6.749751741521242687e-02
2.718175099656149896e-01
3.512789038253201213e-01
1.875780189386397068e-01
-9.220838798288386040e-02
1.558729327699481977e-02
2.128286821537427737e-02
-5.048908025419259100e-03
-1.438576127612169742e-01
-1.165064397218193853e-01
2.077177226349676345e-02
-6.936869126084474479e-03
6.289934700899293962e-02
-1.200908601887814009e-01
-3.931314333760850543e-02
-1.278729594047421370e-01
-1.571402726063338973e-01
-1.907740806710800591e-03
1.084901138764770949e-02
8.924417618415661502e-02
-1.713105451322928519e-01
5.506683626639002904e-02
-2.321134615165491577e-01
-8.504540651279922370e-02
-3.155348124693211492e-02
-5.078254432483316622e-02
-1.042107600627676378e-01
-1.446908314403022033e-01
-3.986286241212692594e-01
6.503568721706774747e-02
1.708493086193859922e-01
3.274162753490699185e-01
1.857359863066715966e-01
-3.504552120791705385e-03
-1.284897429806245162e-01
-7.749865345860949828e-02
-4.905182653264972270e-02
1.003885506754202336e-02
8.493605575775869942e-02
-1.469383178509311161e-01
2.188889533472231641e-01
5.794789565755385091e-02
4.740431872202761215e-02
7.717491057926517684e-02
2.323047177641255623e-01
4.385004926965442862e-01
5.975625996502454962e-01
2.059122285954117226e-01
6.738482243126507620e-02
-3.061109859628384222e-01
1.567928818677824521e-01
2.413770133216783520e-01
7.468711684139466289e-01
5.722311198084805151e-01
3.941754532087869412e-01
-2.333133732665605142e-01
-3.867653416013527856e-01
-3.107245261927611968e-01
-2.340497519955352657e-01
4.881413768439841760e-01
3.436985701232278534e-01
-2.663492994981477291e-01
-4.870909879613456728e-02
8.755829558041680616e-02
2.655667908883266315e-02
-9.165497520126203446e-02
7.495567730527434580e-02
-9.778092145955336045e-02
4.279732709596814622e-02
1.515328784054809363e-01
1.523115501247122028e-01
7.803781165508774653e-02
4.266311193812735159e-01
5.758586573943136333e-01
3.111850427313869738e-01
1.138466188093412677e-02
-6.558347888417018212e-02
-2.102956991096352826e-02
1.435983422680894295e-01
4.596843752376630898e-01
5.424292107296944110e-01
5.156993175351198833e-01
1.161785741316728217e-02
-3.735641759762547420e-01
-3.398103955198527593e-01
-2.525638732310579448e-01
-7.046149000445270372e-02
2.461351986455377616e-01
1.158965455480252676e-01
-3.688231420456611898e-01
-2.413525775356779590e-01
-8.947731975135182758e-02
-6.197121134230140077e-02
2.277410158317837163e-02
5.787732884753560986e-02
5.449070751430094145e-02
2.297889972811950066e-01
-2.878107297691090069e-02
-1.032170662128844979e-01
-1.150835505331051882e-02
-3.696423946045188091e-02
4.167150113687652369e-02
1.446092362448447291e-03
-8.532261066501213576e-02
-2.991441274745137435e-01
-3.225939130993587534e-01
-2.751159175151867142e-01
1.033951433466736430e-01
4.312689041544112700e-01
2.771074237966807963e-01
-2.378659479179618674e-01
-2.513494119912796920e-01
-2.095968862286271550e-01
-3.902066686140067547e-02
-1.368581457384224383e-02
3.899035935503264438e-01
2.232541597020746560e-01
-2.002731070775163047e-01
-2.831719186174222469e-01
-2.703428815252696960e-01
-6.716028161155378207e-02
-1.921569668281647714e-01
-2.668711863938500253e-02
-1.736081811072503478e-01
-6.215805563411436890e-02
1.446068900307465217e-02
-2.669159074205669779e-01
-3.298467220075230744e-01
-6.418680604367503761e-01
-4.350546087720083555e-01
-2.002065035170648155e-01
9.805072230580566539e-04
-1.893769341318766175e-01
-1.935798715037392037e-01
-5.121356125471909770e-01
-9.586057053098848146e-02
5.835444209862403753e-01
1.871787220072277658e-01
-1.434779298263756386e-01
-6.732863322403606632e-02
2.679501923105602756e-01
-4.167995157855455823e-02
-4.884264659897805116e-02
2.323695919422597289e-01
3.045283516689799574e-01
-1.907655701506787427e-01
-1.338199682584819417e-01
-2.541316346773355925e-02
-9.199111837788249979e-02
-4.531613155553385758e-02
-1.358698445404381561e-01
-2.265721719121794112e-02
-2.248071634839306221e-01
-4.502160402587849358e-02
-1.058181070197148077e-01
-9.741952379785631666e-02
-5.349093010952683525e-01
-6.388005287378778485e-02
3.858716683778016243e-01
4.875472794730637549e-01
3.404610236042799887e-01
-2.630261467749018811e-01
-4.997635535439434729e-01
-1.651022123574248379e-01
-1.868692924582345538e-01
-3.870191564583680410e-02
-1.633627843953782965e-01
-5.525162674745905805e-02
3.648560885269803711e-01
-1.134013620221253557e-02
-9.148781288937336831e-02
5.503476113320324853e-02
1.619045962400494365e-01
-1.696677994685573121e-01
-8.131196723535021043e-02
4.154410621547607180e-02
9.010792079496414420e-02
6.279899226905363840e-02
2.761709550834990853e-02
2.373196525271831919e-02
1.320141218938650218e-01
-7.441056383996504098e-02
2.701683272604401553e-01
3.014128947465177233e-01
1.300697735511908149e-01
4.009835813867432264e-01
7.292374392096836466e-01
2.038803221030990320e-01
2.716489725619650186e-01
1.506049412798641796e-01
-2.353992589522689860e-01
2.897415001489621680e-02
-1.791491615314573238e-01
-4.440142745963422954e-01
-4.200262255640316994e-02
3.196955522258366211e-01
2.026688061738624314e-01
5.163768370979497646e-02
-1.064502855062218478e-01
-1.822873670593653725e-02
-4.075679372111073451e-01
-1.666927083403543508e-01
-2.223375809438386808e-02
-1.265687887299111469e-01
2.842892624872362523e-02
-9.895641286753718846e-02
-1.619214998822447737e-02
-7.208115235621358197e-02
5.751054123503578780e-02
3.413690828474732486e-01
5.497528290700373077e-01
7.065286956833523035e-01
3.529238888103381488e-01
2.402070076051517344e-01
2.648936177914281154e-01
1.254048818935093457e-01
-3.189253606903044019e-02
-6.290540375780438731e-02
-1.197836928052272432e-01
-1.087119533118453656e-02
-2.032186022722318741e-01
-2.015836504642797289e-01
4.467388671977735176e-02
8.444262411102425661e-03
-7.748046522709277351e-02
-2.831755385562499394e-01
-1.073920485675291386e-01
-8.124643697767536255e-02
-2.142407312496808491e-01
1.462728742415558836e-01
-9.792338102716828530e-02
-2.474552425334642092e-01
-3.401461863842272781e-02
-1.300362084946017106e-02
8.651800248773135193e-03
-1.636757910980416730e-01
1.624980478549887253e-01
2.319593352938748576e-01
2.048710180338154385e-01
2.518477266820015603e-01
-2.373371200135416803e-01
-4.903172524018492018e-01
-2.145385769971960011e-01
-3.401079708715596395e-01
-2.067472578639347261e-02
2.578932080991262477e-01
4.691064134417083364e-01
1.464270814200627491e-01
5.805607216842911117e-02
-3.328817460599311356e-02
-5.079382097286762321e-02
-6.746399436548476680e-02
1.598425300329713028e-01
-6.485869705206071499e-03
-9.420047779576302960e-02
1.586386697759545050e-01
1.551861564593928766e-01
4.367412778971815901e-01
1.814992276754306688e-01
-1.120879395630054454e-01
-2.899970899202403054e-03
1.126570706015627699e-01
-7.724596682989162688e-02
8.459101309434870208e-02
1.427535861691106578e-02
6.695306331624148455e-02
3.511184913773733318e-01
-1.427223417482298140e-01
-3.784312868156213816e-01
-3.553051161778416622e-01
-2.961953543521604892e-01
-1.040147027712517713e-01
2.440194273102168354e-01
2.618792799330794119e-01
7.045408001907804696e-01
2.288751790636883998e-01
2.231872130007037658e-01
1.507884725417495131e-01
1.375856108689276214e-01
1.050186911778224347e-01
-6.396578075701897514e-02
1.720996396094185976e-01
-3.064519054694047617e-01
-2.103600281028150110e-01
-1.750480005816296425e-01
9.593702104430036626e-02
4.745171524937640689e-02
1.101481785003647351e-01
1.694492844686569244e-01
1.135660485105110251e-01
-6.385230387296993160e-02
-1.331063722550930861e-01
-1.731784334049945862e-01
-4.107840455172905719e-02
1.226259055390780534e-01
2.029755653341514254e-01
1.049652734093584200e-01
3.586760215700525722e-01
8.738803704879559431e-02
1.457517155395114949e-01
-2.640632982775655280e-01
-4.421243842245621281e-01
9.232599196127121155e-02
2.863644219060047513e-01
1.365395716539325455e-01
1.163632245463449150e-01
1.005179369073064544e-01
2.901807874317083868e-01
1.029150279663339357e-01
2.532989598315157354e-01
-7.419201377576399234e-03
-2.974618057801364235e-01
-1.735555383955907638e-01
1.696914591720384835e-01
-2.519775081822597240e-01
-1.324334020414924540e-01
-2.436785620490307738e-02
-9.203402485080305895e-02
-2.265349401762023485e-01
-1.699989892090614518e-01
-8.313142617553793967e-02
-2.072012864588362036e-01
-1.940742457053995507e-01
2.424723642666230528e-01
5.313713170558933552e-01
2.514774878997201313e-01
5.983364522724714946e-02
-6.408649025249801845e-01
-5.320450258960666146e-01
-5.384458987178210032e-01
-6.383009451035422110e-02
1.564774044150388579e-02
3.418319330306808339e-03
-2.342487187205122556e-01
-2.079151943833173338e-02
2.619990245063175682e-01
2.529432375690733870e-01
-5.541722542205180374e-02
8.032257034342522861e-02
8.628635689452654467e-02
2.552518475404758069e-01
2.359324143490822145e-02
8.692067802483946851e-03
7.813142827265034951e-02
-4.711259641913065344e-02
2.839653608130052187e-02
-6.262691061248240598e-02
-1.069464016939104534e-01
-1.310184521477200381e-01
-2.894626844373921482e-01
-4.677355379815192338e-01
-5.134855804219912168e-01
-1.305967440337765240e-01
1.155237275330581043e-01
-1.811188433518026719e-01
-4.155954070807479361e-01
-1.906803594868367868e-01
-3.466659366722738556e-01
5.908813037172551408e-02
4.678020232624999220e-02
-9.522589287488905652e-02
-2.792588972535677838e-01
-4.033621388889652715e-01
-5.206903647328281481e-01
8.558631974162762834e-02
2.215443605541803640e-01
8.034741635752873368e-02
4.689800975169881037e-01
1.278013392731980336e-01
2.701310198785263073e-02
-1.290401335753601220e-01
-2.608185438643199211e-02
-1.281444008039775151e-01
-8.692764148250192724e-02
1.086208732127417198e-01
6.584544169523887103e-02
9.108556258814767825e-02
-3.347284374967696152e-01
-4.662082029496971147e-01
-6.460950988121386684e-01
-3.028895056951017573e-01
4.863021783820558469e-02
2.227343072704843774e-01
3.306213636472681294e-01
2.779038119280793362e-01
1.797191424514667513e-01
-4.725458772454466799e-02
8.901216143288176452e-02
-3.206396488335213624e-01
-1.865461097963548309e-01
-5.298333315027453638e-01
-1.243781668362527043e-01
8.657644254629361102e-02
1.782336848609787361e-01
1.387000522651801737e-01
2.682498851784664851e-01
9.535218041614795803e-02
1.821221590947721611e-02
5.471935283396173882e-02
-1.169433727815052670e-01
5.732341458749407731e-02
-5.952279156868130194e-02
5.544536361776689071e-02
-4.137000760743350658e-02
-5.321678140507884666e-03
-1.584021662548999732e-01
-1.864740541250887729e-01
-1.789827205688163392e-01
-1.862429071256564150e-01
-2.860798914283030694e-02
3.647500144613687878e-01
4.329562627496471583e-01
2.538581506798025522e-01
4.326393037915141626e-01
1.823464895648843620e-01
4.436789939332022592e-02
-3.601634835977918919e-02
-1.017604446563682569e-01
-4.956992892863266303e-02
-2.049831718286696802e-01
-3.199229364801210729e-02
7.005288217544257401e-02
8.640358074773960007e-02
2.696421721073660183e-01
7.230133395172279320e-02
-3.782373811996415230e-02
-1.449380087599048128e-01
1.549084330998235469e-02
-1.065211072603015376e-02
4.210468984815089050e-02
-1.256121686043366048e-01
-8.601245866585009465e-05
1.031851789545470827e-01
-4.198912842127439787e-02
-1.963121362375210011e-01
-8.983645539799718638e-02
-8.741711905584187425e-02
1.788383370874992995e-01
4.645520371391331227e-01
3.674097450662295317e-01
-5.543553390516950917e-03
1.020487557925763566e-01
8.440668979484410028e-02
-1.502784128314471335e-01
-6.170617152967004110e-02
-2.218755467638512113e-01
-1.352899150375251880e-01
-7.209205012439906524e-02
4.982260045222126899e-02
1.426972195204514460e-01
-4.238377830868912503e-03
-2.756792289827568465e-02
-3.746000048969108653e-02
-1.151408048164113407e-01
-5.952127047187448505e-02
6.417448764028026165e-02
8.637431967470801664e-02
-3.605512833579693072e-02
-5.439644109382010817e-03
-1.011087355534098231e-01
-1.598824807055163055e-01
-1.238943687805719590e-01
-1.281882086842803803e-01
-1.942258787031489742e-01
-3.014649358934096829e-02
1.010208404135291144e-01
1.765648570969634845e-01
1.127071850620891130e-01
2.890825188521114683e-02
-4.982949379265101675e-02
-1.263010869936236069e-01
6.799007799141275343e-02
-1.541723428792075579e-01
-9.037326022810075743e-02
-1.040394744653975745e-01
1.277739592889984566e-01
-4.754652999332457247e-02
-5.928448475856636091e-02
-1.048157025242000585e-02
3.390155713845562080e-02
5.172293419801841409e-03
8.835110945835475404e-02
1.775509072716492318e-02
-7.710240661036966980e-02
2.768487254712119830e-02
5.483596693399574173e-02
6.680444059245605609e-03
-8.454910900354017933e-02
7.010868345367321508e-02
-2.526699859525777594e-02
6.813718472967789097e-02
-7.678913799856269817e-02
-3.975676486031688717e-02
-1.579310800137409265e-01
4.519064626424453696e-02
6.146688427377979685e-02
-1.927266050284456508e-02
-1.348688126896842310e-01
1.191743355088973749e-01
-1.185165194813268680e-01
-7.865802412475290939e-02
-1.624906722192391573e-02
-3.708986419765881309e-02
1.108764889940703352e-01
-2.361845065114289710e-01
3.490427034196956491e-02
-5.802776974072427346e-02
-1.212537475325945746e-01
-1.004742689208659584e-01
6.154254220155539606e-02
-2.682363318424671721e-03
6.717265841976879925e-02
2.383048263840816319e-02
3.775285924819284100e-02
1.393426873605549121e-01
-1.903591871356640208e-01
2.905628282748805996e-02
-7.684782594962061286e-02
-3.112841590250197202e-02
-7.332542064902709822e-02
-5.878426403276599405e-02
1.187578246620063782e-01
-1.628126996543920180e-01
-1.097436446133349119e-01
1.703152297662568137e-04
1.191754492687546602e-01
-3.401909706704564496e-02
9.079104868714134302e-02
-1.007622096229010694e-01
6.199754233812567426e-03
7.302490006830393565e-02
-3.508392323136874658e-02
-2.324234175851584011e-02
4.248612249266461166e-02
-1.573229582194019260e-01
1.229542210469182079e-01
-4.558779676546673154e-02
-1.630443332991482197e-01
-3.509649848266059580e-02
-6.132285723194542959e-02
1.625732394019352989e-01
3.588853770700922707e-02
8.096378310574620096e-02
4.909360762998288275e-02
4.790826970017043884e-02
-3.423775843656034351e-02
7.863377921707398466e-02
-2.037453924224904012e-01
-8.146218622214908278e-02
-6.532608130336492458e-02
6.788839946218415411e-02
-7.916759707574236304e-02
-2.041749169920393375e-02
-1.966428093999637028e-01
1.093590434577160209e-01
-5.413598215986277495e-02
2.239265941608821475e-01
-1.579792992464822410e-01
7.540595217951835683e-02
-4.842712353243268375e-02
-8.054490888233148405e-02
2.447862099415032064e-02
-7.256815664222147910e-02
-1.040107185165645709e-01
6.922454373030327568e-02
-5.380457026249743646e-02
-2.252218320064910961e-02
2.152079265960836485e-02
-6.270968126589397673e-02
-2.245494940155005337e-01
1.241590971582276631e-01
-7.849780936856237679e-02
-5.121154342532183157e-02
8.157406344904311046e-02
-8.548004312790140682e-03
-1.263123934223751577e-01
-3.576862624287657257e-03
-1.591949819987021619e-01
1.027272382114980953e-01
2.189345365674486565e-01
-7.287164276190348511e-02
-2.389171863546189680e-03
-1.234647901221171823e-01
-6.055868503731876018e-02
-1.514176276642914265e-01
-1.460774307442742198e-02
6.703020106282770417e-03
-2.102970656078654577e-01
3.313981994512451429e-02
9.982157124450506680e-02
-1.189840426891493746e-01
-1.725548923594615591e-01
-1.514477075177898258e-01
-6.268977205149202370e-02
-3.110534515289740953e-02
-1.934270716051260039e-02
3.069798714576090978e-02
-3.663844942016217937e-02
-7.459814919252222287e-02
3.884851107126301162e-02
-9.266295750153202837e-02
-1.080534106105756065e-01
-8.645114820767774155e-02
-6.580155427312216199e-02
2.575990542507896122e-02
4.687256361115482717e-02
-2.555655914788041438e-01
4.832296296819201843e-03
8.651867291900940116e-02
-1.406029237417808220e-01
-6.357602486361568772e-02
1.763087748636986071e-02
-5.617587123698791068e-02
-2.895008439305776435e-02
-6.922530647100744172e-02
-7.369062345020400973e-02
3.152482417649386803e-02
-2.873879348600602568e-02
-1.632940387728096590e-02
1.851607894618017280e-01
1.581346494054786112e-01
7.349701139557132668e-02
-1.785454470745021505e-01
-2.690984198845268460e-02
1.301175021671094334e-01
3.133564230418558506e-03
1.055903578261755960e-01
5.134321282997890423e-02
-2.607171435138454056e-03
-1.036683220555217888e-01
1.634458927762884872e-01
7.532756335310449025e-02
2.311279680833415798e-02
-8.268969481147424305e-02
1.338145272868781523e-02
-5.885002412485838830e-02
-6.071355747049867781e-03
-1.604388427505524031e-02
-5.352621110070460153e-02
4.876988184775355589e-02
7.894045860364350131e-02
2.408122609339886228e-02
-1.279652229774514982e-01
7.326723198781766484e-03
8.575728127676041090e-03
1.094429184074622863e-01
3.345711409267752411e-03
2.388085178264382283e-02
-1.869357828610630767e-02
1.268073824157240626e-01
-2.089214904996673089e-02
-7.139174025417398262e-02
2.620545059443980113e-02
8.369214519322167034e-02
4.097507009644713039e-02
-1.104262492584951461e-01
-1.162378705140001273e-01
3.802575261035712889e-02
-1.280732793913242074e-01
-1.060688371232764160e-01
-3.708590335406530131e-02
-5.342053730052510191e-02
1.987796262374748237e-03
-1.355619779477642839e-01
6.152487252683383478e-02
-7.284246866699108092e-02
1.490404780518559125e-01
8.086008527442947388e-03
-1.791935239815374836e-01
3.810980036981904961e-02
-5.400884701310162267e-02
8.100169092339171151e-02
-4.084010773352707291e-02
1.055033218380027199e-01
-1.297657553811901870e-02
9.897552326535189945e-03
-1.019070141950194630e-01
-8.518241472285927041e-02
-6.197598879035331326e-02
6.390094718731602341e-02
5.923832607818500101e-02
6.330340974774849305e-02
2.267096932107751095e-02
1.013364279738347140e-01
5.657472727573569643e-02
-2.566974605935654422e-02
4.110847517286522756e-02
-4.181655417176327605e-02
2.103858400380845817e-01
-1.788855274354272940e-02
-2.023606414320735548e-03
-3.342409038799738080e-02
1.814981730394766013e-01
6.772579036159662169e-02
-1.842516628018954217e-01
-7.152060457055295362e-02
6.961197618971534662e-02
-4.547377292067379673e-02
2.073060190206770306e-02
1.408052291559434288e-01
3.661164223864622758e-02
7.259022873806459004e-03
3.777243587454114006e-03
-6.413905365710353967e-02
-4.257461453188327721e-02
5.256646738218209713e-02
1.880110832735194526e-01
1.000533178565584241e-01
1.407225372052462453e-01
6.001961777503009993e-02
-8.391032120260182026e-02
-3.053463378302782028e-01
-5.025055629947812463e-02
-4.870316721277879318e-02
2.577677557148343873e-02
-1.091740403119810382e-01
6.818956736568189403e-02
6.776909578349070429e-02
1.388756440349699639e-01
1.304528847103821887e-01
7.831757887785636193e-04
-6.998382115755302779e-02
2.208704375779250162e-01
-2.826591422860680672e-02
-1.333518911457718184e-02
8.545618057000244072e-02
-9.352755959855037216e-02
8.488873963525038480e-02
-5.731161562738931042e-02
5.171902683410170565e-02
-1.076496460794177691e-03
-4.483587737471408236e-02
3.358654630678952618e-02
-1.748032160232037835e-01
-5.328856673618347084e-02
6.388438514237522979e-03
1.293026388491036738e-01
-2.154124897237088068e-02
-2.886925935387963521e-03
6.449650884424010244e-02
5.106957401566705745e-02
-1.111228599286373242e-01
-1.249817526402371287e-01
1.143659732450541672e-01
5.988999086458423465e-02
7.576547721097826732e-03
-1.280644337943688538e-01
5.620072532622375633e-02
-2.343177712754921094e-01
-2.224384443567280212e-01
-1.041511013357793308e-01
-1.398612195329936581e-01
4.192433891175668254e-02
-6.272789572514429757e-02
2.049294722525270562e-01
2.135012152861321677e-01
3.072750939577700291e-01
1.015880310859928470e-01
2.074461978962509334e-01
5.596325691189295293e-02
4.876269027679895618e-02
-2.046857680740955462e-02
-9.568827817713839584e-03
4.356674244190236744e-02
6.890834907444616519e-02
-9.860214920206730738e-02
1.678327181001267390e-02
6.289948605450815244e-02
6.130001801044156207e-02
-8.428476965142583932e-02
-2.849016656652116064e-02
9.819027955012792075e-03
-1.893974570549888381e-01
-8.226840144533460741e-02
7.429632269931615851e-02
-2.539078963249412624e-01
-2.804987942324687622e-01
-1.624359195939575201e-02
-7.454918071842259186e-02
-1.045632087130084764e-01
-3.028049382318432833e-02
-1.201095634015772982e-02
9.366253372957365764e-02
1.442038715080931344e-01
-1.250070360187615845e-02
9.483048160909021695e-02
9.733599439048746475e-04
9.314009126654958226e-02
1.836255109627133592e-02
-1.587954997664769441e-01
-4.224700075886027306e-02
-5.548505971317884561e-02
3.579284625398689284e-03
9.901224290407430184e-02
1.089347586137097701e-01
2.392828369554551304e-01
1.294777537862486783e-01
1.557288408080444719e-01
5.545841358835873480e-02
-1.569306263658884482e-01
-1.530335644372693427e-01
-1.108068843089923539e-01
-4.033364908448434233e-02
-1.606195351885422451e-01
-6.086746860744497722e-02
-1.854344262003208288e-01
7.289571273272060781e-02
-3.734571449287678573e-03
1.301118946470090354e-01
-1.042282144004341021e-01
1.216516484982269747e-01
1.248011832576885610e-01
-6.483009184879462428e-02
-5.936623264349753792e-02
-8.225191431292813715e-02
2.522940791902455460e-01
1.149043183107278515e-01
-1.667829247828813977e-01
-1.465219593245348229e-01
7.225729448192760862e-02
1.568148606779331319e-03
-4.862107052019874753e-02
-9.456642194057988948e-02
4.755571788610847561e-02
-4.072459700951967798e-02
6.819889741744988854e-02
-1.902004154328140184e-01
-2.390149809169799244e-01
-3.313380274271658377e-01
-2.878434815627338161e-01
-1.669261195445394530e-01
9.480805347135906613e-02
1.509735928428620338e-02
1.453647431495989073e-01
8.836955032518439834e-02
1.142446914198182867e-02
-1.629938770278289706e-01
-1.637405570813423028e-01
6.951579347548303422e-02
5.015445030246570846e-02
-4.016666688045261724e-02
-1.168760741192800823e-01
-1.588645677450631066e-01
1.471235916019576762e-01
8.990578841243195007e-02
-4.766765369721006479e-02
1.913950922544424907e-02
-2.703654618049008019e-03
6.688443460310079802e-02
1.039783929568498799e-01
-1.712248923852609239e-01
-3.293151406699223321e-02
-6.802647527550638451e-02
-2.928669144079084838e-02
-2.967997640908652812e-01
-3.904059955910956781e-01
-3.712985436887794588e-01
-2.822270799875685743e-01
8.678375552515109337e-02
1.768567814279931594e-01
1.143714794105751692e-01
-2.511348325026606723e-02
-9.844070899625483040e-02
-6.397010634235787696e-02
-1.064403573300226752e-01
-1.599528135831441988e-01
-2.325368954977893865e-01
-3.191025968296881121e-01
-1.517623457436983181e-01
-1.224401560308347771e-02
-1.607890393569088583e-01
-2.405003362232144837e-01
-1.825711489840055046e-01
-1.754417497668046000e-01
-2.044670951286782154e-02
3.629529293877184482e-02
2.624895404325485251e-02
-8.464457494244259639e-02
-1.316702016613687798e-01
1.639179678483552172e-01
-5.015056311761367965e-03
-1.910924469661525182e-01
9.281412512975759088e-02
-1.868661760363553026e-01
-9.293812735964465666e-02
9.623730611438439941e-02
7.434655748235172168e-02
1.126030401780584445e-01
1.256705263399593431e-01
2.262436256791082803e-02
1.242839408125667316e-01
3.028698366395753960e-01
-7.656538042374184949e-02
-2.791366666579860323e-01
-2.206951903017372596e-01
-3.511771241559225598e-01
-9.591142661312504480e-02
-6.511175273003531883e-02
1.407617107365389253e-01
8.968570961342631209e-02
-8.416620753171744074e-02
-3.810034238373848359e-01
-1.126774994826076071e-01
-2.272686847307162084e-02
-5.193392782185184131e-02
1.631370375370796433e-01
2.137421587752358909e-01
2.073472548083692413e-01
4.055738838345816777e-02
1.210772382133246811e-01
-1.005589580347167472e-01
7.904923164176957950e-02
-8.903996102207074881e-02
1.816989346901990987e-01
2.066708484634666998e-01
2.989579477998322021e-01
2.558318308155505538e-01
6.225880179838194639e-02
1.590114312445674583e-01
9.272173227745136859e-02
-3.467310069408286455e-01
-4.615016220034578454e-01
-1.480715125094803630e-01
-1.549956758422539327e-01
-1.088406340512568377e-01
1.009032424546017076e-01
8.854928767756853336e-02
1.798704598672282995e-01
5.249641553610252115e-02
-2.978583650786879033e-01
-2.663438740089030810e-01
-4.809477970736183300e-02
3.177287001394787230e-02
-3.422723778083576647e-03
-5.857354661176416427e-02
-1.102576414038320129e-01
1.051427160612025818e-01
-3.197150609726627513e-02
4.021567166879918553e-01
6.937602810775787832e-02
-5.723843552257160822e-02
1.171059704306446209e-01
2.234095091675874778e-01
1.649055414291524246e-01
2.086603091291963641e-01
-2.160686074875223794e-01
-6.789299388282092618e-02
-1.351427000953754620e-01
-2.110924632893713959e-01
-2.270939327884657633e-01
1.348824999087016273e-02
1.731654110058827856e-01
-4.321352196690776692e-02
-5.121975578541027724e-02
1.058115701094121813e-01
3.287231617087645330e-01
-2.788304857613170193e-02
-1.721984783645763017e-01
-1.861175202434778297e-01
4.057903735201887074e-02
-4.686196154548136553e-03
-6.771918501501500431e-02
1.480313299555349738e-01
1.259820344861407315e-01
1.501814631814706591e-01
1.079222301157588687e-01
1.787531925485937589e-01
-7.667295181359508327e-02
-1.681537341469009905e-01
-2.970789254116173658e-02
-7.297138459940876072e-03
-2.665228493456526793e-01
-3.477026846451631292e-01
-1.098868261943139607e-01
-7.750082624309356794e-02
-2.028422174515377152e-01
-2.042254154954636913e-02
2.048666314596132854e-01
2.117965141222920011e-01
-1.214331480093841370e-01
-4.621532276233533687e-01
-3.084519977079391850e-01
1.191232852971901568e-01
-1.586951629172476119e-01
-9.998178320363895755e-02
-2.308903934264967261e-01
-2.865748730144746514e-01
-4.493453475798776103e-02
2.052433639726716080e-02
1.083340417659604121e-02
-3.830547918893915937e-02
-2.513642056331630726e-03
3.318327227279047054e-01
2.332368702736441202e-02
1.259175578047237731e-01
-9.432489860440994300e-02
8.415483873250792501e-02
1.363920918715437747e-01
-3.439546129621977588e-01
-5.786295521578832535e-01
-4.320671272332256008e-01
1.313796355109733693e-01
2.997174381883053740e-01
-4.091609150758850066e-02
-5.570246722628758966e-03
9.605699405506487598e-02
-9.852802340394486991e-02
-1.744322662908604216e-01
-1.261207510579369917e-01
1.585440237159213284e-01
1.649663972920163701e-01
-1.293581037115288934e-01
-4.000508742490806458e-01
-1.514813068099052085e-01
-2.867461316108344677e-02
-1.946820239436730104e-01
9.242147527815593178e-02
-7.445672842060868657e-02
2.797089880250049412e-02
1.411063832701769105e-01
2.795118082426417128e-01
5.520050505457022721e-02
-1.476837677417216187e-02
1.206458325670654724e-01
3.218437748359328499e-01
6.900043945953880133e-03
-4.691915633795641360e-01
-5.077168304486203709e-01
-8.845267290035500884e-02
2.474675159951238435e-01
2.612289496277475087e-01
-3.960615676367923443e-02
-2.749789443959622659e-01
1.654736385558115003e-02
1.362877230961732355e-01
1.538671001908214764e-01
1.968317009723832278e-01
5.456613724182762110e-02
1.141676413620256042e-01
-3.318416283983780662e-02
-1.506502593364971998e-01
-1.573985072290103038e-01
-8.525216307676271310e-02
4.125261436255373698e-03
4.557432567086876912e-02
-8.649257205444288443e-02
2.253339833150352564e-02
6.409470490307106472e-02
2.783717437880929291e-01
1.954251079694447335e-01
3.877746184574535401e-03
5.177165525985388816e-02
1.829326676769978954e-01
5.201874508985616929e-02
-5.746229005632860765e-02
2.570099687363996965e-02
7.470176152892897548e-02
1.516592850762276123e-01
4.253635902167871019e-01
4.149044790910615399e-01
9.828301530432438649e-02
2.787082445749407000e-01
2.926642054192267750e-01
3.354067289968193366e-01
1.762438931587273772e-01
1.469146523314264208e-01
3.060872543664634043e-02
-7.325715512558875556e-03
-5.121094491900652496e-02
-5.323911359155374112e-02
1.032687656553309824e-01
-1.092091514134067021e-01
2.765369891151031947e-02
6.050763165950233391e-03
-9.997289757731504800e-02
2.780641702603558335e-02
1.719974636446273963e-01
3.773573703490248898e-01
2.648091180663686983e-01
1.070555362207143701e-01
-1.962690830878416615e-01
-2.158726915501464061e-01
-1.562880413416447845e-01
-5.966383457264748391e-02
4.108403741230519379e-02
4.161995462297973791e-02
4.509884659435586807e-01
3.882978364069428756e-01
1.782117991379038036e-01
-6.556498745100053371e-02
1.939811971497790513e-02
2.008917914431117835e-01
-1.033585953060781049e-01
-8.786212793484972361e-02
1.121077835190165545e-01
-3.988548863009998974e-02
1.293900084215022506e-01
-7.105208198394455388e-02
-1.535619066517714126e-01
8.191685887458578785e-02
1.478945740230402650e-01
1.071901586037574128e-01
-4.583930983146643906e-02
-4.861532131569936549e-02
1.801334852822585320e-01
1.673802492597278868e-01
1.597446628556323800e-01
-4.886875999655206082e-02
-4.752510635222296220e-01
-4.040113957326691430e-01
-3.292816249945466622e-01
-3.242511195037746374e-02
-1.243306383535068005e-01
-1.435223939003984484e-01
-1.357195197326239722e-01
1.277752065502207601e-01
6.826356292237271972e-02
-2.149448750349806647e-01
-2.882452919833855542e-01
-6.305991124891588417e-02
-6.218601330307128167e-02
3.035462063794081011e-01
1.702936216359049182e-01
2.061546837271347743e-01
1.141837497527400658e-01
-1.206293522836665577e-01
5.982629867606415602e-02
-1.256350395581530832e-01
2.034423175968052833e-01
1.592819053013544706e-01
3.739330167976100822e-02
1.477574615876930675e-01
-3.078732173627328136e-02
1.712343547178011849e-01
1.692321313171335218e-01
2.755630215312759312e-01
-1.225189002920235859e-01
2.354823227811535073e-03
1.050310573786159968e-01
5.051285989021030154e-02
-1.140837891802711779e-01
-1.051425726551033779e-01
-5.479369685037014381e-01
-3.492244147389847453e-01
-9.152047862608425621e-03
-4.410372016636970871e-01
-1.681675284857194475e-01
-1.642606975042029405e-01
-2.938522965243390780e-02
2.039847633381093872e-01
4.500377752642186202e-01
1.535647546796496676e-01
-5.905324351400249860e-02
-2.678491683275204260e-01
-9.227004447818916433e-02
-1.524466227159003984e-01
-6.858526178651827565e-02
-5.973803701377829178e-02
-5.813304513738044854e-02
-8.980614955300401936e-02
-3.924725436018491713e-03
5.952683735968337941e-02
1.070269696280753552e-01
1.320861493576735686e-03
1.789428780821899490e-01
3.360925192221497770e-01
2.801474782867050539e-01
3.211817240013453145e-01
6.997704544361334211e-02
1.991364081336283731e-01
-1.066520866301880893e-01
-8.920207731112293759e-02
4.402836931358054123e-02
-8.031778005904924300e-02
-1.096275321782668594e-01
-1.631242992323486685e-02
1.859968015459448620e-01
4.140474060721802685e-01
3.482162031164126037e-01
7.148691833723276601e-02
-2.616866973363688939e-02
-2.306556794291927115e-01
-8.613659841576680465e-02
1.146400607049737237e-02
-2.363125549352456528e-02
-1.476660440519751150e-01
7.833183264661486289e-02
-3.025527343220504178e-02
-2.472450387129740412e-02
1.840127715673157613e-04
-4.211811859140311698e-02
7.475415318867152659e-02
1.921243707757522845e-01
1.545673980987240237e-01
-6.463289091734053526e-02
2.133699698207665585e-01
-9.597514268048132347e-02
2.755278445022694700e-01
-9.310848109588311383e-02
-2.070111350362435418e-02
-7.961881277971945281e-02
-5.731077462074337346e-03
3.149818023376991377e-02
9.247799736107326085e-02
1.279202872587561490e-01
2.611177737171416768e-01
1.280287552636457937e-01
7.513656550184508176e-02
-5.688741739229018213e-02
-1.892300432906210139e-01
-1.678641749176662812e-01
1.874848385639682757e-01
1.893670301735877678e-02
-1.105460572110920081e-01
4.877851477959361387e-02
-6.969126273483752972e-03
-6.406180187820616212e-02
7.300485213673221785e-02
1.210948080550148381e-01
-1.240366845839348774e-02
6.048011840870031602e-02
-2.869360295212180015e-02
-2.827697547622342045e-01
-4.416152158989402610e-01
-7.155393084697529715e-02
-7.531017310241711754e-03
1.280834688553553480e-01
6.348543099949235935e-02
1.253703125194226831e-01
9.616709683496527106e-02
1.603130627465659264e-01
4.983444853967159555e-02
3.383581167439705939e-02
6.465572614090762948e-02
-5.827353829515371370e-02
-1.935342463104628707e-01
-1.093543041526080610e-02
-6.523681600829836329e-03
1.037858550026238141e-01
1.311704293225743334e-02
-6.291671597842309060e-02
-8.599481563208211110e-02
-1.736725263183374127e-02
1.127644646879134849e-02
1.032223069458952126e-02
-1.271414977035374705e-03
3.655478778784480159e-02
-9.971090151878432561e-02
1.049976405107897748e-01
9.564306010790749046e-02
-2.582157890472300266e-01
-1.973103056318720183e-01
-2.609787607316829683e-01
-1.022441700486449306e-01
-3.533208182964017730e-01
-2.988552695093974962e-02
-1.311283935313323490e-01
7.384137259638869077e-02
-1.534751553467094409e-01
-6.250396060656984720e-02
-3.110559737935171820e-01
-9.274716287830034323e-02
5.062328501285481841e-02
-6.203917735617559687e-02
-8.289751263893546662e-02
1.467365986517059351e-01
-9.915992301089622193e-03
-1.223226873193257735e-01
-5.758319323354532671e-02
3.465755101307901875e-02
-1.601613126159270317e-01
-1.450834206948188251e-02
2.295799105685734226e-02
-8.039792030770244458e-02
8.698119747858011619e-02
-2.502911000934293639e-01
4.418573084518466303e-03
1.275151418844750195e-01
-1.865418040031378566e-01
-1.627275728082431538e-01
-8.384851767131668021e-02
-1.419178218532706759e-01
-3.072254701433377866e-01
-2.100075301938119504e-02
2.787147161100243450e-02
-8.837254401211865062e-02
-1.171351875666368225e-01
2.298672423882713520e-02
1.963092028558548197e-02
-1.256342754945909135e-01
1.389072307913030886e-02
-1.677145378813743593e-02
1.223459788268209669e-01
2.594130667654468217e-02
2.578455202144653846e-01
-5.572038610131446051e-02
-3.674502587286099936e-02
1.440470657906191970e-02
7.101115258103043136e-03
5.590197089617855719e-02
-3.264514409180389182e-02
2.296191879574437100e-02
-9.266236577452115208e-02
-1.271799590161148685e-01
3.796391912073467101e-02
4.877870478729208481e-02
-1.112868314638010558e-01
2.161629309428169388e-01
-1.387070914384361531e-01
7.265512511382761496e-02
5.698221456196887053e-02
4.899683858983103907e-02
-1.259816358516759327e-01
-1.589348279539550546e-01
7.428171480118499551e-03
6.658208176658454713e-02
1.532235944805987737e-01
-1.471447909010086853e-02
1.075885329329810403e-01
1.289733311393366222e-01
-3.049927691743637651e-04
-7.197528287298930738e-02
-1.715147963330316827e-01
3.860657321289240329e-02
-2.352679455643649428e-03
1.107544629070780218e-01
-1.411379524119129314e-01
-1.139298582146761607e-01
-6.231773493570207795e-02
-9.090722721772981352e-02
7.059122508887365199e-02
-1.334035973012527021e-01
-1.085495180854980091e-01
1.138692760727314235e-01
3.771868699563601240e-02
1.906815063296255983e-02
1.210754391304628419e-01
-2.561080670503792719e-02
-2.412444955969318336e-02
4.394556146552993509e-02
1.214619341483353099e-01
7.804717222259964504e-02
1.429861950077318256e-01
1.613840959721185020e-01
1.987942666409250533e-02
-5.603932216656544452e-02
6.494022281044033174e-02
3.166063727479351969e-02
6.883524913769760445e-02
8.291876677875691104e-02
1.643646833557090570e-01
1.144105236846286455e-02
-4.893746955391666681e-02
5.680380161783124549e-02
-7.240819218373305277e-02
7.307949059898947997e-02
8.606473912284845484e-02
-1.083327594399174781e-01
5.416131901670876575e-02
-1.092030271427970982e-02
-9.288428644755685956e-03
-7.103350220941111182e-02
2.317432591791346655e-02
2.809525196203312147e-02
-1.385673975133225877e-01
-1.811449791027952561e-01
1.067408883096866434e-01
-8.283323122346505918e-02
5.910218573941684178e-02
-6.302329557439100005e-02
2.351558012816581389e-01
-1.181078071116391098e-01
-5.258729332180821225e-02
4.500945680806249516e-02
-1.361784815985162822e-01
3.012558452227985240e-01
-1.346427018760995575e-01
-3.052873202599593744e-02
-9.761851426013938571e-02
8.709732397242510304e-02
5.875565051146550144e-02
1.013879573022052338e-01
1.699337145739598098e-01
3.064990409228398119e-02
6.339583073198572227e-02
4.645953479904464667e-03
-2.500099086709973162e-01
1.512394408399999335e-01
7.244319596314909016e-02
-2.436677117210818422e-02
-1.614371237423501693e-01
1.164436236936523643e-02
-3.499227039108251253e-02
-4.066979311990417956e-02
-4.306934652727748003e-02
3.594973216260616972e-02
8.543858703123911880e-02
7.270267446792612331e-02
-1.402349465740073409e-01
1.967210764365872472e-02
3.578554284643671313e-01
1.298597653474717339e-02
8.402715650071862497e-02
1.103750000605283228e-02
1.479252795280852108e-02
-2.674847161275219487e-01
-4.633375662988614002e-02
-1.239287853443320295e-03
1.058275871364989552e-02
2.256432888818898364e-01
-1.007093118873711168e-01
-3.478537208867254343e-02
-3.808042926138190121e-02
2.702917605713415772e-01
-1.633992991141980100e-01
-4.642814839523515258e-02
1.061763017091099520e-01
6.644318826829685720e-02
9.746015068073107801e-02
-4.469307512012771211e-02
1.615481123694157556e-02
-4.125408949758491151e-03
1.974054028949730026e-03
-3.460269690008443283e-02
2.949213215566055118e-02
1.466783827837459808e-01
3.538342866523274538e-02
-2.625825620363376328e-02
-4.148490564680487602e-02
1.113946332477540047e-01
-1.204531256926627981e-03
-2.370538996266906284e-02
2.059681741853143233e-01
-5.141528432890868361e-02
-1.037090575403582654e-02
-8.990415895440828642e-02
1.200215214183550094e-01
-9.310401939862206211e-02
1.849883700853981530e-02
1.921947732001674514e-01
-3.476027414941196270e-02
-1.593609598105760403e-02
-1.440248976429158723e-01
-1.044849783935947532e-02
7.666806531377132194e-02
2.118697809999030290e-02
-2.375451366653402036e-02
5.810204425662531674e-02
1.823751659702822422e-02
-9.041682215888785512e-02
-1.858932332339343352e-01
-1.900933242741221010e-02
-8.962298014684551284e-02
8.970410998518579815e-02
-7.044004298879515125e-02
-1.816999533636277087e-01
9.220369953515902828e-02
-6.508044303436887057e-02
-3.552112830317129266e-02
-6.877153806331692820e-02
-1.697186168553185132e-02
-1.099427786453735512e-01
2.370411910727440383e-02
-6.963971791037458503e-02
2.690844458969938319e-02
-7.748546981325388217e-02
4.921426642388312955e-02
-7.879031960919376243e-02
1.450124251518792595e-01
-1.515561915196831366e-01
-1.156588985219633367e-03
1.200384016793740599e-01
-9.467215013024554704e-02
-2.552018046120398953e-01
7.000726290685570230e-02
-1.146525992758950230e-01
1.684346031057676676e-02
7.111677194648693967e-02
4.244921817980899618e-03
2.735659364370768981e-02
1.048604487999376944e-01
-1.550095944505844037e-01
-1.660135654153900575e-02
-1.063737559020644201e-02
2.532191599091628276e-01
-1.530307337688772973e-01
1.695978692983367286e-02
-1.716501176762324221e-01
1.287388124170825987e-01
1.107849590681170837e-01
-1.168668302141122051e-01
1.977348656687006323e-01
1.639906258435632758e-01
1.054947779214950865e-01
-1.824328206289023424e-01
-1.402595603121282314e-02
-6.318458183098521475e-02
-5.703724223300140478e-02
-1.240706519487540099e-01
7.267730291866733583e-02
1.455219355664934613e-02
-1.378478613661323071e-01
1.281150991025227504e-01
1.175807575993571136e-01
-2.476976352229259826e-02
-4.548752664568830872e-02
-6.961975354615064504e-02
1.263929000730905639e-01
-1.518524190494793258e-01
1.192235452396999962e-01
-1.616128907602408793e-01
1.983913296680131499e-01
2.235768105273927553e-01
4.850392337484824012e-02
1.325657497653963401e-01
-4.656806649928867115e-02
3.895133049826878663e-02
8.486190957939097890e-02
-1.078837553157336177e-01
7.332838243943280709e-02
1.464780231324293580e-01
9.528539065241684817e-04
8.645710901514172542e-02
6.390021261989824175e-02
-7.747021754154120865e-02
2.379950668298266153e-02
1.749832715395815627e-02
-1.165139548950967253e-02
4.475265199592003834e-02
3.397568845606185328e-01
-1.784670357635669349e-02
-2.480414023055457621e-04
-1.305207639807406395e-01
-1.091853484861867174e-01
-1.923139428071607426e-01
-9.854676530499172082e-02
-2.461944183274903941e-01
-2.063788042360840957e-02
-5.733044018910923162e-02
-3.183562584788173777e-01
-3.334058498420049421e-01
7.957715362680485571e-02
1.068299627005970670e-01
1.134060579202834929e-01
-3.975958406462814371e-02
1.067136776923651408e-02
-5.871469073540110453e-03
1.189175366377328430e-01
6.828868770995479356e-03
-2.765799176110247601e-02
8.797311952851340211e-02
6.374223891756714000e-02
1.116518795503367578e-01
-7.314892284188689864e-04
1.998023913830769549e-01
5.366363476483378830e-02
1.915303467152499120e-02
2.653836367234299609e-01
-2.807912700074859935e-01
-1.214572255228749953e-01
-8.748412280560885490e-02
-7.697463199923715305e-02
1.860903314916055040e-01
-2.467043128052614359e-02
5.391996037520438434e-02
-5.390141846559148853e-02
-2.138752947088757572e-01
-3.258170020136049727e-01
-1.161867151197751163e-01
-1.352875105522761412e-01
1.242244675622211220e-01
2.841292983965303942e-01
-9.238612262467629788e-02
-4.735308205219557198e-02
1.738588892488565907e-01
-1.403194843014574922e-01
-8.865460921821899376e-02
4.210764510287297313e-02
3.580757237102832891e-02
-2.816015456785606053e-01
-8.703099794596219629e-02
9.386815080044808024e-02
1.923712713639020438e-02
-4.504865625685504360e-02
-1.265298145184219902e-01
-8.300297528756625520e-02
-1.507307827511762954e-01
-1.749369103871802056e-01
-1.163911949571562188e-01
4.246932944514258262e-02
7.569658627111566784e-02
-1.824800039999835422e-01
1.831316718945444066e-01
-6.228692616731437010e-02
-1.639277186363952699e-01
-6.187522880700850603e-02
1.837534300180124203e-02
7.172582854792894716e-03
4.501275522332694873e-02
1.441294904308628999e-01
4.661559823870775610e-02
-3.237760241224090646e-02
-2.967623664280405818e-02
-1.847454919667769827e-02
-3.887604023256574504e-02
6.087111415766453121e-02
2.077418336021986597e-02
1.689645892141077715e-02
-8.334275512614655601e-02
6.336030580782699151e-02
6.871833871350686851e-02
-1.225630920388525585e-01
-3.623098644407649616e-01
-1.069522856406216263e-02
2.355616083128806992e-01
6.579300501574116000e-02
-6.858812788484144884e-02
-2.433318334254284607e-02
1.727366691518121278e-01
2.617794989611151313e-01
-1.217558408441720384e-02
2.039728617934874044e-03
3.272861858316654469e-03
1.677707742847044450e-02
2.654884303289167802e-01
1.923005898076796463e-02
8.320998600470326523e-02
1.610124257074184717e-01
-2.991561065346892145e-01
-2.046775685232433140e-01
-7.023811125556576884e-02
9.389045806718326892e-02
3.016121746173413068e-02
3.184466703201403737e-02
4.995685732781077887e-02
-2.245829318416230902e-01
-4.681782176973389026e-02
1.877816794875411879e-02
-7.779334220488989815e-02
-1.604149376313704356e-02
3.944592584094404331e-02
1.590457804811246934e-01
2.461486689685361551e-01
-1.845525006715081906e-02
-1.451182757277338919e-01
7.223573622027683327e-02
4.554378080887275249e-02
2.049254705842858126e-01
-2.099739948643478127e-01
3.478038116287460180e-02
2.750641333311849498e-02
3.685382687945170099e-01
4.256716797228934368e-01
1.054206304861281529e-01
1.883702947363459501e-01
1.151615425395370873e-01
-6.655369836194260924e-02
-4.745115406333392793e-01
-1.173903032788360529e-01
-7.900865425174694034e-02
-1.169438336576227727e-01
7.009108302634213528e-02
5.510374914345989028e-02
6.513804174769979860e-02
1.124340917889481428e-01
-6.911851158175502663e-02
-2.748799365030626940e-01
-1.217117383588846163e-01
7.556815513508963189e-02
1.422456874858123443e-01
1.559241438728800888e-01
-5.341147996491500960e-01
-3.051619919583060669e-01
-1.463038595508978600e-02
2.035272935654191262e-01
8.898662143581093087e-02
-9.969729343407038313e-02
-1.406388559060881560e-01
-8.420936758234309066e-03
1.496425933048469437e-01
-9.288529325904794354e-02
-1.366431624099631870e-01
1.622346720757415761e-01
1.760199989524699471e-01
-4.758645817126964661e-01
-3.810577446881303620e-01
-1.360693831296910794e-01
-1.519916842313653038e-01
3.049524023327937136e-02
6.631060409501510211e-02
1.542690816274740473e-01
-7.032525034410309905e-02
-3.954180929106312220e-02
-1.689376165105041516e-01
-3.059867945629494712e-01
-3.447453045058982979e-01
-7.297544999797933238e-03
1.782335895644635293e-01
-5.036942416921332821e-01
-7.618516639035267657e-01
-3.608788454895603959e-01
2.956213518173076427e-01
5.656918294326923613e-01
1.436021659079633195e-01
-4.790102544310009258e-01
-3.276142064186337022e-01
-7.068708921810848422e-02
5.147087603631694125e-02
-1.274722341203459175e-01
-3.432556996166317709e-01
5.046988001534491800e-03
3.381083996710654849e-01
-1.871158992086025541e-01
-4.506505941632611700e-02
-8.838964917080330275e-02
-1.152961116504271494e-01
2.930083634394978209e-02
-3.818957931910532677e-02
4.876481432858205400e-02
-7.266038016276082923e-02
-3.738051184428691220e-01
-1.782366774009653265e-01
-4.256530000968066774e-01
-5.364033871091619110e-01
1.640556983289420678e-02
3.411179101491516874e-02
-2.749833135103896820e-01
-2.115272408136063542e-01
-2.132175584121152878e-01
1.208232090940193904e-01
-7.161701595983178742e-04
-2.143794318808588673e-01
-7.180354955385255256e-01
-5.893402415781514095e-03
1.211309523747574474e-01
2.085952807259680575e-01
-1.726275092341892844e-02
-3.884455363025222097e-01
1.134748853560267612e-01
2.702642494293898134e-01
-8.179026661889673977e-02
-5.288238216326925090e-02
-1.089611895934593233e-01
-1.071645130347699711e-02
5.364030671036203873e-02
4.671754477065706568e-02
1.612560182707584999e-01
-1.287318929807186874e-01
-3.074725086680549398e-03
-3.127122917449529638e-01
-3.537976414816249027e-01
-3.110329887186377706e-01
2.728928465950754001e-01
-1.286080802584567973e-01
-1.587564464058550118e-01
-1.092646458520744324e-01
-1.461668576519370155e-01
4.036013735347837583e-02
-9.033341993045163054e-02
-1.353941672114729322e-01
-1.087086273878232756e-01
4.113001301833000278e-01
3.725273565133560560e-01
-1.746296472905241315e-01
-1.169622439925205454e-01
1.569123765564751083e-01
5.435158043547554385e-01
4.897932704819938365e-01
5.530073100695353377e-02
-9.473360305780782753e-04
1.355825587225178985e-02
-5.423641426989836423e-02
-5.028762714948643159e-02
-2.948402412589277988e-02
2.853131298076789363e-02
-3.885967206988056449e-02
-1.883085638289660330e-02
-2.241992006174914898e-01
-1.049102987367021671e-02
-4.732427587962323781e-03
1.545567021435487465e-01
2.117032390317181434e-01
1.869989119321245341e-01
8.014571090665104092e-02
5.304001763382526491e-01
1.701692207902568699e-01
-3.218388677179977175e-02
5.275400576336296277e-02
2.438929200509067086e-01
5.995121670422323135e-01
1.977637708478758027e-01
-2.268815939455224862e-01
7.231505304203895979e-02
3.872852994580259778e-01
5.705764025631641090e-01
8.569336723548634516e-02
-5.086072401409776067e-02
8.739495761497373394e-02
1.272195306835668671e-01
-7.329446491473917691e-02
-1.622926462593921870e-01
-1.031119539767557242e-01
-6.857412340865298717e-02
-7.142366513749925927e-02
5.979487278684356838e-02
-1.622742542273052646e-01
2.089873217275407258e-01
2.056850021175214427e-01
-4.470144286454317412e-02
-1.747064277138427879e-01
-8.249512535189343354e-02
1.083452574282142283e-01
3.765886388463384193e-01
1.882071260816480796e-01
-4.140244265622728542e-02
-1.682961295252384804e-01
-2.607288884642597337e-02
1.861461611599201926e-01
7.168081228026754181e-02
2.703898031692281850e-02
3.819980296571602318e-01
-4.873526510034543319e-02
5.368714692089400498e-02
-4.172122426403695322e-02
-3.124691480921912845e-01
3.312140331912806143e-03
2.866293797569032745e-04
-5.617982481554111007e-02
-8.407097968660318110e-02
-1.395677556865060065e-01
-8.748508713794087011e-02
-1.368438653988334197e-01
2.693127095009837380e-01
-1.070928564005558803e-01
5.153610439174077101e-02
3.765465650614620990e-02
1.794920348594820957e-03
-1.045089047149840300e-01
-3.594107347971465805e-01
4.736183658881668729e-02
2.281143549776751545e-01
1.951876995768737216e-02
-1.134944779555674133e-01
-3.216274335897524317e-01
-6.110659962993357786e-01
1.381590846436611952e-01
2.187695091412258375e-01
5.353336643560234476e-02
1.455636448157040241e-01
1.739874086913671403e-01
1.349564567703164519e-01
1.082236912774152543e-01
-1.178116541684800511e-01
9.109381147048577904e-03
-9.407783566047203672e-02
5.067374972590469456e-02
-1.057914514482612839e-03
-2.920582694754427985e-02
-1.333595443385563947e-02
-5.541852606929584951e-02
2.353075953680204002e-01
1.789117744001963717e-01
-1.438551292948822280e-01
3.632781570195627308e-01
1.786496860957484667e-01
1.924159176401596741e-02
-6.240036090450882394e-02
-1.433419624943211845e-01
5.195910456294829810e-02
1.126634462055744607e-01
-1.731247438016625673e-01
-1.001738486628615532e-01
-1.954348872519093006e-01
7.477903611347123253e-03
-5.520083246554295664e-02
-1.647853583621818885e-01
-4.087844677094806811e-01
-1.826506630728020886e-01
3.283636780127472954e-01
5.431116154655657446e-01
2.046539009858008296e-01
3.612807822987534334e-01
2.235603894747311415e-01
1.826031100278073527e-02
-3.939567218936822213e-02
2.762646237577654623e-02
-9.722230037573688366e-02
-1.175340685072095714e-01
1.868190867973728020e-01
3.241557273051876020e-02
-2.418188062190544108e-01
1.017091568203218194e-01
5.256620201919166846e-02
7.725715185441422994e-02
7.053484138043063234e-02
9.755715804052744397e-03
4.080413661432517880e-02
-1.245519325151416834e-01
-1.978963726309195814e-01
5.217662228093833399e-02
1.121649539240859722e-01
1.895567374298558205e-01
2.239837400661475950e-03
-3.251575656029147554e-01
-2.395405780812815411e-01
2.417691097210903639e-01
8.416802784808932181e-01
3.129038140049804628e-01
1.118422395961346516e-01
-4.300645279607447774e-02
4.881941881651415127e-02
-5.835853554642871088e-02
-1.441093783012172558e-01
-4.423778471647989152e-02
-1.168507444655400018e-01
-1.861152689177322794e-02
-6.232499752475609278e-02
3.028702831111411767e-02
-1.419400121690874428e-01
-5.715133632859906720e-01
-1.164887814938617150e-01
1.509821977636810475e-01
1.307900655902940745e-01
4.976656154225440193e-02
-1.091993330683053987e-01
-6.925077290725907553e-02
2.451864208516327526e-01
3.345970787858314477e-01
7.201632757292062426e-01
4.046212471542697253e-01
1.414270474631234009e-01
-2.669212677095025299e-01
-1.039148134035525750e-01
3.045480753016319708e-01
4.533039336349597992e-01
2.949883992937391564e-01
6.246706861050430049e-02
-4.203862596847253441e-02
-2.406703112232260605e-02
-1.014644450978596929e-01
-1.712169804766578707e-01
-9.512878954285694522e-02
5.156053124713849689e-02
-9.203782990314901546e-02
-1.769323260805237552e-01
-3.277194199439344580e-03
-3.056641496672705127e-01
-1.160290582760266920e-01
-2.656482453208217631e-01
3.932223653779732403e-02
4.127298625769479368e-01
3.580210729151411253e-01
6.872339712030267611e-02
-1.494770109007633185e-01
2.069015845846971791e-01
4.784218756553934027e-01
5.273878255061319464e-01
2.339747817683129061e-01
-2.116348659799676957e-01
-6.830194283035009861e-02
-1.333045535942588844e-01
-1.927419539505356993e-01
-2.946336802789221304e-02
-2.050248828015354130e-01
6.043933786913451706e-02
-1.281453159511919404e-01
-8.447558202128227500e-02
1.626794176390216895e-01
-3.694331896071786914e-02
3.494211591749129403e-02
9.350893089983601178e-03
-1.061694857043069262e-01
-2.582498249790153300e-01
1.178015727792803558e-01
-9.683505600351707820e-02
1.473634033204589411e-01
1.518172702932713558e-01
2.138485370604804314e-01
2.996328141601400930e-01
-1.680824868956090623e-02
3.832176893156229169e-02
-4.004614648774587060e-01
7.159845890275122471e-02
2.243565889832626337e-01
2.790377737978451678e-01
2.274378177371599585e-01
-2.754300916261650384e-02
-3.523246574401839304e-01
-2.482774853473761201e-01
-4.498159742323568078e-01
-2.489730443013010719e-01
-1.697803963715932285e-01
-2.726397815787185430e-01
-4.135031548950327679e-02
-2.165711290385710364e-01
-2.172941595464666226e-02
-3.482783808487586487e-03
3.719483412418189000e-02
-3.146469720671323661e-02
7.395055692868708619e-02
-1.923407162548963073e-02
-2.158910573033610558e-01
5.871322362065363801e-03
8.570957840006397654e-02
3.517599647034026500e-01
3.193246492647885404e-01
3.632130009898514311e-01
2.727383225811078754e-02
-2.137073936004394437e-01
-3.426658801785668618e-01
-4.130344620489377894e-01
-2.877616994715348486e-01
-1.137887903415149421e-01
2.874414412747717021e-04
-2.315720359462413724e-01
-3.937929436177800557e-02
-2.207664079817455161e-01
-1.798689740023307060e-01
-1.922562045670298259e-01
-1.434672225721108918e-01
1.372376798057634364e-02
3.242222017512520066e-02
7.398775947522590046e-02
1.028870891776040020e-01
-1.898423773953997473e-01
5.116974236438513041e-02
6.132335575157418783e-02
-2.037628350940256031e-02
1.334382050075988424e-01
-1.613758871729768091e-02
3.587383475172571667e-02
7.426007167708771617e-02
2.538444965632010164e-01
2.570981032393933607e-01
1.418430740109568877e-01
1.627120763580038321e-01
-2.305909248520624233e-01
-1.556738673108937487e-01
-2.930405333811024193e-01
-3.509395884079840044e-01
-3.233033723045042884e-01
-3.518600356398620677e-01
-2.370631952073503912e-01
-2.459313396454512191e-01
-1.836485821210582237e-01
-2.510751828931121477e-01
-2.032777666322405363e-01
6.693200298744829066e-03
-9.768006119766103890e-02
4.186174915559185555e-02
2.418947157054522450e-03
-7.575664932349195080e-02
-7.920382011262022681e-02
2.008484821345771221e-01
-9.173923578644109511e-02
1.921571165238405987e-01
-6.591260650514756125e-02
-2.546815798753355314e-02
-9.244742693034151138e-03
2.363073835239258569e-02
2.533879887367957440e-01
5.657778239571886053e-02
4.308038130996241083e-02
-4.681904943910705774e-02
-2.855338233604720055e-01
-1.051942952070951528e-03
-1.437219287205253326e-01
-2.185145114255634402e-01
-1.497663830112787864e-01
-2.526685336339283272e-01
-6.522145850659075150e-02
-2.013731423849010049e-01
-2.770785299958650749e-01
-2.496343709675920286e-01
-1.324576977271540446e-01
-2.499556572883089856e-01
-1.729176277444444132e-01
-8.249660976681735813e-02
1.549469335497348499e-01
2.352517388887841177e-02
-2.876651065546255784e-02
-9.341738474429733818e-02
-1.250151795344472683e-01
-3.060789345366921738e-02
-7.503811783429051308e-02
-5.836018124827675735e-02
7.490866317875986835e-02
-8.705264730401181261e-02
7.373951622430005570e-02
1.291183632028241463e-02
-1.833198309777631652e-01
2.764065232744015652e-02
-1.857313066322376083e-01
1.646746634004702670e-01
-1.145608061557019802e-01
1.098747054108553389e-01
-8.745704910570403778e-02
-2.028630413995190784e-01
-4.372833514169304631e-02
2.107772239019811700e-02
5.363731046275476561e-02
1.116963452659193584e-01
-1.863169549272581660e-01
-5.151373850045542352e-02
3.691463486339981170e-02
8.746714939063508776e-02
5.272298683561780358e-02
2.614241200925036812e-02
-2.559345110440597870e-01
-1.123538912332329859e-01
-1.133590196987792897e-01
-1.842726372645052055e-02
3.841534377032283787e-02
8.316948803307298854e-02
8.147000609013731187e-02
-1.891151175587182098e-01
-2.244826875752115314e-01
5.884481526014431058e-02
-2.941480628786614232e-02
5.667948469301697240e-02
-3.826912149489301168e-02
-1.084385546670474203e-02
1.324989136102042442e-01
1.568239683125775483e-02
-1.878098736854432460e-01
-7.123373322265623420e-02
-7.977495331895211039e-02
1.388123001790428010e-02
1.027464349839919411e-01
8.344341526406046095e-02
1.351626150782199998e-01
-4.064962182110679750e-02
1.680945574111771257e-01
1.293224298885169710e-01
-4.249552915772508710e-02
-1.173423721109353030e-01
-2.377527099697255078e-02
2.018172722265403063e-02
6.361756376559256354e-02
-6.747377610685904858e-02
-3.758297229366314163e-02
-3.140334365204615341e-02
-6.568070126590612456e-02
-6.919897310519877720e-02
-6.778360491337423466e-02
1.253195080130038719e-01
2.031381246456225032e-01
-2.518826079594874146e-01
-2.015886958762137526e-01
-5.865488781794210571e-02
-6.383639168768259764e-02
-8.785435965346929943e-02
-6.090375862153079439e-02
7.326710058141430726e-02
-3.494183941772186636e-02
-1.019557938454709323e-01
7.910330161712960870e-03
-2.235663672691619586e-01
-7.838574442924546581e-02
4.431588885737478001e-02
-6.877114705346069889e-02
-1.576396155792364195e-01
-1.778416549770399646e-01
-1.418468879668700611e-01
9.309222779688404448e-02
-6.245427423255585364e-02
1.609405862367202511e-01
2.229853442625698203e-03
1.252504282868014199e-02
-5.946779078918863759e-02
1.345794006537446019e-01
2.160215272316357016e-01
-3.939828047501187092e-02
-4.809751447867105512e-02
1.462907294465136572e-02
-4.107032454333051780e-02
4.057354294153781710e-02
6.876530597737399997e-02
1.575096676522534656e-01
8.882857167688723576e-02
-1.054635710979847651e-01
8.080918471065424991e-02
-2.131918223548952968e-02
4.658902900064871948e-03
-2.900451163491915216e-02
-1.429530266421563667e-02
1.377798085637312320e-01
-6.714977836312718829e-02
-2.885584946791425742e-01
-1.402151939074141596e-01
6.377932924197753095e-02
3.455843728688054017e-03
8.538608312555175106e-02
-7.012770840647433723e-02
-1.524966758850283544e-01
-1.588138106579000119e-01
2.452182783073776351e-01
4.073260856561385090e-02
-4.869310702010337666e-02
1.020562054356050630e-01
-8.653022584367740799e-02
-1.372714615702312624e-01
-5.174727555349325353e-02
3.171118360560463978e-02
3.827009264980192615e-02
5.158877477681451246e-02
1.967996092876019565e-01
2.345867838191356969e-01
-3.623507913259095287e-04
-1.559343294974745164e-01
-7.435457075327747689e-02
5.227197890423688348e-02
2.275097487842370758e-01
-4.167092497161972720e-02
-1.731645423750561852e-01
5.038340720039284799e-03
1.467221435315686218e-01
1.423703159802783280e-01
-1.028719868250361213e-01
1.016474863202539158e-01
-2.179495930283129601e-01
-1.307334413345762753e-02
-9.453947997952193150e-02
-9.131948304874970557e-02
7.243277481636298254e-02
-9.592239087752753302e-02
-2.353221907193300128e-02
-2.249381868007997720e-01
1.249815954529077955e-01
1.326459260871802326e-01
1.097689529008682441e-01
9.458677209387097995e-02
-1.679576534325453174e-01
8.141824460923786921e-02
-2.894678312114921243e-02
1.434221313745329129e-01
1.390210411284501825e-02
-8.726342649746254843e-02
1.102167945930374454e-01
-1.125892636716842310e-01
-3.695221804310857422e-02
-7.891459733087655137e-02
-8.682693590973990239e-02
7.275639401440408237e-03
7.796202967895088376e-02
-1.460232976890541434e-01
-4.541894363784088062e-02
-1.133826687352270102e-01
-2.027312874881758153e-01
3.383310661329282792e-02
-7.644483474048274774e-02
-1.909179430472599803e-01
1.560699368696424338e-01
1.257322254608720380e-01
-7.038722410790737571e-02
1.294471044913690638e-01
-1.064502751272692199e-01
-2.735981968242368056e-02
-1.675904743259819529e-01
-3.021692554096250816e-01
-8.476376008127894934e-03
1.585420229451276752e-01
-1.231188176734640191e-02
-3.209958697588297105e-02
5.527176585440187612e-02
-2.110882174956372481e-01
-7.996894712202128053e-02
-1.152421253742010321e-01
1.263462883287049532e-01
3.039919074595368725e-02
-7.447027913184751935e-02
1.022010293978451063e-02
3.277608302804148332e-02
7.121997685387758403e-02
-2.038803216742021973e-01
-9.938428466244449144e-02
8.926382506595116617e-02
-6.103214295188363891e-02
-1.672180050142272056e-01
-6.217472801428169243e-02
-6.388036988288180174e-02
-1.551620327233773147e-02
-9.509372986316291104e-03
1.185775337748584679e-01
-1.246188870746261015e-02
-1.565248676284126256e-02
-6.627621220718213357e-02
6.494517618192968689e-02
-7.970310947833471327e-02
-2.565500948367007705e-01
1.015457008610331779e-01
7.109209063313078059e-02
-2.488887508420246919e-02
-1.052025630359039975e-03
8.251939987241420360e-03
1.337083575413043901e-01
1.331677038454533906e-03
-7.392409073356001614e-02
7.241917599248955117e-02
-7.721246262970642149e-02
4.783117029526697678e-02
2.677891113848877153e-02
-5.763032671971751036e-02
-1.432759473564214348e-01
-2.559989456668471663e-01
-1.213799376978934030e-01
-4.694530522357617808e-02
7.963767732775915709e-02
-1.451188305116688781e-01
-1.394226763511515754e-01
-5.041672727713867458e-02
3.966289050501911259e-03
-2.127912772066737832e-02
-1.897083628881279793e-01
-1.622502929744545908e-01
-4.454890064717492021e-02
-1.817577659912996968e-01
1.883745300640954357e-01
-2.622057298738738051e-01
6.429026875414005360e-02
-1.446236910840182910e-01
-4.757811664274232133e-02
1.344493355269457679e-01
9.530734544238313177e-03
1.893013772727686617e-01
9.500651237910606728e-02
1.131670701706575383e-01
-8.409530897461434118e-02
-5.693192050250883013e-03
1.395008409595678844e-01
4.683805756712459273e-02
-1.415586726281914953e-01
-4.088992872691286223e-02
8.711078310013654902e-02
-3.273778955111690536e-02
-8.523016858292858933e-02
-8.205603930313756789e-02
-1.468347098908205084e-01
-7.043356851009523883e-03
7.082406450327059788e-02
7.685018228620583980e-02
1.007089338242516396e-01
-1.125799578958914110e-01
-4.288691700756970537e-02
-2.265144064749472982e-02
8.209836531325348519e-02
-1.990967686458395558e-01
1.532171727463572074e-02
-8.468916075906113283e-02
9.027457967750544821e-02
1.195276886075645195e-01
1.471467014086366154e-01
2.366083272346545252e-01
8.973760213363747573e-02
-6.990190521993668027e-02
-8.832800570993686040e-02
2.059427548935520158e-01
-1.147072132779294873e-01
-3.476587653231294484e-02
2.869912852082882881e-02
-1.991651719548291899e-01
1.264159553116533108e-01
2.954650784314171233e-02
-9.775721305762406776e-02
7.750816893221249004e-02
-2.632375448669232454e-01
1.344378609894164300e-01
-1.786911092228755660e-01
3.549655149631029127e-01
-5.840902401445795256e-03
2.401614933834329557e-01
-4.776649993537863959e-02
-2.546531987790283114e-01
-4.568724927724112511e-02
-1.263948114181197291e-01
-7.450645567085262266e-02
-4.955392446266332351e-02
1.167076781812500207e-02
1.097282422353491743e-01
9.339423152663348104e-02
2.290202270760595127e-01
-1.185063297771376811e-01
-1.971141060826367697e-01
-1.633166073809576013e-01
-2.474634746335472035e-01
-2.940303005610756318e-02
2.977026455398491464e-02
-1.621906906169127624e-02
-1.366866432985048424e-02
5.756659742527066304e-02
7.076614737332644067e-02
-6.733402449291567282e-02
2.292085262088106729e-02
-2.790850783366106147e-01
2.041775115159445014e-02
1.870788845455582938e-01
2.315618208651429588e-01
7.092463008440155758e-02
1.012700713404762892e-01
-2.509417002121698270e-01
-2.969173105034737525e-01
2.809128513192344235e-03
1.385114691641317064e-01
7.716981749389599521e-02
3.172724420684922692e-02
-3.168963079119144211e-02
-5.439232078034341583e-02
5.474704035071691760e-02
4.649784729644189374e-02
-3.288807061811431509e-02
-1.128448365162239841e-01
-4.885657313860080619e-01
-2.086338568586701137e-01
-2.009693314016396115e-01
-4.214142712404935626e-02
-5.747314025523256320e-02
9.343130802927811229e-02
-3.034763855795016493e-02
-3.365725630522427014e-01
-3.499842479957373381e-02
-1.190187359504316644e-01
-2.271222393110336191e-01
5.264442024239995160e-02
3.187597681137059324e-01
2.178416652373037568e-02
1.973067190669028914e-01
-1.890747633048015519e-01
-3.926561412572306398e-01
-3.271671562720032123e-01
-2.144873151759228436e-01
8.912481079953162022e-02
3.789973566103490565e-01
-3.716664728849745220e-02
-1.173707705862954420e-01
-2.003167101134729622e-01
-8.382926979579422011e-02
2.609884948135838406e-02
-1.201367108554751567e-01
-1.549592932745343099e-01
-3.294308324212570915e-01
-2.207408973439461408e-01
-2.769728887307298937e-01
-8.136343235977108734e-02
-2.320584385094604241e-01
8.174436440544159688e-02
-9.980446641447271450e-02
-8.222211276201216515e-03
-1.348467409423992625e-01
-3.592972766021155784e-01
-9.975437615378038650e-03
1.477311573226399166e-01
2.499120196162964505e-02
-1.348714757303595690e-01
-1.885459535987333013e-01
-5.611433758665731325e-02
-1.418685171335241080e-01
6.798566572606881686e-02
-3.342273316239764008e-02
1.660030762503185708e-01
1.370054621507924286e-01
9.902697120396349376e-03
-1.020644054980970883e-01
7.951355205410128024e-02
1.183208257108678690e-01
2.913439527758193148e-01
2.044653475146217536e-01
4.502093855881220824e-02
-1.272731704381954987e-01
-8.723529996081941240e-02
1.055730083859618140e-01
-8.469208772023409382e-02
-6.831285648754013493e-03
9.833533737367669558e-02
-3.803853011004956763e-02
-1.022911691687570374e-02
-1.570537918104978892e-01
-2.951012064543677149e-01
-1.938990323217920642e-01
4.292468024865448567e-02
9.418292023630545073e-02
-1.897098598824425719e-01
-2.486773735511642047e-01
2.153746460471865076e-01
4.377305485687943420e-01
-3.627991117650099934e-02
-2.256329920714969239e-01
-1.215293570145128399e-01
-1.563258336202351106e-01
2.672071572971479545e-03
5.129674370003830391e-02
8.101574056833903137e-02
1.492767806568280065e-01
4.353562667841597289e-01
3.475420626502874755e-01
2.074264001993903622e-02
9.675931878624643989e-02
7.832741763658659581e-03
1.778952273349218294e-01
-5.520468392549103542e-02
1.683715037800161823e-02
-1.685198809507756218e-02
-7.555777754292737625e-02
9.528718593866825071e-02
-1.560916764868280071e-01
-4.922865741799904021e-02
3.018847174198650146e-02
1.248428377083552476e-01
-1.170928834222606379e-01
-6.625093186306824089e-02
-1.348095037580110123e-01
1.164918558522681502e-01
-5.084197111348943976e-02
-5.054744636415977460e-02
1.757981798527528672e-01
4.966196286196728621e-02
-1.888789303743151626e-01
7.571033488085084084e-02
2.621008338985593156e-01
5.125064299046495908e-02
2.380192048038127228e-01
1.600058689828319503e-01
2.034125233377416242e-01
-2.890255907492316201e-01
-2.003694940434150862e-01
6.919268761743942175e-02
1.126056441987260820e-01
-2.830551211810829471e-01
-7.085792053257872203e-02
-7.456024189223148246e-02
-9.449407993966985053e-02
-9.765807417577233862e-02
1.666840770122284335e-02
-4.329293194593600846e-01
2.262219872978680213e-01
3.387231359481877035e-01
2.207803413371368650e-01
1.673458612609671492e-01
6.296133801134357055e-02
1.159237398221849846e-01
-6.343671960412793076e-02
1.337898921334390312e-01
9.204558829458425739e-02
-2.223176190762546356e-02
-3.136351354668309721e-01
-3.740787818018014299e-01
-2.643772011238760822e-01
-1.141746265533382515e-01
-1.439939306841677424e-01
-9.016915826404450773e-02
-1.465661045137426899e-01
-4.117117608537853024e-01
-4.562451463790171968e-01
1.196029682471461825e-01
2.231081863100337070e-01
2.654848254840357913e-01
-1.838810371574631786e-01
-4.888956861703762369e-02
-2.457725392229360983e-02
-1.092139465188219360e-01
-2.046960342212524875e-01
-5.237032897286626743e-02
2.552571092128810282e-01
1.668527405014917087e-01
1.020791539417793131e-01
3.157043559073199890e-01
2.601929108165837445e-01
1.031075481780695802e-01
1.230527285027321893e-01
2.110953952954478241e-01
1.053235800820659929e-01
3.728197387085915165e-02
-1.489076838972175632e-01
1.319854505545096368e-01
-2.609858571374022995e-01
-2.964101507152395731e-01
-2.821630747568350528e-01
-6.080850628252718049e-02
-7.753491764803112363e-02
-1.594913268704669096e-01
4.386312174951986775e-03
1.978395522192929745e-01
1.650507338423856385e-01
-4.252248301123935648e-02
2.137175339571353860e-02
-6.363544523817149870e-03
1.075461880146139360e-01
4.051138077349186045e-02
-5.871301507980589834e-02
1.993800237843385004e-02
2.363201119086294211e-01
2.356982435011614752e-01
-8.130036038046312141e-02
3.342459272328668907e-01
-1.575792480381874375e-02
9.175840031612243763e-02
-7.368475836629614917e-02
5.361546045120106629e-02
-1.565189272033511436e-01
-5.676966637914276220e-02
3.520044561281215900e-01
-5.296338295564869680e-01
-7.338962354562654777e-01
-2.928530934825145371e-01
-1.316245797884666759e-02
3.831970776456704586e-01
1.748247059229749156e-01
-2.099316279131409335e-01
-3.398079470469476254e-02
6.134514474896416575e-02
-1.986539709463448072e-02
-1.420610056217508355e-01
-2.370057356552611183e-01
-1.045376215939210068e-01
-1.029525205130353283e-01
8.756015061725525017e-02
-9.188378497840654635e-02
-5.570709935877434654e-02
2.323373509788951019e-01
1.397224503921762062e-01
-1.958516067435384783e-02
-3.161422249201154000e-01
-2.378863176487482356e-01
-2.862339819993967027e-01
-1.120746969616191746e-01
1.190873735896019053e-02
-6.307575054373777690e-02
7.538555715798667123e-02
3.154108363609658960e-02
-2.719053921346378244e-01
-3.858212110639934744e-01
-1.719810652671810713e-01
-6.948711673884241935e-02
3.525619128962485527e-01
-8.831767082118201218e-02
-1.526644723337992338e-01
-4.052112750509326289e-02
9.644272459470652759e-02
1.153804508341370882e-01
-1.332499222181829091e-01
-2.635087728514597938e-01
-1.481851229373375434e-01
2.873354761004437430e-02
-9.225811994993454723e-02
-8.389528247489141943e-02
1.900299218172780275e-02
3.042898231711306245e-01
4.453313097500479767e-01
1.369978314174905565e-01
-1.037869220957041150e-02
-7.651868936548575362e-02
-3.912122794150231508e-02
2.806865312333572393e-01
1.837494984369590079e-01
1.858824530197978331e-01
1.658114691278410324e-01
3.605074365212692505e-02
-2.784412599545897302e-02
-4.343228689293939238e-01
-1.842538205099989168e-01
-4.705435299338558280e-02
8.966892571156977187e-02
-4.965276552647181901e-02
2.404965207634857886e-03
2.011682663158376183e-01
6.469485249121063875e-02
1.260659383027298852e-01
-1.378375772132482413e-01
8.141924322014005774e-03
-1.909852139898143286e-01
-2.117993054591571500e-02
-4.312185518051118299e-02
-7.853587073102931415e-02
-1.537569945984373632e-01
8.527957841647638981e-02
4.185923427092942961e-01
2.236637733215773027e-01
9.581611461030774268e-02
1.223414338646039712e-01
1.373979963959620076e-01
3.156982278365247918e-01
1.499608704421860894e-01
6.036814698738961898e-02
2.078928272830459899e-03
8.532158818651507104e-02
-1.141709740763845043e-01
-1.036914891145584994e-01
-2.920657829511466019e-01
1.287654475810588901e-02
5.871466440492181804e-02
-3.788944565248705126e-02
3.183860982281978558e-01
2.353157096662307490e-01
4.037044190338438809e-02
-1.664853265642884592e-02
-1.820827451093429139e-01
-8.344610593946869687e-03
-1.373662691885383091e-01
-9.888599185324092530e-03
5.129489641422002588e-02
8.668766576295987292e-02
-2.963380261345084365e-01
-1.418609914615983625e-01
-4.293289209338330137e-02
2.523708281167086898e-01
1.761309286686443265e-01
-1.631647929508095729e-01
-8.485242548215415903e-02
-1.112604673044063908e-01
-7.377396600541812066e-02
-8.358930470512748734e-02
-6.752544796969357777e-02
-7.726865114687997416e-02
7.214041382074906639e-02
2.178870212747677226e-01
-4.818400021683735129e-02
1.228368651134048722e-01
-1.891605047061026557e-01
-5.779858542559742490e-02
1.228539878755139647e-01
8.699036586987669850e-02
-3.419172596814169102e-02
-1.343151691161249273e-01
-4.578438331285914625e-02
-2.389520120076275497e-02
3.340638754835141555e-02
3.109031218638423980e-02
-2.987310555439802798e-02
-5.200746540033953117e-04
-1.147566704622430545e-01
-2.171353857189842751e-01
-4.168173102665985175e-01
9.410983972880588092e-03
1.556517998077933951e-01
2.285302602484620416e-01
1.623980244261551478e-02
-5.819393971510496838e-02
-4.944785711402290701e-02
-1.563507052051912871e-01
-2.731553788320820741e-01
6.366809934373142410e-02
2.576103738046414682e-01
5.462485707861841622e-02
3.295257786506225473e-01
-6.357110395811366122e-04
2.294414753552732542e-02
-8.757815383564297729e-02
-2.223436240498675720e-01
-2.354221323875785588e-01
-2.599248535029596852e-01
-6.172897508496191094e-02
7.966293019099608685e-02
4.702749955507498636e-02
-2.823988733144473101e-02
-1.510751852849122612e-01
3.787940166156133354e-02
5.789954790978647792e-02
-5.181054906851687014e-02
-1.307177681312508555e-01
-2.875943513444406685e-01
-3.840497598185075301e-01
-1.157205703758823999e-02
2.690980065987972902e-01
1.895389018945039805e-01
8.919987710243287848e-02
-4.986168694744217561e-02
-8.723318147175669612e-02
-2.536566175734178419e-01
-1.810520503808842607e-01
2.725695951708235754e-01
3.337512532429698364e-01
2.458357392225618276e-01
1.757713292511156322e-01
-1.718490974820958417e-01
-3.075242104785224639e-01
-1.957384200947942243e-01
-1.876626947300099324e-01
-7.912736919823144810e-02
8.210921566484369327e-02
4.922235397056478473e-03
-1.604026580431804905e-01
9.310638124943240723e-02
1.306560501961717136e-01
5.206100718203098519e-03
9.685511904306083608e-02
2.052900317756242363e-02
-1.499145414922418984e-01
-2.099763387492400435e-01
-3.977025957542241752e-01
-5.772013197250728395e-02
1.239916450419818739e-01
-1.063609696129214632e-01
1.299341301288647055e-01
-1.343702127314317339e-02
2.121806284307937718e-01
-1.180425970869384937e-02
1.227296380011194260e-01
2.202861750776591854e-01
1.837313314242323414e-01
2.294647641617424405e-01
-5.881164163325034583e-02
-1.325396304902847766e-01
-3.406354552718731665e-01
-1.400885460053958864e-01
-9.118342536704146517e-02
4.291649835056532414e-02
-7.147956496001718618e-02
6.559212386013887897e-02
-8.439901868983594457e-02
-2.449360990462494045e-02
-1.639258143161754708e-02
-1.754797449936172996e-02
-7.424876068174228157e-04
-1.525718405225870156e-01
5.946340960468790571e-02
6.525359218331620859e-02
-3.244928148932320622e-01
-9.932966207746703191e-02
-2.158636207383068384e-01
2.929528377977485415e-02
2.297821368569728101e-02
4.178240920095315641e-02
-4.527462034753410025e-02
-1.263828617538896582e-01
-1.161034699278815779e-01
6.643029216243988289e-02
1.540247813516016639e-01
2.526953360487749767e-01
-1.733799623983111604e-01
-6.303306841390042548e-02
-1.086513576744678328e-01
-2.726795064136385838e-01
1.495401782817827596e-01
2.057308011354304911e-01
-1.031569914180509306e-01
9.534097406749161840e-02
-1.422496444573468667e-02
3.522451167893685120e-02
-1.327999357241227141e-01
1.268411031630226338e-01
1.044298718906037371e-01
7.509390487516356960e-02
3.299233760215625200e-02
4.330657584408349053e-02
6.534574742357796007e-02
7.287386636328375966e-02
-1.418268464577313592e-01
-8.759562043932225817e-02
1.116610802409017805e-01
-2.822566099804991405e-03
8.755905128479841981e-02
2.709135215922101395e-02
-4.972069111399182728e-02
-7.838446147032118727e-02
1.028244356288671515e-02
2.202955134954315622e-02
-1.778167861999739030e-01
1.544873764751060197e-01
-8.751493756048961403e-02
-1.323452339508598419e-01
-1.215098003183846809e-01
5.944677696160220043e-02
1.517223440214632291e-01
-1.623446415240752949e-01
-1.657169596571903825e-01
9.968131011320130463e-02
-2.788970790621779217e-01
1.296298623749489176e-01
-9.469125191922225793e-02
5.468061096081790196e-02
1.048383569503402550e-02
-1.166054802123465961e-01
1.497757789304415832e-01
-1.903946050574351623e-01
3.958040751610586439e-02
1.203640228026841286e-01
1.486865152106154886e-01
2.755803258373663855e-02
1.399960016194775891e-01
-5.572559607939125276e-02
-6.901010267024282330e-02
2.680766893729828390e-02
6.930620828425482216e-02
1.038636486071565224e-01
4.496299313493482691e-02
1.170039020446987958e-03
-8.701030828697847719e-02
8.604977906873598203e-02
-2.641737276326463699e-02
1.722578209545241601e-01
-1.324152923830142041e-02
-2.833581976539319147e-02
1.063238585726216101e-01
-1.331458686529024271e-01
-1.414108297059089303e-01
-1.291287400323496148e-01
-7.294215193385369944e-02
7.413789301849431357e-02
6.248902451784109878e-03
9.191001101360903036e-02
1.065795015452183636e-01
1.935891616253337943e-02
-8.458753901582823087e-02
6.615202160272938559e-02
5.447898998154530881e-02
2.099616062877520950e-01
-1.434755993059679685e-02
-5.961388148434278167e-02
1.160214854142280483e-01
8.476240321148546808e-02
3.002548578458900941e-02
9.060348064059717266e-02
1.096841038221235687e-02
-1.014992523411820530e-01
-7.801479694152287092e-02
1.654059945869597315e-02
7.395581132069392605e-02
1.059249007282087596e-01
3.765817970195695086e-02
-1.338205069072609110e-01
2.770236331667468369e-02
-8.417833477273564680e-02
-1.560505931585106643e-01
2.202292002100222565e-02
-1.034205907864237661e-01
-4.594299042596286520e-02
3.109566308809506852e-02
-9.732889420091359045e-03
1.352740011794830756e-02
-2.926596607004009615e-02
1.712418397642359591e-01
8.345732173932252085e-02
2.618857085440969013e-02
-4.921882168022592707e-02
-2.593241181168030873e-02
1.178180990982703388e-02
2.713172436226288786e-01
-8.371447063180782397e-03
1.523942347731281795e-02
-3.545297154986403604e-02
-6.311226843650226404e-02
8.063279270980823477e-02
-7.526787935703796451e-02
-1.275460013742890641e-01
1.496131201009006650e-01
2.672354637156837409e-02
-1.097586698915279935e-01
8.347895427469849416e-02
