-1.464687428820116710e-01
2.248548105169509339e-03
-4.385084346563104113e-02
-9.145767335682443433e-02
2.147016197815269922e-02
-5.815671799652241680e-03
2.781454193363403632e-02
-2.312082365499595338e-01
-3.165120674570702508e-02
-7.121787758102507415e-02
9.665956333334949774e-03
-1.055945408721706696e-01
-6.841523677755260296e-03
5.657994255493386387e-03
-1.642491829735758663e-02
-5.495261172635315661e-02
2.372523070508434084e-01
5.980511190176068109e-02
1.480235497302559988e-01
6.220673457027980913e-03
-1.695413920921909345e-01
-6.590418545738727096e-02
-5.683304246113198531e-03
1.122614737925385076e-01
1.301101686194781892e-01
-5.420739431208004833e-02
-2.849297397842399243e-02
-2.067935732130485871e-01
2.499409015284462243e-02
4.337348522363350151e-04
1.149269600853378981e-01
-7.496691714099544546e-02
-1.638003804522951065e-02
2.256301835160655078e-01
9.402074358518171249e-02
1.510472323605938083e-01
-8.168109291235342573e-02
-1.738959220789277130e-02
-3.038723839490508616e-01
2.873199434110743338e-03
1.856545178174514796e-02
-2.158608947864176265e-03
-1.714005095915737201e-02
-7.238343438408331720e-02
5.288022262198602101e-03
-8.023470697144365060e-02
-1.290949376266952997e-01
-1.878438101292424223e-01
3.961617976701212185e-02
-2.288198760754960315e-01
2.109543966160786210e-01
4.506835008872268900e-02
5.843145107395262411e-02
-2.062068030991363876e-02
5.310643100220618917e-02
3.557502880046056054e-02
1.342039716052001175e-01
4.917967273715325577e-02
-9.579200154159172795e-03
2.955328757129325329e-02
1.147149906330141855e-01
2.979860581478727677e-01
-1.815275561160182294e-01
-5.081074668768268549e-02
6.664758945734940154e-02
-4.834151497265543745e-02
3.172454152166041819e-02
-1.447818079524597623e-01
1.315197570546736694e-01
1.289973583480644170e-01
-1.120047032346242338e-01
-1.045797680092775545e-01
-6.577683978174159174e-02
-9.373600819876311274e-02
2.506597498988384198e-04
-4.165031360118996023e-02
-5.102670983585824022e-02
-3.383710676581420072e-03
8.794035147810480568e-02
7.880674352367428304e-02
-1.713557870927570614e-01
3.718627065897376488e-02
2.077022127288001216e-02
-6.798919692427056460e-02
-3.158652105951894034e-03
-1.122356603404071028e-02
-4.440761398201625160e-02
7.440692977894078353e-02
3.083846993718737661e-02
-2.150899867376590280e-01
-1.378826656571453535e-01
3.832077254354849388e-02
2.743746648369608382e-02
-1.096870376034334571e-01
-1.427031744529335677e-01
-6.340183759307188582e-02
-4.738193659963148979e-02
1.857808060537323707e-03
8.396812674893572304e-02
-3.064646302493649888e-01
2.630414771296385804e-02
3.577947370388910586e-02
1.508810847954857037e-01
5.538424518678188718e-02
1.962182242099975299e-03
6.000984795379328551e-02
-1.921415645869305883e-02
8.009860426793898036e-02
7.522075098724992359e-02
3.720782361040522040e-02
-1.280150861814136343e-01
-4.353770940259262673e-02
-2.984064329315237740e-02
-4.748522664004064392e-02
-1.026450017609065180e-01
2.081662664649736871e-01
-4.744431230562629748e-02
6.968686654118645685e-02
3.943865361085180377e-02
-1.967952747972490091e-01
8.364187695723565574e-02
-2.616779607246911832e-01
2.037710649031909682e-02
6.688136621627828460e-02
6.073033392446127929e-03
-1.183457067173125793e-01
-1.919400747005555463e-01
2.937858205100387851e-02
-1.758889865890281845e-01
-3.880638549465457998e-02
-4.351381476998831405e-02
-5.231041524087621380e-02
-8.325198694034265101e-02
3.318945715334799956e-02
5.930922491004482489e-02
-2.159760092950141763e-01
9.304823095978558695e-03
-3.635039873871675348e-02
4.666078965490448593e-02
-1.128247229903367732e-01
-1.655522863924785426e-01
-8.536971207473662004e-02
-7.008915354900448202e-02
-1.837100054770929303e-02
-7.823741114059534763e-02
-9.540788752891665725e-02
-1.250114917954005256e-01
-8.111054547834259387e-02
-1.509417068290289654e-01
-1.737137315669535498e-01
-2.665933215134255185e-01
-1.693035809026904315e-01
-6.529860892523517424e-02
9.309985294913881992e-02
8.088332724883583874e-03
-1.440360315966037960e-02
1.485860765050548982e-01
-1.136609000304753953e-01
1.592750375324677448e-01
-2.316041898249318054e-01
-1.821931002233258545e-01
1.318813447785749729e-02
-1.318814131474794343e-02
-4.067042169941371271e-02
1.137710657054742530e-01
1.152696409860492349e-02
6.374243832543005639e-02
-3.736185665913382969e-02
2.550608977775113695e-02
1.157793800009189050e-01
-3.467817910725202318e-02
-7.253573913964209141e-02
-1.482118416068199940e-01
-9.723186740718241239e-02
4.780099414873588415e-02
-8.634609264734907641e-02
-8.661956006455656665e-02
-3.091482170445201683e-01
-7.215738154787926240e-02
-1.984853082689150283e-01
-2.255494154532599327e-01
-1.066432152272593220e-01
4.336409004531109612e-02
7.341432937275813031e-02
4.390417392104339206e-03
-6.974994256617814137e-02
3.205578338299863717e-02
2.517575995676013881e-02
4.326495505271513858e-02
8.929010473440385232e-02
1.101252102191829646e-01
-7.927940547236486668e-02
5.443052729079153607e-02
-1.352960412588460892e-01
-8.245348888208211408e-03
4.780683077971472489e-02
-4.910910101721698007e-03
-7.464078400041006256e-02
1.026907278507536853e-01
-1.029136379118424927e-01
-3.850773881942732429e-02
9.723274293896227993e-02
6.639346239978637099e-02
4.856600128861150723e-02
-1.772714818389596603e-01
2.830888615624692697e-02
2.210228242395074691e-02
-2.563515499167781653e-02
-1.365923538182083341e-01
-2.729090012907521290e-01
-1.516383589128301179e-01
-2.225695324770720629e-01
2.931172726246135674e-01
3.041705735505694230e-01
1.044622354107830053e-01
1.791018852432882669e-01
1.715706779297249407e-01
3.965110143655388442e-02
-1.327857386663417461e-01
-1.541727738418570137e-01
-1.468065417209776236e-01
-3.039728402304177693e-02
1.810812016880153363e-02
3.767812210631697051e-02
-1.614836841869188300e-01
3.204810202675154734e-02
-1.113517720915685183e-01
-7.255829678257391668e-02
1.849951299994369580e-01
1.364030983217994451e-02
1.369734046621504941e-01
2.572730155213470149e-01
1.909573493744815276e-01
1.706166463702638372e-02
-1.864317161447019700e-02
4.171250881720816456e-02
-9.004122358540141147e-02
-2.427160378662127915e-01
-2.094953411675825328e-01
1.336969833241384298e-01
1.260350585477761354e-01
2.639846941346328801e-01
8.959703418775939732e-02
-2.840524923893503542e-02
-7.667664664862072765e-02
-4.264748998007554526e-02
-1.576524606856657962e-01
1.389221834586969739e-01
9.920444419092089294e-02
-1.197425882768550776e-01
-4.484605711770924333e-03
6.873592544425076445e-02
-5.167854978760025308e-02
-7.191606881820339749e-04
7.347062981617283328e-02
-9.365361832161414601e-02
-8.281434782373282844e-02
7.288791392135099412e-02
1.895087870660594476e-01
2.886461662144063078e-01
1.009932230069054554e-01
-1.214453521135236969e-01
-1.327283200888400572e-01
-8.780270520671083767e-02
-1.504051332024078542e-02
-2.453581097347090345e-01
-2.565454613278611573e-01
-1.119561741812125782e-02
8.659534708485024102e-02
-1.821272953513337622e-01
-2.621631524864923568e-01
-5.487801930366976305e-02
-2.237761658187131519e-01
-2.538463449691457097e-01
-2.499099305612552946e-01
9.838734350177465171e-02
4.493626989856674969e-02
-2.062632337572182228e-01
-8.708180312846106053e-02
-1.285457376038581512e-01
-2.107886228264909401e-01
-4.652839963430769471e-02
-2.535963691907001591e-02
2.490895054392914133e-03
-9.857525555456651822e-02
2.684390941638383210e-01
2.407829194676525675e-01
-1.176185413674569590e-03
3.029402324702765506e-02
-3.303044631972705814e-01
1.414606052158290210e-02
1.981164452058764569e-01
2.993727192531087100e-01
-1.631962236348211484e-02
1.795100765421403788e-01
1.611855582382537011e-01
1.031638745051790956e-01
-3.303899857122780670e-01
-3.569407588307823564e-01
-1.095226717175774023e-01
-4.706855885685832797e-01
-3.598376493403858123e-01
-3.875228923994566976e-02
2.174890111731349607e-01
9.906485354441281477e-02
-2.037598647210084324e-01
-7.657847529691724775e-02
-2.338240215334349559e-01
-1.924055734824724750e-01
1.584633420454784891e-01
2.681251143707923945e-01
-3.668174069028092704e-02
7.823528218917091825e-02
6.432251994926391214e-02
1.953653668442028313e-01
1.754242635188307808e-01
3.983045134899617506e-02
-3.802176360055783966e-02
7.509093939179452282e-02
2.030318124917220302e-01
1.152272058628528578e-01
9.797593342045708698e-02
1.074289259983533390e-01
3.367721895778439944e-01
1.737301450883472764e-01
-4.667533013552639942e-01
-4.373056407189229167e-01
-1.439809331810827375e-01
-2.032727783402849819e-01
-2.029027204718218957e-01
3.464589511913967329e-02
2.484882377564240352e-01
3.447069844342888489e-02
-1.399648313407508794e-03
-8.129452546302810834e-02
-1.531226000026860157e-01
1.021960039270257276e-01
-6.747944816760513553e-02
-3.249626527216604305e-02
-2.370835427152212516e-02
-1.581669811486159927e-01
2.690680608676672692e-01
1.155313744944186372e-01
-2.802194198842953080e-02
-1.032716889139844996e-01
-2.845299254849272680e-02
6.733313796253005690e-02
9.464982090540557946e-02
2.971356985009325838e-02
-1.870286044433583372e-01
-1.450666048214935833e-01
-3.681314430981010022e-02
-1.992723830014961062e-01
-4.261900617105686684e-01
-2.072638043711547140e-01
2.030789802561673296e-01
3.337420657780462152e-01
1.548352899882251277e-01
-9.833575546890375996e-02
1.553733380232833472e-01
2.141358294472697210e-01
-1.547997581539189982e-01
-6.613930621911597030e-02
-1.662120623656907978e-02
-9.605276793879281849e-02
-5.683509373919580498e-02
-1.236677007621771462e-01
-1.063354372969632089e-01
-1.219502453054877172e-01
6.608930793230646805e-02
-1.221861040100125605e-02
-1.825420447285396597e-01
-2.541117401455899594e-01
-2.973405449188454841e-01
-3.476649437745508164e-01
-1.997538099033843439e-01
-3.675816741463400206e-01
-7.222161179843403778e-01
-2.476133275570494841e-01
2.599813448782853365e-02
-2.955009439504933666e-01
-2.491739902112066404e-02
-4.399277924701385650e-02
2.574574312487881711e-01
3.304474174841371958e-01
7.575228654148265239e-02
-8.258720573572549128e-02
4.125357177544351078e-02
1.776591352838240989e-01
1.010622214350564707e-01
-6.619149049492273340e-02
1.984914166245196343e-01
2.598427636424540874e-02
2.595755387546976739e-02
-5.686566127146184396e-02
-1.584511834193948476e-01
-2.633320746718416649e-01
1.045924290747687335e-01
3.136895323535624641e-02
-2.210513670571368494e-01
-1.920749748800968867e-02
-1.548782598952475054e-02
-1.293134991976971626e-01
-4.190994990618737703e-02
-1.961997123827827483e-01
-4.840125031916699960e-01
-1.391771978962324519e-01
2.365511150583303468e-01
4.982481574522532736e-02
-9.616022041649299745e-02
-2.052818642804016269e-01
1.086699118551754870e-02
-7.300150506052036081e-02
-9.668659407409456452e-02
-4.396850611261142461e-02
2.244540665501165433e-01
3.595015094641604847e-01
3.144734769662416718e-01
1.916495182279316922e-01
1.384018299533659180e-01
1.761558246794102172e-03
-1.227687762348315427e-02
-1.788328925725980456e-01
-2.495783472499292777e-01
-6.783214152722640000e-02
3.246390568104791652e-01
2.024832767361924302e-01
1.827880527621124074e-01
1.394497131471334195e-01
9.908450639670564331e-02
2.139803966320300010e-01
3.104301260904680504e-01
7.259441010412365225e-02
-5.169909876384067848e-01
-2.967359689397117140e-01
-1.162237971699215389e-01
4.732366717539406367e-03
-1.596069322825548475e-01
-2.985714701485732703e-01
-7.514964808430044975e-03
-1.172390612514153940e-01
2.284099491303961948e-02
4.259014965486319637e-01
3.208486728096497376e-01
3.186611947861772709e-01
1.531256771222703761e-01
-7.968112856920889220e-02
6.082012755186090580e-02
6.726790841468453797e-02
4.751348550673474558e-02
-7.678358624238332264e-02
-3.250209194559977033e-01
-2.196647799313865002e-01
3.816256790636837759e-01
5.445632939332045036e-02
-1.107731226089278265e-01
5.497365603515704142e-03
9.552163844930446068e-02
2.840426243603358936e-01
2.554154035645908039e-01
-1.031774009662571670e-02
-2.763716986671977960e-01
-3.396094998390514763e-01
-2.681633386679414810e-02
1.206683890383422053e-01
3.092991271157694011e-01
2.958007519019428041e-03
-1.430116686518775881e-01
-9.400145906693092857e-02
-9.452662358571449139e-03
2.055513684919257900e-01
2.090360630120312313e-01
7.646449907567851034e-02
8.440908839367078365e-02
-4.111586112452986913e-02
3.371510672794521962e-02
2.032065161616697455e-03
-2.131913551457645939e-01
2.315944817621174920e-02
-1.749272414592814850e-01
-4.700316217986748313e-02
2.267953458580125037e-01
2.513203757808828986e-01
7.800521906466037492e-02
2.918337379497180084e-01
1.902233070858163622e-01
3.325961737508191796e-01
2.841197963284158301e-01
1.649511178029455238e-01
-7.485764900204676386e-02
-1.972993596692340368e-01
-4.098153359359080899e-02
8.194792997347494223e-02
3.779455512996172661e-01
1.730114403170251725e-01
-1.279875713777525181e-01
-1.788777156611304209e-01
-1.185799258689078650e-01
-2.092093942816299623e-01
-1.661542955581448225e-02
3.698486617199447241e-02
-1.742230062670615531e-01
1.140393893185613974e-02
7.089556329365107046e-02
1.235345026944421540e-02
-1.369238470592757384e-01
3.887356800403183460e-02
-7.429960162351546826e-02
-8.744496613714013156e-02
-4.477324453144486210e-04
-8.432428857046370130e-02
1.091283431638077062e-01
2.050954182271433890e-01
2.201585333417166446e-01
1.671873964935144119e-01
1.350825133593581695e-01
6.790226731100690305e-02
8.315791020876010797e-02
-1.403016784706085859e-02
2.994550496594609174e-02
2.908011058601529530e-01
-3.758068533339976869e-02
9.216329470173731386e-02
-4.223441701546873372e-02
-2.651129777218921846e-01
-2.744968216574676934e-01
-4.493265515966950174e-02
-2.412842955338673767e-01
-1.913885974722141226e-01
-4.076851403520884848e-02
-1.074965648651846212e-01
1.923738060078362955e-01
-1.122715203544778495e-01
-3.290848798171449596e-01
6.055995004936989834e-03
-3.796138823369907961e-02
-8.114970501733909103e-02
-7.618684247914737917e-02
-1.096558654333087274e-01
1.556570713952729612e-01
2.475863496753185899e-01
4.831396052945792774e-01
4.311963442965427440e-02
1.070785099067357721e-01
1.113733300966114892e-01
2.715368030828202439e-01
7.862179509474202799e-02
2.708490048836771358e-01
3.270393977519041595e-01
-5.594323369503163834e-02
1.359432716032750177e-01
6.235358880392773834e-02
-1.980574743545332472e-01
7.288604637300090394e-02
2.061672342924984400e-02
4.104633624341996745e-02
-9.834866339545328406e-02
-7.828562269558927977e-02
-7.823414573173374797e-02
-1.205046974944659968e-02
-7.915874205820547932e-03
-1.307476075424888473e-01
5.321332423869082340e-02
-1.890690780030471196e-02
-1.690753988827406740e-01
-1.585428498357147331e-01
-1.722045249578500747e-01
-4.151221898205789684e-02
-5.628749487334366169e-02
7.135328050084550899e-02
5.006088115181765025e-02
6.577988285418009951e-02
3.709747127646930570e-02
7.990105745036764351e-02
-7.601000463193979817e-02
1.683307765703653813e-01
9.926740746156780329e-03
2.339207106360675359e-01
-1.288025352662811561e-02
3.449421745417159679e-02
-1.770568068715740462e-01
-3.240595794902152715e-02
-4.238424332147541773e-02
-1.592578717660181331e-02
9.690461955540603800e-02
-2.195016316939093770e-01
-8.514138435772650171e-02
7.537195249577019474e-02
-3.143972233309794834e-02
-8.836000112751270230e-02
1.091543293153965227e-01
4.293991541280622187e-02
1.104525580319224154e-01
1.011034550126461984e-01
-3.328240609502913522e-03
-2.396120712951519682e-01
-3.671942365477146031e-01
-3.565806921524928841e-01
-2.062338263034194930e-01
-9.092831316931074270e-02
1.894419788336292876e-01
3.453279702296602888e-02
-1.386046813555412982e-01
-5.582899535922283135e-02
-1.517846258912940692e-02
3.566982076642724597e-02
2.238577802352906265e-01
-5.584715217901665973e-03
-3.411332750190206320e-01
-1.148675311199918586e-01
-9.689410880198627563e-02
-1.048080288849256685e-02
-2.259413058926260445e-02
-7.480450459944636143e-02
1.051814240477015744e-01
-5.342834635951001360e-02
-1.052306164797868482e-01
-7.773201754095053484e-02
1.724237369490754790e-01
9.085377917812690815e-03
1.580125401315969347e-01
1.963469104203256210e-01
-3.300410476932744835e-02
-5.188271275319424891e-01
-3.574851283201482266e-01
-1.365157888579347778e-01
-1.514970249504386524e-01
1.436913416227992568e-01
5.226941286499074690e-02
1.522421922211348866e-01
-1.542557982590274934e-01
-1.538132913941507585e-01
1.004759740933096751e-01
2.947585138645025804e-02
1.492917503855563932e-01
7.689338289024196492e-03
-1.797433698341502351e-01
-1.509187686890172408e-01
-2.255550928221287249e-02
-7.153751884289129628e-04
2.022431842600506957e-01
9.964719143394665246e-02
7.352950693124742088e-02
2.905372420969089264e-02
1.110192579429802179e-02
1.320801358635655398e-01
-4.545629459417030449e-02
-3.481715281188269701e-02
-2.101233461900232635e-01
-2.834816176052254444e-02
-8.045588521997808218e-02
-1.588128030036849714e-01
-3.027411651167266071e-01
-7.154709360474112434e-02
-1.190697435420383921e-01
-2.562114822027444783e-02
8.120747362262775715e-02
-1.759695278648941430e-01
2.072531330661216142e-02
1.525761550720378668e-01
1.067185604226336681e-02
1.061983194201576303e-01
-9.947759491684225741e-02
-1.027440851979437159e-01
8.098360889582527367e-02
-5.000259454007771436e-03
-8.034481508172895692e-02
7.732826081500755733e-02
-8.139073478580557963e-02
6.326197749506047574e-02
2.301968981502387768e-02
-1.904756933927439361e-02
6.211595836425522210e-02
7.814417197627342160e-02
5.568279366492834281e-02
-8.888441772388354367e-02
5.054318857193697972e-02
5.439116907532602629e-02
1.066999630992511022e-01
-4.693576915483021333e-02
6.934972644155290578e-02
3.056375015703205814e-02
7.616820492525910868e-02
1.761692178106688267e-01
-1.426885322901726150e-01
-2.283709982570829577e-01
4.270509008648434163e-02
5.096345997146532053e-02
9.281023603785824860e-02
3.065396017086707836e-02
6.071659671179494705e-02
-9.921299801150007536e-02
-2.761358975727687959e-01
1.557300974732475640e-01
-1.134958708470919092e-01
-2.959441501885978418e-02
-6.587803690892541676e-03
3.468465326982583113e-02
1.230731655298456656e-01
-1.136189717165779767e-01
3.671088920925514101e-03
-5.203102421962384899e-02
-7.558986765267963759e-02
3.473791813137110107e-02
-7.851376825915712399e-02
3.639302371568657601e-02
-2.669116107776949021e-02
2.352566426517142817e-02
-3.146747804354273897e-02
2.083364865844250791e-01
-6.767843650643316777e-02
2.167868060537413155e-02
1.023603595053323712e-01
1.683382262237295549e-04
-4.568979914133489834e-02
-3.133173621663174011e-03
-1.025547238762362229e-01
9.478611409336630544e-02
1.189125269234549837e-01
-6.715790183663734869e-02
-5.867029411564477978e-03
8.410146449804389857e-02
-2.756110539580047120e-02
-4.907556562262578581e-02
4.093201235315729186e-02
-6.756324745026147383e-02
-3.003083995669635856e-03
-1.343581799161840465e-02
2.999070222954271225e-02
-1.255539566473490021e-01
-1.217309332332413563e-01
-1.182662443048619894e-01
-9.607887246322005526e-02
3.013309907944062421e-02
-1.270675825480337140e-01
-3.644689060343438147e-02
2.840587371832817981e-02
2.225140860132516496e-01
-1.550288724723590805e-01
1.566900040944368966e-01
1.461186387515177876e-01
9.114487159184275766e-02
6.824246366456102053e-02
-1.462725735208680322e-01
2.527712887227323013e-01
3.893815910645428979e-02
-2.993460544338840679e-01
9.217168089128499608e-02
4.742617306480674533e-02
2.220186606210422173e-02
-1.572290340349479995e-02
4.480721027327960737e-02
2.040674014684042969e-01
4.555459045965770670e-02
-5.196130652579174225e-02
-2.945504882700783478e-02
1.923531065028767639e-01
-8.828372612192884883e-02
9.479113242836467723e-02
-3.820399055268208343e-03
-3.329867198788948740e-02
-1.286442646851264186e-02
5.386018101863459737e-03
1.371591248344447844e-01
-2.953889793680158568e-02
-1.864296907703497930e-01
-1.992928783197473463e-01
8.767867373479848112e-03
-6.131938980914750786e-02
-1.541197822954589736e-01
-2.250492888011535950e-02
-1.071682146995943663e-01
1.113476109609394943e-01
-1.680160076476163236e-02
-7.829892968815116427e-02
-6.286270165134921761e-02
2.303756635665727970e-01
3.046855108617034513e-02
5.065355847684147733e-02
-7.049809606378489024e-02
1.055769781822993858e-01
-8.598731539421350378e-02
1.612539097577586275e-02
2.337769978015217034e-02
-5.383520688750309535e-02
3.215804840968047168e-02
6.995808586854447911e-03
1.601914758052835897e-01
-5.270287847664645309e-02
1.425051391868190354e-01
-7.564753592586906383e-02
1.328709580345349417e-01
2.228480698815757041e-02
1.010511469536918422e-02
4.154371521626733926e-02
-1.424221268630882775e-01
-1.667078920585446378e-01
-2.600914412862688832e-02
-7.748861127946754523e-02
-1.743952256503755044e-02
6.659230116684075607e-02
-6.346878556266116744e-03
3.304554118754896713e-02
1.451738748942976442e-01
-1.028821267434955056e-01
3.921932961499249859e-02
1.636101110319839944e-02
-9.885075141639448892e-02
-1.089118465840216987e-01
-2.960846864214504437e-02
-1.181260633449761066e-01
5.926310244193790100e-02
4.697929093400013412e-02
-1.034730478876064175e-01
-7.806233483721042310e-02
7.865031878225429984e-02
-9.842546589171285998e-02
2.170761711360923163e-02
4.544154129837470191e-02
-1.596788828210674582e-01
2.350607671110301888e-01
1.403930402919018883e-01
-6.817235880845493035e-02
9.337658890075595242e-02
1.587226139131696356e-01
-1.012041604249511728e-01
-4.684158186897363629e-02
-1.499722501699639610e-01
-7.506377398274019508e-02
5.441647290894677941e-02
1.248868358790845567e-01
-1.989929479096488527e-02
8.881712133399462250e-02
1.315206958727311581e-01
1.258336518851154995e-01
2.684498859399688311e-02
-1.856864475757416186e-02
5.591949802685543258e-02
9.491786015582913405e-02
1.006678801740726326e-01
6.431312320271398431e-02
8.507657489701424269e-02
-4.331680185323708021e-02
-9.922041687225996963e-04
1.150996118067040275e-01
6.369239941964874308e-02
-1.657052484286647420e-01
-4.119290757223929150e-02
-2.168788630116049998e-01
1.627939504637869739e-01
4.193727970474964845e-02
4.192504833810602703e-03
-5.211006101831162224e-02
-1.653682667077676083e-01
1.354136653015652059e-01
-1.303365323577859447e-01
-6.495010933278308474e-02
-2.138355847006588595e-01
-1.787664281628448260e-01
2.502609551323287454e-02
2.320790735896821888e-01
-9.399097967076797122e-02
2.448322847779426173e-02
7.355563751111345028e-02
9.182232062063694356e-02
-8.170788115157795461e-02
2.216136342620394495e-01
-4.050105202061586585e-02
-7.257774199640319723e-03
-7.776077583915425029e-02
-9.851102572357921250e-02
-2.964439007079785679e-02
1.918087990657961484e-02
-6.255868267696776397e-02
-2.192761885835542990e-01
1.007947426645462025e-01
-2.200247932818631333e-02
3.814674238153237251e-02
2.159193874025166354e-02
1.232255788130316304e-01
-8.747284622912263139e-04
1.493957758390491442e-01
-1.066696487840844559e-01
4.544842218573424270e-02
-3.020421797207990117e-02
-1.570400885948292358e-01
6.973665717934389441e-02
-5.078545606658864398e-02
-9.271918151755599580e-02
-1.778385189356936069e-01
1.880475146103374393e-02
3.651477649894657729e-02
-1.250172718550106657e-02
1.334346263076176091e-02
-8.412390429811287748e-03
-1.215984825676861975e-01
-1.025270893361858032e-01
-2.250734596630949158e-01
1.853462849349040431e-01
9.796061034022510161e-02
-3.280205071209551376e-02
1.421095947730509068e-01
-1.609960703380541869e-02
-1.155932897389749942e-01
-5.818870898056328206e-02
-7.246115188160040521e-02
1.246297076375688651e-01
2.118100533994988488e-01
4.278883907091827685e-03
-1.275055564629700051e-02
4.761039713295166752e-03
8.487371813798548492e-02
-1.176806173685206458e-01
-1.318101451897411569e-01
3.965711729184841217e-02
-1.345057919810936919e-01
-5.748253624024584479e-02
-4.658593853579571370e-02
4.595633891480803424e-02
-3.005651220240139129e-02
3.459226126799505585e-02
-1.407627294119958017e-01
1.145692421982888592e-01
-1.406836148486601684e-02
-7.007935273679986865e-02
2.620348482256957406e-02
5.906553564115145372e-02
-2.830946039158883237e-02
-4.111562557176249438e-02
6.390501614260063468e-02
-1.077917110855455413e-01
5.455963235888827007e-02
-6.349349651281024562e-03
4.973654857475067609e-02
2.397561277221730291e-01
-1.740356317350381099e-01
2.662540209707539920e-02
-1.806596543779631914e-01
1.327960075394965800e-01
2.546237465350405238e-02
-5.330712172174514873e-02
-6.485869018794518381e-02
1.449082183293824155e-01
-1.522065979363994292e-01
-5.352973315186924236e-02
-8.442207049003187802e-02
-1.499295235669439452e-01
-1.918537289834388454e-02
4.562115999134963573e-02
2.221232053434538112e-01
5.170254294407162360e-02
1.098497693187947544e-01
-1.058359010112577825e-02
1.110599143986232412e-01
-6.491648563714422226e-02
5.892225365478897386e-02
2.629683476024352942e-02
-2.798125032640370706e-03
-3.555401993775404446e-01
-1.694707049840893098e-01
-3.387414407066689781e-02
1.648463126039430016e-01
-8.430735039348860593e-02
-2.137800266886193123e-02
1.521707709123264370e-02
-2.817896399831996690e-01
-1.163059796927899681e-01
-6.955072441110637937e-02
-7.481135717881796932e-02
-9.405809141484124114e-02
1.238714282852018851e-02
2.108667585510387854e-01
-1.297146434252888780e-01
2.250918067283084675e-02
9.102518037536005968e-02
1.673734107748657551e-02
-1.484682661527798042e-01
2.900132119421207702e-02
-1.171310438775973739e-01
1.313715943453735713e-01
-1.048618756962180210e-01
4.780008209222089133e-02
1.954245898656449890e-02
1.393914827669890527e-02
-9.290529428063874773e-02
-1.047939044487855575e-02
-3.765668483668457855e-02
2.258987793460838153e-02
-4.626634098501065939e-03
-9.134658379325064081e-02
-1.518938047755765408e-01
-1.304828610608036177e-01
-2.389454525087256753e-01
-1.514595210408114234e-01
-7.782017752993385107e-02
1.946811989707476764e-01
-2.451196628784444581e-02
3.251679526780333618e-02
-5.471513918619228672e-02
-1.119613138426263366e-01
-4.026384915344471960e-02
-5.267744740070336162e-02
1.671633961264582316e-02
-6.165913025853963364e-02
-1.631119006162050633e-01
1.580727211209046190e-01
-5.750844653361131265e-02
2.670921335744222067e-02
-1.227157582899670030e-01
5.950719951909654547e-03
1.091745636536686770e-01
-1.021176955202197228e-01
6.468786981770881239e-02
-2.127776735868887326e-01
-2.541666421509015672e-01
-2.555068210132886014e-02
2.918043264211370169e-01
-4.160178381593130498e-02
-1.076272336703588822e-01
-7.500114733676546686e-02
1.137110461757097069e-01
8.404774259008263027e-02
1.592776774978211241e-01
1.817799132092357828e-01
1.961285716477458307e-01
-3.215701373675274727e-02
-1.973892475413251829e-03
3.387971422206072919e-02
-1.607096540041252630e-01
-5.295722546822100030e-02
-2.185771414170280535e-01
-6.782400401398994139e-02
-1.513295852777451767e-01
-8.110650458538700997e-04
2.503495720776072533e-02
3.129656679450075474e-02
-8.220209076168794385e-03
1.852606034632631737e-01
-1.261330004951409789e-01
-8.035342009202210700e-02
-1.726153389537128657e-01
-1.181401587892219884e-01
1.304264328516168379e-02
-5.820736841903806358e-02
7.105087573560942005e-02
-6.299664823195111341e-02
-6.366608943002570464e-02
7.985995183340993675e-02
1.048828275720889852e-01
7.618358032073097030e-02
-5.958106726311794554e-02
1.579161302663970867e-01
1.706281537484932165e-01
7.917508179832642712e-02
6.552304384807434989e-02
1.031881632498658774e-01
4.495233798776532286e-02
4.601152109717698141e-02
1.397073311221488576e-02
-1.540286433086034690e-01
-4.805603379158012584e-02
2.368505486486135667e-02
1.725963381734012259e-02
9.514729313035202862e-02
1.745632065561291968e-01
-1.329822622018900918e-02
2.452526803901745878e-02
-2.697944792341629427e-01
-3.543696684248980877e-01
-1.340966774688218677e-01
-1.146607699777953682e-01
1.489736573735029289e-02
3.337435795869087007e-01
6.009658824818162048e-02
-1.902195471569303742e-01
-1.754793228164784891e-01
1.933076137974866493e-01
1.423705768218051226e-01
3.327145478716468652e-02
-9.019952055950615499e-02
-2.845747407728342442e-03
1.768866145891078157e-01
-5.429766644417802907e-02
-1.083744694004037945e-01
5.207840673579915841e-02
3.108491943396625712e-01
5.309439236913268689e-02
-8.695466421539051194e-02
5.344740038606064086e-02
8.836096100715197521e-02
-4.760976293600281337e-03
1.188210829697372573e-01
-5.503056173442484600e-02
-5.258334762573640964e-02
2.961998484176575630e-02
3.185583796563305065e-02
-2.024062219141345431e-01
2.334420818671797265e-02
1.780034934714560396e-02
5.107169087786780359e-01
2.903504323965667155e-01
-1.185584745795099232e-01
-3.848019380943891732e-01
-4.276646396767026514e-01
-1.170180116892205330e-01
1.673191550622860763e-02
-1.736891015655035175e-01
-9.790470511326601621e-02
-3.134663554240301742e-01
-1.645945419454602349e-02
-1.253945741438131922e-01
-5.977428306132924474e-02
8.612534193276030758e-02
9.194870844704705615e-02
7.977452425010277126e-02
-2.180527610327898796e-02
1.831038970467813165e-01
2.153750921116124317e-01
1.930471041411732092e-01
-7.013197524622979961e-02
-7.237163729099045650e-02
-6.230585378791726053e-02
-7.931928419311258527e-02
-7.031103597688985463e-02
-1.674590715376890748e-01
-1.023430362604857563e-01
3.678011073549187770e-01
5.028422274543589143e-01
1.462648687597641606e-01
-1.944354917103904290e-01
-5.012460438851474853e-01
-4.703196972956180111e-01
-2.983845497452252207e-02
-2.065200591894368609e-01
-2.077713514735545774e-01
-3.091584119422272625e-01
-1.201626685063930805e-01
7.799182600348793237e-02
1.508511243005742630e-01
-1.825901988510095775e-01
-9.458366291769661552e-03
1.505560234756659621e-01
-8.152000123338108695e-02
8.790708424515902841e-02
8.843803814420342357e-02
5.353772403036252681e-02
-1.884427168667069941e-01
9.848136102302292028e-03
4.943988811323329208e-02
3.044352925412635146e-03
1.193355359187837569e-03
-2.183595214540770546e-01
-6.934908577448208045e-02
2.412264368122856995e-01
2.835453126984106564e-01
2.690861496440749012e-01
7.016748585617227363e-02
-1.757828413079232377e-01
-1.965523938824322372e-02
5.489112770955188736e-02
4.417405155150312679e-02
1.771166146426385313e-02
-1.362761061047251532e-01
-1.538336731189715034e-01
1.769985397162191221e-01
2.402096493026254220e-01
2.852761766179096048e-01
2.852087503286367398e-01
1.604600578616162398e-01
1.150033301131248714e-01
-2.138035068309911968e-01
-2.459316579473879438e-01
-2.540383756497423089e-03
-1.373896857443910463e-02
-6.868163054612276552e-02
9.472109599124867163e-02
-1.085885324154680157e-02
5.815676157051517109e-02
-1.683777462264503602e-02
-3.377867013588635725e-01
-1.383377013207661155e-01
-1.241090675137000165e-01
-1.112990729755731351e-02
1.213505299674710047e-01
-3.889799915841892636e-02
2.180870289073767176e-01
1.206074237652217801e-01
2.197679896400695776e-01
-7.038021797316451611e-02
6.515644762260124068e-02
-1.781662593669528297e-02
-1.900965590081227785e-01
-2.591629670005047292e-01
7.188020816861113993e-02
-9.287547360688281489e-03
2.538507245525086220e-01
2.535658137467387552e-01
1.632102480380644705e-01
-6.315964673794925710e-02
-9.527194162165792193e-03
5.322600449210253964e-02
1.137979276973147824e-01
-3.783889786445552433e-02
-1.312641609071802662e-01
-1.117471953480375473e-02
5.704305827475495555e-02
4.776603956170587945e-02
2.837289845887700640e-02
-2.360193930694371445e-01
-4.880694890056400670e-01
-1.221785369870991428e-01
-1.909047528159241516e-02
-2.849851915624516951e-02
1.950745352570620872e-02
1.239786113520856270e-02
-1.883528577572919638e-02
-3.241992010451741346e-02
1.725877677430404100e-02
2.120369873063253086e-01
-1.381833731629590889e-01
-2.490463091551178565e-01
-2.945362577431375195e-01
-2.562328649288185267e-01
-7.397451266125527891e-02
4.241755937975856261e-01
2.979276945618852257e-01
7.949318016124924668e-02
4.260771377563383755e-01
3.192025043972796516e-01
2.232062153044261088e-01
-6.710490905222864233e-02
-5.695978287596725753e-02
-3.767099432928473074e-02
3.990836325049314931e-02
-1.044605292942893116e-01
-1.942999644749034693e-01
-1.285247038231573935e-01
-3.486069904051894430e-01
-7.289331446880042108e-03
1.761753341198678546e-01
7.454062241215157758e-02
-6.782310443400825506e-02
-5.744011872523137330e-02
-3.682786111496720305e-01
-2.815524249934949208e-01
1.490831624369761688e-01
3.165841964867602276e-01
1.004377074978275164e-01
-6.292482479324716660e-02
-2.816502072725415307e-01
-3.087422176500679294e-01
-2.309590694663594124e-01
-7.857898021462242019e-03
3.453701139248647328e-02
2.331031310070130758e-01
3.864941749707134222e-01
4.578813780599819694e-01
2.838792911578638667e-01
-1.348176208344774307e-01
1.888284963342467399e-02
2.011491530967262839e-02
1.228384871614494889e-01
-1.288286734738785244e-01
-1.894764684565745649e-01
-1.427710947315833367e-01
2.290779837056922119e-01
3.432516741899384050e-01
2.488832782693617962e-01
-6.187188831541773348e-02
3.038473468234079156e-02
-7.651914820974194120e-02
9.396136534289604991e-02
9.665844715870813841e-02
6.023378417401476642e-02
1.038061815905390178e-01
-1.957050674403869872e-01
-4.761010148920414436e-02
3.948463742421971095e-02
9.084753462175103322e-02
-4.794837605785458312e-02
-6.058620323202943553e-02
-6.797734579054277859e-02
1.925699319690599987e-01
2.199082551081515402e-01
2.775728836834868291e-02
1.619178656649208070e-01
-6.793844515405254858e-02
1.608893665459388000e-01
9.112240074874905504e-02
-5.494920728389016823e-02
1.588248762679965176e-01
1.061454140708581878e-01
6.245551907398608216e-02
2.849892935821570772e-01
2.955684265789204623e-02
-8.951360986425613286e-02
-3.482194272307027882e-02
-1.499389971953354328e-01
3.005213639910497281e-01
3.506313519061121653e-01
1.950219149399335106e-01
-3.885207025932174707e-01
-5.770899756919342094e-01
-4.556470195590773820e-01
-8.012555291866216289e-02
1.179794447754566183e-01
2.708010568730868095e-01
3.838289359445578586e-01
2.711750590684364193e-01
5.375847182790185336e-02
8.591221188454939428e-02
-7.217971590860673692e-02
-9.481531265144152454e-02
1.229988091038152626e-01
1.790748007743410419e-01
-3.430219702608008903e-02
-1.044060221487410900e-01
-9.350042511086220642e-02
4.384232645351106988e-02
-1.032899016882870002e-01
1.052148953390356634e-01
1.459883223914509864e-01
7.946268793880209222e-03
-1.093701823406768442e-01
-3.111046006887455140e-01
2.533474580305404220e-02
2.489536685818326545e-01
2.357210639903413452e-01
-1.181560953180490897e-01
-4.487411171177552172e-01
-6.761134743431044258e-01
-8.230788390360472828e-01
-3.775025581410370035e-01
2.405457465100036343e-02
2.770964946654485006e-01
3.473901139600985011e-01
1.178519281763815013e-01
-5.642143304513692198e-02
-1.880206906730705063e-01
-2.890276177407284652e-02
2.320308813968459741e-02
8.510362434047277769e-02
1.006964437032863494e-02
-5.221799428110805025e-02
7.982837024271874360e-02
1.277794311808981564e-01
1.983883829285859601e-01
1.117070012786370303e-01
1.824515780034292600e-01
2.567492331808966521e-01
4.793274223597995126e-02
-6.972791761607055605e-02
1.169174940451151584e-01
-1.850517605150841793e-01
1.786787118941769725e-01
1.909477237900674904e-02
-8.703228995300897608e-02
-2.749159248074941053e-01
-5.026765599163944831e-01
-3.014048808500270349e-01
-1.171398665028095809e-01
3.395055093281906800e-02
8.144391582371887650e-02
2.208217191673736979e-01
8.046841878326643771e-02
-2.127415701403945203e-01
-7.913627311203014214e-02
-8.323670035064768824e-02
-1.992619686014417690e-01
2.798030212541769424e-01
2.356083390007524675e-02
-1.657989759620764059e-01
-1.527539474283224896e-01
-2.296655579229703315e-02
-1.915778082386310199e-02
-9.322618486601087773e-02
-6.702025224588196994e-02
3.007908246816050069e-01
5.543782624933270980e-02
-2.839400460101321882e-02
-1.207796733307577031e-01
-4.202172415599366578e-02
6.543287313155163321e-03
3.791243468102741682e-02
-8.683826521435655810e-02
-1.521902299072039159e-03
-1.110742117802724499e-01
-8.906610396183731182e-02
1.848535625159310192e-01
1.061317792082579620e-01
-2.076211007591923785e-01
-9.101779401862039598e-02
-3.670502167530633186e-01
-4.849832140246016499e-01
-1.874314795594684002e-01
-1.411466531347290998e-01
-9.689796656824244125e-02
6.792138239809586420e-02
-2.506529715665958835e-02
-3.790462414115425976e-02
-7.984664798300732114e-02
1.936814884723537800e-01
2.526121242839475187e-02
9.218532898010163568e-02
4.514343589830960290e-02
2.126596115808986054e-01
2.402706366381539560e-01
2.099876691436983467e-01
-1.192488075562082583e-01
-1.712379147555810610e-01
9.408514047556483517e-02
4.179467673948279727e-02
2.762595938357305658e-01
1.395630525781808018e-01
-1.349825680598842025e-02
1.031635771574708899e-01
1.785038426296839120e-01
4.610686994564692359e-02
-6.385650908824483385e-02
-1.633553106104571051e-01
-1.751196933342794304e-01
-1.602637478674689975e-01
-3.274004082583505809e-02
1.420496559639341239e-01
7.635235694048862765e-02
-1.238504583035915374e-02
-4.587533322444772854e-02
-1.206341281296025303e-01
1.724452183973571584e-01
2.947609606865154303e-02
-2.931090362588352205e-01
2.254457961206798519e-02
1.675646474556006793e-01
1.178434452485483883e-02
-6.601340233146893444e-02
2.748342863336577513e-01
-1.475628366298218086e-01
1.756669615338797910e-02
1.286524991019203680e-02
-6.677925023969773222e-02
9.781881105933769305e-02
2.244548942545119274e-01
7.333737161198097300e-03
1.232715674187862126e-01
1.248169655441772746e-01
-2.451586324874987372e-02
2.387099422682055147e-02
-1.580871853097693680e-01
-1.347831408257704477e-01
-1.427711980680701209e-01
1.447147917915050652e-01
3.047692610517526920e-02
-4.679391436092408124e-02
3.206653830604262734e-02
1.680937016330518730e-01
-3.293149720548670806e-02
9.941939975394258056e-02
1.487673773590709458e-01
4.373364565269326383e-03
4.032258235743561847e-02
-2.192393687585036596e-02
-1.325568440881945975e-01
3.888086930918423223e-02
6.416385224590052949e-02
-6.914235128270355968e-02
-4.446686229644494087e-02
-7.769715109215932780e-02
-2.171429406118658423e-01
4.362350487537750704e-02
-1.924901053950268115e-01
2.726648994079173063e-02
-9.550752866947799166e-03
-1.942963436135043687e-02
-3.002669208811781232e-01
-1.519566917939542579e-02
-1.370773275283612355e-02
8.483912012354143106e-02
8.787964694334361379e-03
1.581618991481314185e-01
-3.221352241035579933e-02
1.361839032125075344e-01
-1.479085671792931544e-01
-1.349082313431829855e-02
-1.456201521349956007e-01
-4.703574216093894811e-02
-7.951991303502126129e-02
3.572521798001795923e-02
-4.284921031469440117e-02
2.130247482614368998e-02
5.916200991513348439e-02
1.119095721653966952e-01
1.009718977870828344e-01
5.550024186196281933e-02
3.871799735488250932e-02
-1.402948044029929953e-01
-2.891054675862452308e-02
5.419172912017364285e-02
-8.139029245975480664e-02
2.108746511913104846e-02
-7.925836300126470890e-02
-3.913145125683981096e-02
6.477143023108697384e-02
1.002814750921772330e-01
-1.626636234471914022e-01
-1.327434913377321390e-01
1.416072811028693257e-01
-1.937910002331958426e-01
6.701550183903937086e-02
-4.028045508835845917e-02
-1.256637385248760563e-01
-5.779712600107270171e-02
9.918665188955955170e-02
7.075021601748210376e-02
4.548834489840039574e-02
1.094211213204756561e-01
-3.548697111440472785e-02
-7.606285408186866381e-02
-1.597326994820643942e-01
-1.689669090948692221e-01
2.383131249759212200e-01
-2.663286985402180465e-02
-2.040433131325172442e-02
3.058822107481084141e-04
-1.025760025535444736e-01
-1.613489607941342996e-02
1.082832802852575771e-01
1.256236461687652017e-01
4.736869308010301094e-02
-4.365366057385096366e-02
6.881024628687071321e-02
-4.436065211992391843e-03
3.114402677247335091e-02
-7.231808924066612798e-02
-8.030994093633318787e-02
-2.579925392530719730e-01
2.538449933833821989e-02
1.524257032911360554e-01
1.053846261685196517e-01
1.838863828766756914e-01
3.358527040093770705e-02
-1.154106303983992582e-01
2.806884888098025790e-02
-4.997056542528333090e-02
-1.401738183890180733e-01
-1.043587086053016644e-01
-5.635144453888697724e-02
-2.414259412384013315e-01
-3.323515588955337774e-02
2.761379313907278560e-02
1.147325326844686189e-01
-5.149782735633942621e-02
3.488411391825406438e-02
1.402268245381959599e-01
1.319775098715747774e-01
4.828824455099915008e-02
1.806012567727537377e-01
-1.074772209520440634e-02
1.179743815046752770e-01
-5.229649656419276677e-02
-8.706229491834223747e-03
-3.884309496312415150e-02
-8.495637029173311663e-03
1.126456355081306010e-02
-9.951059869765276067e-02
-5.504311136620346559e-03
-7.850443715533435285e-02
4.339509316092234059e-02
-1.764598011143727052e-01
-1.929736506757810111e-01
5.384285112531494999e-02
6.388757700636828185e-02
1.282889744666953491e-01
-1.734346498546680271e-01
1.610940860079048131e-01
-2.420639583335610148e-02
5.294473117311188082e-02
-7.347188052954251036e-02
-9.968251450260545710e-02
1.383332228103677786e-01
-1.092728504019352788e-03
-8.569804704583844357e-02
-1.123519224940074390e-01
-3.124770184235419954e-02
1.151502731184829015e-01
4.997399946438609020e-02
5.667308535915376727e-02
-1.282914365955925007e-01
1.068590278228593315e-01
2.962284495944853685e-02
8.228340294314923781e-03
5.347936932244301556e-02
7.096423447369621523e-03
-1.408586438573424526e-01
-1.301799970474288026e-01
-1.372360221181924134e-01
2.618393326873622723e-02
6.809456145773755409e-02
4.944747866974745498e-02
-1.574315294681757349e-01
1.749745325646924823e-02
6.029922065345756643e-02
-4.471379412230111310e-03
2.621148034728437715e-02
-1.107160071226097886e-01
-1.439613533536221977e-02
-6.453238735891762834e-02
2.056115774173227634e-02
-2.072992228942382720e-01
-1.301752315200333486e-02
1.477401190168879837e-02
-1.157608331992809707e-02
1.648895820969934201e-01
7.795778427500286989e-02
1.256275108132135811e-02
-2.327954376728891620e-02
-2.510311329706262917e-01
1.001766186448820178e-01
-7.711560459975067006e-02
-1.608297859547679620e-01
2.266883315628299284e-02
-1.313024598639989937e-01
1.266891706901998316e-01
-7.680955090667924284e-03
9.525988333121594709e-02
-2.400591200526420652e-02
1.255365806112523630e-01
-4.719510649779332448e-03
6.547797207242930795e-02
8.228353500406201948e-02
-8.283721104349121844e-02
-5.219825380313129065e-02
2.477576116886157087e-02
3.290921711568495223e-02
3.752240039573569684e-03
7.979125040284458514e-02
1.778772060984952774e-01
1.302246291112662546e-01
1.669697210303572044e-01
1.311089239677769025e-01
-5.013389648057195447e-02
3.845230362029956189e-02
-7.849066884654595788e-02
-3.211817384921925728e-02
5.072352541319162522e-02
5.733851008055448895e-02
-5.085360408296601964e-02
7.806424123711137864e-02
8.303206726285172756e-02
-1.299788555623950792e-01
6.312792446082696185e-02
-4.347589785744634255e-02
5.074943699235761468e-02
1.328352422552443214e-02
6.718369578606725456e-02
-1.277179975050234673e-01
5.651350477122610988e-02
-1.150056027877625377e-02
-1.820448541877649424e-03
6.826492211027644988e-03
-2.534196636009270268e-02
4.790683769319444008e-02
1.066578180203848064e-01
1.765185904076177481e-01
1.807333023290579599e-01
8.867334310256573537e-02
-7.582341909089361119e-04
5.303029814412496545e-02
3.555885768380602496e-02
7.306548281366634368e-02
1.001663590615725768e-01
9.461879146823660991e-02
9.952877977793479769e-02
2.709667230733881025e-03
-1.131799099858183943e-01
5.885295929792701969e-02
1.740005880589924614e-02
1.175643470546577918e-01
2.444796768533420706e-02
6.611423642606804874e-02
5.726739749630090082e-02
1.166839053832526008e-01
2.183221100010930213e-02
-2.403814930120833082e-02
7.275974038769889018e-02
-3.416252816102243600e-02
-8.090299453930988038e-02
-1.374248741756058934e-01
-1.513142227915945381e-01
-1.272964525125958590e-01
1.967629006531379857e-02
1.687626442792781734e-01
1.228139573854798890e-02
-5.558642869458216978e-02
-2.876864507309973007e-02
-9.524578961964910717e-02
-2.176399988363792587e-02
2.237158714911533300e-02
-2.582805489702990481e-02
-1.520189698328643924e-01
-8.232114910174244404e-02
7.856344011625522594e-02
-2.583231937741696793e-01
-1.440189675061153696e-01
1.165751012903710887e-01
-1.033064467684276927e-02
-1.125780306590745267e-01
5.955903181748627845e-02
5.640202884753057339e-02
1.425332978682702749e-02
1.153568944678660668e-01
-1.420616764141329966e-02
-3.383953592089324752e-02
-7.720890351737538793e-02
2.336225455115044022e-02
-1.767615266849023245e-02
-1.171865357032915583e-01
-3.622357993390679654e-01
2.000446382607882004e-02
1.036252008571717509e-01
2.138498469555402959e-01
4.971621081013045951e-02
4.277191444408445786e-02
6.464129668672671802e-02
-4.207002591445360012e-02
-8.789294721915150155e-02
-1.233971736894061560e-01
9.770524334145913592e-02
1.038486978634846208e-01
-1.490145729610908576e-01
1.147745099434945015e-01
-1.641610174712798964e-01
1.173837601605349579e-03
1.112845854656454615e-02
1.845929650218187390e-01
5.245621844396022859e-02
4.474024758063976925e-02
-2.494213385088203672e-02
1.020289832790440832e-01
7.931922404347546002e-03
1.145454703897595961e-01
1.154795948401526745e-01
7.385420907832723758e-02
9.443101663569043736e-02
-1.389701018912120889e-01
-8.874390649575271406e-02
8.171703058154236587e-02
2.942675867366313369e-01
2.042401913215363685e-01
1.027490678911046756e-01
1.499695095933255840e-01
-1.400006166983843725e-01
-2.491590182019451025e-02
4.533103456182127622e-02
1.353945353828279845e-02
1.062161231256661745e-02
1.375663478649312987e-01
-4.168454177028777657e-02
-1.734743615762430469e-01
-3.983553776260963936e-02
-8.055507526295864473e-02
6.773491478209302252e-02
-5.390448000480251023e-02
-2.171126968252485093e-02
-1.712535480779573960e-01
-1.189171534253935375e-01
-1.768260305353468870e-02
-2.068332795104765431e-03
1.893817650688628951e-01
2.162883372730755108e-02
8.626772655417225266e-02
7.680051571524497411e-02
-9.764593171253821424e-02
-2.022281239554560850e-01
1.377881457659592412e-01
1.044382149422068834e-01
5.737510403358976607e-02
7.972767797841381898e-03
-3.043215067088286818e-01
-6.214821875513197591e-02
-1.918984904296869298e-01
-3.221667505767346062e-01
-1.067405179832138229e-01
-2.129334555959228048e-01
1.346856477254790851e-01
8.063792965044686012e-02
-1.425227829597224272e-01
-1.120932661834363187e-01
1.648987796281383145e-01
2.176960356697487387e-01
2.922623142710650268e-01
1.314649635355762125e-02
-2.431294621992504540e-02
5.442846727833277470e-02
1.583862596110967302e-01
7.669453195424034975e-02
2.180183840305824003e-02
6.152309772242085112e-02
2.978344713106333419e-01
1.889533634856329913e-01
1.551871390973668108e-01
-5.506301383983474018e-01
-3.316268851648404015e-01
1.733228099887466900e-01
3.866011746771227942e-01
9.336790619836696226e-02
1.175413146314224916e-01
1.722429903516806693e-01
-8.269776781135071420e-02
-6.603976769877788200e-02
-2.048821927282687971e-01
-3.929928675330394278e-02
-1.919555990477637142e-01
-8.876666716935360801e-02
-4.532828015703056074e-02
4.660893322152873108e-02
1.556724327087860016e-01
2.156510008081178598e-01
7.771183077541009288e-03
-1.408312931984942173e-01
-1.807436134191041030e-02
4.003175038804959555e-03
5.666534343437966414e-02
2.439436277455108229e-02
9.605698863824407852e-02
4.023302871853364215e-01
2.760715908026464271e-01
2.438421674710290477e-01
-2.579304843730888530e-01
-8.599175603820066183e-01
-2.232967169514183947e-01
3.150918885023885618e-01
3.130830436292610930e-01
-1.225812601834569554e-01
6.674158563248584405e-03
-4.791637139521389699e-01
-2.196869071942254836e-01
8.192098404064361572e-02
1.057278528810966373e-01
2.192484530326815340e-01
-2.803811542501681922e-02
-4.488768717646203499e-02
3.905557640807191255e-01
1.579981253007169129e-01
1.169392287463435348e-01
9.445048912083753301e-02
-8.802682010311022043e-02
9.830056914360883746e-02
1.042904409995414408e-02
1.150918607144416073e-01
-6.205353724001307081e-02
1.013195606938416954e-01
-1.442199146644068328e-03
3.899549634426366373e-01
2.698866098102145061e-01
3.086878074198221023e-01
-1.703648566215685278e-01
-5.159401606928478712e-01
-4.187604047925890249e-01
-2.435902971212786650e-01
-5.114611488754444713e-01
-4.037505781914439429e-01
-8.051804953715949176e-02
-4.168627124908953485e-01
3.840335495814232308e-02
-6.600370765890169189e-02
-4.500459283732747423e-02
7.897975750018834673e-02
2.774298171337040778e-02
2.544038478988757124e-01
2.632367977151843230e-01
-1.931671458034866715e-02
-1.753896220182408483e-01
-1.087984243752173480e-01
-4.068612209923146844e-02
2.540665863606900512e-02
-1.119524786817278905e-01
1.337463051334511314e-02
8.005059439340786454e-02
1.567054335312621505e-01
-5.368814897807720060e-02
4.394222888241506100e-03
3.441016182061188422e-01
6.217055668951528835e-01
1.236364480033251279e-01
-1.001497278811912306e+00
-6.117222213297118794e-01
-2.425817364018170996e-01
-5.227952315398883831e-01
-3.497867853693295559e-01
-1.721634702952114515e-01
1.037352831809650600e-01
8.699783189215280765e-02
-5.918073034496589002e-02
-2.790915428526561382e-01
-2.424100865370885372e-01
2.685959536416512305e-01
4.928715117799327694e-01
1.383096689315043704e-01
-1.954068890265563962e-01
-5.530694791173869085e-01
-1.734514614346905903e-01
-5.666060837504271336e-03
-5.232377101296354499e-02
-6.955863612291607323e-02
2.062141130375915454e-01
-7.458059142461397062e-02
8.844243524507112986e-02
1.203507833522128312e-01
1.080789423610713229e-01
3.921157263395754627e-02
3.494760609026326681e-01
-1.160145653039346830e-01
-7.648351444626072526e-01
2.170074169410353693e-01
1.685617789536016098e-01
-2.966705254167902872e-01
-2.301735097293426680e-01
5.177673150065251195e-02
-1.173198639268109716e-01
-1.577513688516669066e-01
-3.816717544601376799e-01
-4.179492860139992771e-01
-5.873749433427292305e-02
6.671992000880197504e-02
3.575739103904768124e-01
6.175488821562534481e-02
-2.551810519698000101e-01
-4.719024684716212614e-01
-1.641670170321001543e-01
1.128173380821449329e-01
-4.430458395677722150e-02
2.052580461928170119e-01
1.929172361139454561e-01
1.037502245313371568e-01
6.892435206926074420e-02
-6.527930403566686857e-02
-9.434362337460281897e-03
1.074668038585896018e-01
3.508276148577248454e-01
-1.469055515936154299e-01
-2.978574021138666872e-01
3.980429435022830309e-01
1.218570506773439671e-01
-2.551533111249507102e-01
7.496648961485900819e-02
2.641623879775467643e-01
1.282924747845148317e-01
-1.866050181272925212e-01
-2.460783087643147737e-01
-1.029209550869492340e-01
1.456270162561235371e-01
1.900579238726242681e-01
1.489018829024562895e-01
8.094167950013651802e-02
-2.183515946350110259e-01
4.037268211508828787e-03
2.854196911028122896e-01
3.942464204296893260e-01
-1.305483910573391193e-01
-5.351571903995717278e-02
-1.345804027427136285e-01
7.773483611143991619e-03
2.601328541965605354e-02
-6.083312037063160621e-02
-8.498103613607443929e-02
6.007671577521005862e-03
2.908126204736657949e-01
-2.537940608458496006e-01
-4.190111106445331690e-01
1.019722339230621916e-01
1.543915156362049568e-01
-1.762492234472807506e-01
2.187450536532855871e-01
3.646211200578168277e-01
2.114057840532567178e-01
-8.826706480329940541e-02
4.865888754939324407e-02
4.571458819748172586e-01
2.265402023703069201e-01
1.220828818452917019e-01
-1.965879045677497439e-02
-3.477431966426277471e-02
1.169057272886999815e-01
3.094129895712600109e-01
1.604842741577459653e-01
1.926200689013332357e-01
-1.579073471319230107e-02
-1.441303700990651804e-01
8.241297922566144865e-03
-2.045803913857939874e-02
9.427230480971240251e-03
-1.919254692489941183e-01
-2.028001348761869493e-01
3.242017838485426046e-02
2.174537131293616532e-01
-1.555452722349253691e-01
-3.562641748431802924e-01
-1.660376413856982369e-01
-1.105909846496712541e-02
-2.894954129964880107e-02
1.709034893336332239e-01
-6.377112370357763960e-02
-1.871922042622888582e-01
-3.424468322651545715e-02
-1.199111969585837795e-01
2.296763679532426439e-01
7.166541822445703092e-02
-1.303993203646175436e-01
7.919432850931983070e-02
-2.106808485777012518e-01
2.002314932433953421e-01
-7.913466371920854781e-02
5.441662228669489482e-02
3.128764024035015495e-02
-2.646305167433435704e-02
-5.264840559622730592e-02
-1.440806718788794488e-02
-4.685785605518969638e-02
1.524977198357596875e-01
-1.312541490074707238e-04
-3.107757250439140972e-01
2.829883587717194754e-02
2.410515732700008740e-01
1.041064553462285880e-01
-5.816257844333476423e-03
-1.480068002115910719e-01
9.353780234437550356e-02
-4.470855354447997310e-02
-2.011431260845781832e-01
-7.137089805961081834e-02
-3.679294079568683901e-02
-3.628117912569922554e-02
8.603874938828943997e-02
2.952565988807009933e-01
3.040251803669865582e-01
6.794978822568481513e-02
-1.025995454672887081e-01
9.349763018781966084e-02
1.782529408399095572e-01
2.846238309218908635e-01
4.893222605617915111e-01
2.340754646162929720e-01
3.203378494786269029e-03
-1.841639798558270258e-01
5.277345719311348458e-03
3.657498305974793418e-02
2.181483602728251370e-01
1.115093107751842505e-02
-2.328805766055859205e-01
2.736315015493818309e-02
1.563055340976849394e-01
1.156881608415220863e-02
1.833401891614664936e-01
2.963416258107534618e-01
6.050014236730269501e-02
-6.689413672433444646e-02
2.784922954072108648e-03
-1.383990132732518530e-01
1.170080645205061887e-01
2.134704766456156089e-01
2.768789291297701904e-01
-1.791447960168858966e-03
-1.565881440205213193e-01
-9.085690987645814176e-02
-1.482525763988467582e-01
-2.750880276479250770e-03
-2.131411059282240505e-01
2.072163236055982183e-02
-2.106982180337753016e-02
-1.458139992031541599e-01
-7.034199094960971906e-03
-4.432536355967248154e-02
-1.846857777089988828e-01
-6.119806286298879600e-02
-7.235293046317928072e-03
2.042109200174456463e-02
-1.788980365529959649e-01
7.546130509240224493e-02
-1.535903852099278211e-01
-1.361595670694834004e-01
2.353144430309631330e-01
5.382592526263627053e-02
-1.976256957604989872e-01
-8.101239504061737151e-02
-1.014087472680387098e-01
2.173643123370633257e-01
3.331684845695122021e-01
-2.928039955166646113e-02
1.026800988200574499e-01
-3.131908658819786417e-01
-2.714545207803278348e-01
8.329141199254795624e-02
1.904972927965152274e-01
-2.090339488109663191e-01
-2.650164140273299496e-01
2.044662099461684590e-01
5.381663137922458595e-02
-2.018727993839789236e-01
-6.814917250781833691e-02
-1.985235809134833912e-02
-3.749183554582613889e-03
9.561013852886895981e-02
1.545573851278245758e-01
1.029890042199697459e-01
-1.686108796891103434e-01
-1.890254140149229614e-02
1.658911716026029437e-01
-4.924929156435273875e-02
-5.396548402075380252e-02
-7.444226837959545817e-02
-7.798061905301554436e-03
-6.195029447151199908e-02
-8.564589638857290910e-02
7.413422299119623582e-02
-4.032407901600593148e-02
1.140678280237659159e-01
5.474694032111224878e-02
1.858351307603345048e-01
1.723918158588927385e-01
9.894009850841267717e-02
-3.380058959477380554e-02
-5.542202285835468728e-02
-5.909494801434372196e-02
4.538842102391596467e-02
2.297008354275773545e-01
1.065743869674289357e-01
-1.282507734395320620e-01
-1.603308312846656591e-01
6.351032991481359198e-03
-7.774838724776875210e-02
-1.338456171024678676e-01
-3.803044620416897587e-02
1.317732637766794723e-01
2.039155852468753916e-01
4.460652124156255088e-02
-9.962493987780324245e-02
-3.903488403582430766e-02
-4.555540272407462149e-02
9.325732209753334612e-02
3.594741331804390816e-01
1.245702323519162352e-01
8.016755565521142476e-03
9.767932523181485638e-02
7.739566350364818215e-02
1.878203499111843200e-01
3.325428955195752767e-01
-2.332864204831450183e-02
1.254706750204849508e-01
-1.530994487671142879e-01
-5.819758713812676898e-02
2.489934421653639332e-02
-2.085017348311392626e-01
1.309610187097586809e-01
9.519412645286591534e-02
8.848980367774496314e-02
4.014908749543196799e-03
-2.125731834300186723e-02
-8.808208501664338205e-03
8.772453052779122240e-02
1.704147441263187956e-01
1.220013328729223634e-01
5.303605552418084318e-02
1.290680583235808698e-01
9.693368691549057725e-02
2.358757844050599073e-02
1.260062664212694139e-01
3.177633521280276985e-01
3.784805971864092095e-02
-6.872432257140136114e-02
-2.036364100274589140e-01
1.731442487764700555e-01
2.562310285189183315e-02
7.466091235824950934e-02
8.819462140523245952e-02
6.320879568626068534e-02
-2.121872313429210566e-01
5.891415555713171159e-02
-7.875656461944992304e-02
-4.183145560803922663e-02
1.336690844876053247e-02
-6.844205610900738757e-02
7.876265487936198739e-02
4.107657898432071769e-02
1.394887076009958815e-01
9.696298042720269406e-02
-2.115962817711540822e-01
3.017946739381722338e-02
-1.460666748766374645e-01
-2.301649163164991019e-01
1.548680768510820593e-01
-3.307169438744253509e-02
-3.342435765732906794e-02
1.720361248730077619e-01
-1.555753572471903212e-01
2.382879016444626186e-01
6.955733186377813237e-02
-7.055841772553658395e-03
-1.036006881756402070e-01
-1.411831201139221448e-01
-5.955162854113371998e-03
3.611774322801834108e-02
1.423854311190302958e-02
-4.143452747624608579e-01
-1.466280717471754869e-01
-1.235983223809379444e-01
-1.526356085492768661e-02
-1.903685796448358752e-02
4.457723466805482010e-02
-2.956044012447416047e-02
1.530930572425368841e-01
1.703132810938754460e-01
-2.182281265313351648e-02
5.022914562466918031e-02
-5.464992411284472218e-02
8.624672279778484996e-02
7.640316160300625326e-02
1.708032887305217240e-01
-1.352421866567392605e-01
2.608115167371760634e-01
1.434698642112407496e-01
-3.505133936673193729e-02
8.453870339668997924e-02
9.354193927136324194e-02
3.113254660525746065e-01
1.037899715638317122e-01
1.558365905943316122e-02
2.624119658193818996e-02
1.083133288636464325e-01
-9.975026583153122350e-02
-1.967997827477366291e-01
-1.239348626239459017e-01
3.396895862290937040e-02
2.340357360705669354e-01
1.587522219946065627e-01
-2.002114937280662643e-01
-2.011752418840626888e-01
-6.655215105235591511e-02
2.030392387343099223e-03
6.959910285639164806e-02
1.570898198005376764e-02
-1.202315759682415497e-01
-2.235272385163943609e-01
-3.812265628855724536e-02
7.028213910988451163e-02
-8.445596449073732026e-02
-5.064595851569757279e-02
-1.285389215284878928e-01
-1.154564309512687709e-01
2.501261698971577602e-02
-5.538576156433300951e-02
1.894719593914705614e-03
2.147703972355107654e-02
1.626836785885932835e-01
2.910367408773545383e-01
-1.500347578365912593e-01
8.992724063042308036e-02
1.694887701439383096e-02
-1.391815944423900331e-01
1.656032744118195732e-01
4.877226070781415929e-02
1.974908668075768259e-01
6.108103419432618642e-02
2.472623199905270019e-01
1.923100951884609555e-01
-3.207741513019807950e-02
1.616696847629384703e-01
3.169668810797687288e-03
7.451106071161429922e-02
1.231255472632845037e-02
-1.610688996382742195e-04
1.021704120334968047e-01
-1.257293984898272265e-01
-2.592569572545614515e-02
-1.111433195648192374e-01
1.006489109845811192e-01
-8.852405012579006582e-02
3.508876514980231731e-02
3.321558835446472568e-02
-1.791797820145085707e-01
9.595976590262358941e-02
8.192291418586976348e-02
7.044753421065226562e-02
1.369670804433825717e-01
1.766739361748081993e-02
1.143452684616197562e-01
1.743510742782382328e-01
1.200752085000495462e-01
2.905456560349846118e-01
3.122729778252682220e-02
-2.682554020706640410e-02
-1.438992132463100537e-01
7.204776815299257509e-02
-2.643135369952717695e-02
3.065514073733967282e-02
5.620920974112180585e-02
6.527550642075545528e-02
-7.255259797925009413e-02
-7.097966143016641583e-02
-7.067900909106850094e-02
-6.378908965370432005e-02
-6.416930058154329819e-02
7.813411498059494309e-02
9.544810249479585007e-02
7.959682980828017285e-02
2.215167357252968705e-01
6.391735668631343126e-02
-2.762964670759371355e-02
3.430345973131626591e-02
-1.109881375879164661e-02
8.227859632474177065e-02
-2.140185450794704625e-01
-3.718949586769476623e-02
-2.219071734493760495e-02
1.486760372278425613e-01
6.667473892420833215e-02
-2.177947006360043264e-02
2.041422694062186571e-01
2.072146119204904824e-01
-6.130282127267626391e-02
-5.708030378652907688e-02
1.114816107580968718e-01
1.153581196492524941e-01
1.353626941277318030e-01
1.582281862291897712e-01
5.309545792353951438e-02
-5.602135080594058958e-02
2.593575165814264449e-02
-1.058541679738423114e-01
-1.400239416014378846e-01
7.450615399022438023e-02
2.434558542313332297e-02
2.180327221152755443e-02
2.177058583334933600e-02
3.345871423519727189e-02
7.893153365366049889e-02
-7.393093976666106903e-02
1.258846438935763146e-01
2.133852472913001785e-01
-6.247330574337064957e-02
2.144199079628671817e-02
4.354935768690260112e-02
1.248426459890325246e-01
-1.022535307668680366e-01
-3.200924122460688942e-02
-1.017793584013718111e-01
2.093086282468029913e-01
-9.984651131747165898e-03
6.588054800077697282e-02
3.633322175020601771e-03
-1.241515886781938138e-01
7.863493175570296367e-02
-4.758902688203683201e-02
7.387908310857098371e-02
3.824772761003814806e-04
7.736266835408860121e-02
-1.160739155670053591e-01
-3.326186166599742061e-02
7.935627822674795606e-02
1.684215043503966003e-01
3.154412319054739761e-02
-1.313851714315704411e-01
-1.231510123201754944e-02
-5.925455092783088115e-03
1.724025094357358456e-01
3.011486370834896148e-02
9.115161083285421018e-02
2.017168405792459443e-02
1.873900741042117679e-01
1.034769302127241525e-01
-6.416263505299404923e-02
-5.722222138476204534e-02
3.415622049499653090e-02
-3.079116617202706796e-02
-2.678941461031632623e-02
1.849840267066033273e-01
-9.101958300051354867e-02
1.302127734536558980e-02
1.060630772949581468e-01
1.421803065821114764e-01
-1.090990205443154865e-01
6.432134380397483420e-02
-1.102990672919646094e-02
2.893352569189915416e-02
-1.514664533740245622e-01
-2.306456691600998476e-02
9.892177235129617774e-02
-2.953301635022946917e-02
-2.112846013517848953e-01
-3.311889555263863860e-02
-2.047668137298032931e-01
-7.063541290068143120e-04
6.831466461944855212e-03
3.462314596516076481e-02
5.355395031714140636e-02
1.612474253573524807e-01
1.009196472672438047e-02
1.789263518982474044e-01
-1.157213153165929098e-01
-1.289315837533545894e-01
2.137017679277262716e-01
1.440008190121438818e-02
-1.079774729505054848e-01
9.965588995598144428e-02
-3.057412988565582843e-02
-2.225840918456400697e-01
2.075215459295941256e-02
5.745789121779840136e-02
-1.770045682065058135e-01
-1.085750179885532490e-01
1.086236256992832161e-01
6.300286312463436629e-03
2.732859732521478180e-02
3.619565031713995601e-02
-9.887533959995828403e-02
7.673333888910258138e-02
9.176187735872318174e-02
-3.642329372063325688e-02
-1.301750112192648356e-01
3.780368137256473471e-02
2.100067437123825584e-02
6.166258520715335589e-02
5.301616160633748631e-02
-9.397218480031400978e-02
5.531477329436677859e-02
-9.909501460306634202e-02
-2.023430488614295073e-04
-4.452535329868355374e-02
2.185707124362338827e-01
-6.891138526253033636e-02
-1.730235637265542803e-01
-3.823664326532199426e-02
-8.498922396438680915e-02
-8.691954517883154763e-02
-2.449014133064296786e-02
-1.261429747519219047e-01
7.344604139527879938e-02
-1.518277809304092833e-02
-1.313712754707023478e-01
-7.309812421820806316e-02
1.502244453166055871e-01
-8.803530658322633595e-02
-2.115840035875665021e-02
7.314258911959188592e-02
4.202311570947261932e-02
-5.308250364508206726e-02
-2.165777917902783622e-02
-9.872599706208258497e-02
-1.465215578620019665e-01
-6.085160387521983821e-02
-1.359333055062491857e-01
1.211686880804482142e-01
7.567859146281587235e-02
-9.432598564213448555e-02
-1.002824916720978926e-01
-8.360149066535520201e-02
-8.158981545903932348e-03
-1.519928830305351253e-01
1.688714602428773581e-01
2.489424268774440702e-02
1.261343682268853128e-01
-8.586411325173767817e-02
5.479549648403352763e-02
-3.829036332682599075e-02
9.342502645363053027e-02
-1.405322193054805158e-01
-7.201326078333083157e-03
1.054792882414262167e-01
1.184583936583697011e-01
-1.238869206031159402e-02
-3.436955450044015120e-02
-9.539485588322733911e-02
-1.356622946442196387e-01
-1.004992540943303730e-01
-1.525514192863626217e-01
-2.121238639605098342e-02
4.508275425213735532e-02
-3.038308072444758159e-02
-6.731394904865825590e-02
-1.083938365183742258e-01
-1.315016046552857157e-02
-1.514204130639679735e-01
2.376178173587448206e-02
1.123737934647384556e-01
1.229138022203868363e-01
8.885477146647138835e-02
5.249057695886005792e-02
-3.122121092011104909e-02
-1.421512680057152589e-01
9.760329638314015066e-02
-2.137594076941066179e-01
8.330977508174575163e-02
-8.795899314537780622e-02
-1.379079938487243473e-01
4.491906126600051646e-02
2.832455748309264387e-01
-1.296643368105764305e-01
-1.140843514857508845e-01
3.619982993741943655e-02
-5.480185904482189757e-02
6.700722294741252860e-02
-2.063573603143380730e-01
-1.850178548098281028e-01
-2.152110473258364021e-01
-2.468436935562208154e-02
-1.920340878382323091e-01
-9.858000045307015180e-02
-2.498302940614464118e-01
-2.708795095454034074e-01
-1.250012274418390579e-01
-2.757514866921001451e-01
-7.531590866991198785e-02
7.382140203540935031e-02
-2.522665492361817474e-01
-2.322137124873605851e-01
-1.059213397249944393e-02
1.492287683478478177e-01
-1.137604220789288113e-02
1.548364051263367291e-01
7.552513006549768648e-02
2.995458494699970373e-02
-6.326631101061051810e-02
-2.772685783283623459e-02
2.433643903406087217e-01
-1.449793182948977931e-02
-1.001811718525314060e-01
-1.957098100260064033e-01
-9.399983024192279379e-02
-1.917961161661117242e-01
1.917482759639657086e-01
-9.412872364196168962e-02
-1.689169342887489045e-01
-3.041023119893204729e-01
-3.008421627821948330e-01
6.394065913100680995e-03
-1.892206505316193776e-01
7.468396604810169370e-02
-1.093826934917854071e-01
-1.660772226235030236e-01
-6.781105433213023559e-02
-4.632062171830263198e-02
-2.010336844638716536e-01
-3.786483180932979642e-01
-2.292004173334496464e-01
-8.291778729139116788e-02
-5.415504394778078434e-02
1.089495557027813089e-01
8.812096967117878654e-02
1.782420891862490364e-01
2.540293007639838480e-02
-1.188210065118980030e-01
1.899535525959740456e-01
1.598378869433485783e-01
-1.157121263017356627e-01
-2.362843964181136902e-02
1.849374158419535563e-01
1.822590811799530697e-01
6.522281385251860186e-02
-2.958513778302467381e-02
-3.451742027662164924e-02
1.829460574576490528e-01
-4.734750782772805672e-02
2.960234641344352546e-01
9.039246713972697023e-02
2.386364670704768376e-01
7.129094471601882255e-02
-1.043443609948381673e-01
2.820378082106394027e-02
1.305599179270871824e-01
-1.561311684498317975e-01
-3.152601872823211360e-01
-4.025891443456639518e-01
-1.402984462512410768e-01
-1.396539113927941500e-01
4.665807974101242317e-02
-2.096678043230751354e-01
6.572958287495431207e-02
-5.367722534598980133e-02
8.797862237080440739e-02
-1.088072403410157429e-01
4.200944463124136469e-02
-7.211906819940212821e-02
-1.471529560165720125e-02
2.704508039939517716e-01
3.420941857690361076e-01
1.745607797737392108e-01
4.406527165946911434e-02
3.372036660388377100e-02
1.870143673388893202e-01
1.604175211078651964e-01
1.849261101967025200e-01
3.686364970067571578e-01
2.228424457123401314e-01
-2.093693484824485709e-02
-1.634216207640681595e-01
-1.532246275081328712e-01
1.863900383792866100e-01
3.075366383174440998e-01
1.988097039450713033e-01
1.666265276875436574e-02
-1.848570300153000168e-01
5.238326500235963856e-02
-6.782194030401858531e-02
8.120649145373064204e-02
-4.281358567160924861e-02
-1.466335853892081209e-01
-1.301698561966990048e-02
1.513437309237784245e-01
-8.461849591673077653e-02
-1.370328422760176412e-01
-1.061830695026479005e-01
6.041636032695631153e-02
7.850679896885973119e-02
-6.290372910743362300e-02
4.524928498502683166e-02
-7.842371982001672404e-02
-1.283916115720803719e-01
1.130599406368298920e-01
1.821129010247634905e-01
-9.530976505500525497e-02
-6.081243166340911943e-02
-2.680635200610640423e-01
-3.212820586610252716e-01
-8.121407413921644114e-02
2.436467790015937884e-01
1.809638049074015209e-01
2.074238249397284961e-01
1.405022002986164587e-01
1.746366836738979522e-01
2.151393474691951913e-01
1.239153402311048702e-01
1.436680061342453518e-01
7.006897052831173589e-02
-3.030623645124252974e-02
1.411415593850216289e-02
1.552496167058586007e-01
-1.735164523349708859e-02
-6.818208966580797947e-02
-1.916551113396746109e-01
1.365830448455444546e-01
6.921373133025603142e-02
-1.746767645168859906e-01
1.164022446443075363e-02
1.209971071944102722e-01
2.082035381937361734e-02
-2.315046718900842793e-02
-2.561884813928789681e-02
5.985308058267700682e-02
-1.104638955389246682e-02
4.251924692150912261e-02
-1.474655539214474176e-01
-5.953594691909137177e-02
4.493195527556801544e-02
7.594986566485803503e-02
8.819789342728000248e-02
-5.715439862646207181e-02
7.393012902452091029e-02
3.309666191838105398e-01
-4.762108491683101491e-03
-4.618712753023405048e-05
-5.189983546597815023e-02
2.848683402820524971e-02
-7.527527436508950343e-02
7.138888636175655909e-03
2.449851689765042070e-02
-4.430018100119369195e-02
-1.331843863434829800e-01
6.718093416268189344e-02
1.687361904496538778e-01
1.081677766846373401e-01
2.539787631911138432e-01
9.410694412805259423e-03
-5.499725708694056664e-02
-9.375669735746725020e-02
2.462135061794450408e-01
3.584274440970847686e-01
1.239841218294063657e-01
2.030647918177616029e-01
-3.758601952125135287e-02
-4.025651387414077020e-01
-3.527244377644302986e-01
-3.081848332704855142e-01
-3.816431036698337831e-01
-3.494604150583711655e-01
2.115907948463811167e-02
3.822564845347987683e-01
8.665548746310888784e-02
1.116564722203696736e-01
4.066129659078156211e-02
1.493320692269661798e-02
-8.464969882308981397e-02
-7.032105146085305958e-02
8.088911058849761193e-02
-2.654643192926883777e-01
-1.176579561921438782e-01
5.238017189617610652e-04
3.030285780711468591e-01
1.767025002808945422e-01
3.220124835315915646e-01
6.570909167237366788e-02
2.496284362351703159e-02
1.079334819598132544e-01
1.986295602885904121e-01
3.798428941533514847e-01
3.146797877896722051e-01
2.068889423715399856e-01
8.252179607672008310e-02
-4.132254872723544747e-01
-4.261609218072312522e-01
-1.015704108471526812e-01
-3.018219523969736806e-01
-1.844588628792109830e-01
1.028195461072957950e-01
2.497565946417249771e-01
1.548868123262673036e-01
-6.865736619817822128e-02
-8.290903771274990564e-02
-3.237771488559577221e-02
-3.185117499054021528e-02
-2.431245522544465618e-02
3.092427157865618517e-02
-6.285662336851174925e-02
-1.893370038830710644e-01
-1.322343455157327929e-01
-5.877403285690988022e-02
-4.590842310563712780e-02
1.638523664126502188e-01
-1.343327277395894581e-01
-2.913005574436154932e-01
-1.364401998497948541e-02
4.460631626400630156e-01
3.723625521160108254e-01
7.059797010737381973e-01
4.245038563333738413e-01
8.624830552598219957e-02
4.708622079540222133e-02
2.441453018548473131e-01
2.219634197856171498e-01
-6.634168682720748000e-02
7.552725211993698354e-03
2.987419793187454098e-01
1.123975796187329929e-01
1.259243129098012448e-01
-1.311157217581550294e-01
8.913693072998758737e-02
4.140525745112316747e-02
1.132685173669551876e-01
-7.843261603480762567e-02
-1.369706101918448382e-02
-9.578503294624406139e-02
-1.871854209906174404e-01
-5.324874248191834025e-02
-5.396471952147062767e-01
-8.389089635960668423e-02
-3.087343954718583805e-01
-2.025240873365455330e-01
-2.457248349652396968e-01
5.451130030639246560e-02
1.339910988062870956e-01
5.083044928026392295e-01
4.656256664112252697e-01
3.384068236659911744e-01
3.062531755741319528e-01
5.287530915157121481e-01
5.156680004048624921e-01
1.647196810155344415e-01
-1.090514488475588656e-01
-4.676912553932793815e-02
1.838682414383679131e-01
7.487133872494246278e-02
-1.178108422815594136e-01
-1.211697292245317650e-02
2.415292843078345186e-01
2.204049311287543667e-01
1.511877389953374812e-02
-2.342146613980478631e-01
-1.986239259745132060e-02
3.244996241877609600e-02
2.885091890431347728e-01
6.494620759233961371e-02
-3.264048689816164694e-01
-1.284149064440786026e-01
2.181458705127445677e-02
4.130036011798775969e-02
-2.324621680927390910e-01
6.149665946729169358e-02
1.282092587814007700e-01
2.261054858234669007e-01
6.136819785653872816e-02
-8.262761688890409018e-02
3.092245426767485997e-02
1.840151867373738051e-02
1.988569413728756563e-01
-4.979284448010279363e-02
-2.818764293447090230e-01
-2.802129771446488227e-01
-1.385246353907670924e-01
-1.985975421943284025e-02
-1.785589373206227792e-01
-1.215040825162906901e-01
4.962789227569432832e-02
3.526015268938397645e-02
-1.107599122263742270e-01
-7.589939909479814784e-02
-4.111502393088199009e-02
-6.196355416007680306e-02
9.393976676074196341e-02
-1.195175704084802670e-01
-5.673461795386460782e-01
4.863352549748782561e-03
9.643321240213642564e-02
-2.741031704606596842e-01
-2.660483018957974233e-01
-1.336221569641524165e-01
1.012172029717076510e-01
-9.336575105024076671e-02
-1.894587305318902737e-01
-5.211890655460739152e-01
-4.420561744051057507e-01
-5.647285051211835966e-02
-8.985333677447736311e-02
-2.468469741969810671e-01
-1.238102370126894503e-01
-1.937410323855238148e-01
-3.792331528597928658e-01
-1.621847574004263715e-01
-2.470863685160161818e-02
-1.237757403079004469e-02
9.121877018286288219e-02
-1.013104154818609826e-01
-7.999924945413280919e-02
-6.773570861577322966e-02
-1.309869254958646034e-01
-1.485165214129061662e-01
1.137658627537882494e-01
-1.663660435112931379e-01
-5.708938717376513816e-01
-1.248590057477977910e-01
2.435949186074417086e-02
1.268495051618778180e-01
-2.594446836250693510e-03
1.344900747602300883e-01
9.571020150023536177e-02
4.576801950939026614e-02
-7.678909735847125329e-02
-1.319087883759793335e-02
-1.720886136031626601e-01
1.156155236839516952e-02
9.791827428731404714e-02
-3.704519938577266469e-02
1.224774573947103873e-01
-1.087046559434812903e-02
-8.214670445688806999e-02
-1.648972799537292214e-02
-5.830804545586372456e-02
6.634779839237819887e-02
-6.762275262730220449e-02
4.885398306777813393e-02
3.925876163318087371e-03
-5.127270460216169605e-03
-8.863212317968426415e-03
-2.074208831806393094e-01
-6.662094485936768951e-02
-2.832933818552760014e-03
-1.890712084218862665e-01
-8.980584193870189136e-02
1.586221580389881591e-01
1.540308451776555010e-01
-7.232937787691610942e-02
-1.458081672471906176e-01
-2.610219337504594006e-01
-4.516282535304460416e-02
-8.467493192906971888e-02
1.385032247078855916e-01
2.536459953935339962e-01
2.132513424954560199e-01
3.164125487132014025e-01
1.798970106429058080e-01
2.162119117264259816e-01
-5.844495538366895060e-02
-3.819334974765357937e-02
-3.564897012681909200e-02
3.465076609798688895e-02
-3.063084719465748729e-02
1.993407448609636479e-01
5.974064058057234651e-03
5.724695082649479405e-02
-4.707331387749904422e-02
4.204375813835043406e-03
-2.856540338344692453e-01
1.463303389887541661e-01
1.613387413429906159e-01
-2.382743566949301894e-01
-5.305661395438020927e-02
-2.733339837954426241e-02
-1.613285651099905516e-01
-9.084444865760459009e-02
-4.089282671817526249e-01
-3.945555951893492952e-01
-2.234941487089679713e-01
1.715922332088466173e-01
1.230607200105004184e-01
5.931407157409510425e-03
2.346363249755659686e-01
8.763818733626700663e-02
3.939822850605750881e-01
4.632830028839517861e-02
-1.322093183868803534e-01
4.022423615524994139e-02
-3.541268892837296477e-03
-1.174318387557316823e-01
-5.555492563732106898e-02
1.315747969690596320e-01
3.230380749753086755e-02
1.752206123268800972e-02
-7.571203476989973868e-02
-3.729868814010268707e-01
-1.434198089613677729e-01
-1.617447409209259732e-03
3.942471407591309138e-03
-1.470747255988226199e-01
-1.310133669919362476e-01
-1.483127279611188599e-02
-7.852695790842603718e-02
-1.129208770641997317e-01
-1.153151795083729170e-01
-2.513853645646615398e-01
-2.108898712351643667e-01
-2.947948049776015211e-01
-4.057311154487051180e-02
1.502240003580826988e-01
3.063554445040379548e-01
4.038834482229465839e-01
2.371304976503035289e-01
3.911063162527419340e-02
-3.177591757530940364e-01
-3.599265437491426523e-02
9.700907571552076780e-02
-1.740595500229559778e-01
5.367438813838592421e-02
-2.438544372351591771e-01
-1.433090403155161396e-02
-8.798037938306955963e-02
5.977917467794525985e-02
-7.518809737221339440e-02
-1.093372199882565593e-01
7.087944780613734778e-03
-6.503658501925253799e-02
-1.814478557219043053e-01
-2.168286884944417570e-02
1.018602746644710066e-01
1.613064676581500712e-02
1.450058959812013104e-01
7.567571342764049802e-02
-8.335005448368220521e-03
-3.776386701463158024e-02
-7.275649607131932928e-02
-1.839089017143606120e-01
-5.142754809060245957e-02
7.174277232693411499e-02
2.423651193344641686e-01
1.323302864918960153e-01
-2.342533404978091593e-01
-2.488592223059050978e-01
-1.197046281970798182e-01
7.736789886729159016e-02
-5.605627893977641052e-02
4.131160010662496967e-02
-1.575461911814079463e-01
-1.445701373848098242e-02
-7.761208881559890534e-03
-2.684219471175062766e-01
1.815000480437918562e-01
-9.661415118256058698e-02
-1.000327393117359936e-01
-2.165259178165216958e-01
-1.127054488355245937e-01
-2.277827290384205547e-02
1.087677132108617051e-01
9.853256361608266067e-02
2.646094465484052360e-01
8.279642109138582451e-02
1.209774919226960233e-01
-7.616958035933074633e-02
-1.556576083870037097e-01
2.240708270094883894e-02
-1.713396636865454625e-01
3.524145080840138111e-02
-1.597283280711865594e-01
-1.003896814591735687e-01
3.852210949074143936e-03
5.160401476526847719e-02
9.745248475686327239e-02
-5.499609218738529814e-02
-4.791050337189439040e-02
-1.273894922128614160e-01
1.580188815380420900e-02
7.590586435876208252e-03
6.861322171184543184e-02
1.186283721438602390e-01
-9.905880992981574984e-02
6.955981158651274032e-02
-8.178435756680663138e-02
-3.404097447113371699e-02
-1.546801941588344387e-01
-2.932090128270930726e-02
1.742676175896429869e-01
2.847080606467509711e-01
1.499484030954731928e-01
1.188285304745381743e-01
-2.362826727295928575e-01
-5.244526430494046015e-02
-5.986816220591710536e-02
-1.679725253646890959e-01
-2.249578496042842560e-02
-3.380102472280599457e-02
1.947514879261080800e-01
-7.483986585221361065e-02
-2.127904815135194527e-01
1.228842960138762375e-02
-6.796025578386662158e-02
-7.779034764031751703e-02
2.987936911938348650e-01
8.391928164726039641e-02
1.810842785745221395e-01
3.197642254275914059e-02
-7.784341781920556258e-02
-7.754518613196048626e-02
-1.006348876630099171e-01
-1.532692369387845810e-01
6.797578369181923874e-02
-2.239495883678293275e-01
-1.343570943476521118e-01
-2.385728978044255222e-04
-1.102838203618365653e-01
5.212464198703644497e-02
-4.881455904547253762e-03
-1.011609051912772672e-01
-1.468529728285513924e-01
1.623286914741536580e-01
2.241170431710648794e-02
2.765146027845513665e-02
1.901533281910372519e-01
-7.914833415447285192e-02
2.421221580919369690e-02
2.034830569248074761e-01
-3.734629224124330626e-02
8.897419013353723150e-02
1.069691554537323223e-02
-1.206401179932752310e-01
1.134457194599948343e-01
-5.025731250418975782e-02
-1.592036049814409548e-01
1.643020130884528460e-02
1.076132579108353832e-01
6.866057925732156619e-02
-1.645561998651902391e-02
-1.488174230239049656e-01
-1.000490614200844619e-01
9.982881668978009146e-03
-1.297149216334795296e-01
1.329991050356413573e-01
-2.835790862080629360e-01
1.669428859803243070e-01
-9.957505074112794896e-02
1.145559891137727798e-01
2.709235743376053884e-02
5.566215493618361515e-02
7.787511310580406965e-02
-3.529286761301653891e-02
-7.671842034797438092e-02
-8.197931530368926176e-03
1.313931053358668166e-01
-1.127319520491960325e-01
-4.965679703915889392e-02
5.094984733174126590e-02
-6.226846434900711047e-02
-1.358262269242097031e-01
7.076045217382952168e-02
-6.182742245283701088e-02
5.283862490397350092e-02
-1.282526597165088433e-01
-4.530270370373879613e-02
1.204085138587383461e-03
-1.395926065914558645e-01
-1.151860439472770919e-01
-3.044849638220201160e-02
2.185280430561863940e-01
-1.810407052063169042e-02
1.754606020164317312e-02
-3.093741707868804397e-02
3.307733302724102237e-02
-3.891711642582218467e-02
-1.768337956469199779e-01
8.018435294478204467e-02
1.882731695229295510e-01
7.584195934346441015e-02
-4.733524076742524900e-02
-2.950268943005762354e-02
-3.354634767190489524e-03
-1.051892376010427760e-01
1.972739369115569449e-02
1.151785465969147604e-01
-6.627412487002870556e-02
-1.186293141690347198e-02
-1.568406341601929488e-01
1.660207014767181855e-01
-5.046685232366086155e-02
1.584532536675115899e-01
8.063710375198057667e-02
-4.308651318044420114e-02
-1.417193190423362281e-01
-4.702242555151790737e-02
-8.446521017375899568e-03
-5.619742333251949440e-02
1.716818263448092741e-01
4.652285187344035178e-02
-2.131776235348645590e-02
-5.252782491120077529e-02
-7.275666783965403783e-02
-1.663170063310967506e-01
-2.691887801023112523e-02
-1.923388067439882887e-01
1.200677193564940737e-01
3.833906767719026665e-02
-2.391695864388020468e-02
4.465227654924876222e-02
9.907053341442871239e-03
-1.930619431496037944e-02
-1.088230765137214728e-01
-1.472912140536608294e-01
-8.386123409551106411e-02
-2.100616289834397465e-01
1.168208888456449962e-01
1.658721271143500098e-01
-7.418309135708803237e-02
7.519687961968614387e-02
7.913393911291527472e-02
4.502882102133498599e-02
-3.571278586826250739e-02
-2.670616431401071772e-02
6.843522679433304556e-02
1.641022174663143984e-01
2.308453835402968224e-02
-2.847614007422048094e-02
-1.666051586467555690e-01
-8.152080934355279696e-03
-6.001897556924813693e-02
7.475396060565636658e-02
-5.718444894882630802e-02
-9.065792158429455960e-02
4.620299339355988383e-02
-9.581881563423469417e-02
8.558522353584537348e-03
-1.155486494237188827e-01
-1.239129849805104336e-02
-3.644589416385742020e-02
4.478751785265385615e-02
9.523270759300649091e-02
1.219958677689942789e-01
1.168692733070159084e-02
-9.368325471522045977e-02
-5.422369181257002263e-02
1.848289081334096307e-01
-1.501254151383330238e-01
-6.017051103404294499e-02
1.064305969198568909e-02
-7.995358138360718347e-02
-7.446834937435891331e-03
6.586500044866348824e-02
-5.099678502846215905e-02
1.500429973436815112e-01
-5.880185356559077675e-02
2.447189972006364456e-01
-6.363365668635333205e-02
1.529584349376887642e-01
-2.996851553429930037e-02
-4.829916391068800330e-02
-6.090378605063287432e-02
1.293203930535255508e-01
-9.139078975626463430e-02
-3.598335413699808860e-02
3.826552671895347424e-02
-1.178678765665493698e-02
8.445276215949332199e-02
-8.021370796768487188e-02
2.726299236280143798e-02
-7.152976603109430231e-02
1.767153989297253758e-01
-2.161559169250442877e-02
4.057662215673982220e-02
-1.739447920999332153e-01
6.492130350349357981e-02
-6.342608700460138083e-02
7.522026543576676438e-02
1.620902941000126052e-01
1.432470638942988719e-02
9.410120854944500901e-02
1.121717808844882869e-01
-4.441539197628822933e-02
6.271837785925815471e-03
9.156584785091434475e-02
1.226504986060150508e-02
-4.092814566032988016e-02
1.615632898854557076e-01
1.963546166559045070e-01
3.243085125582373385e-02
-2.625349946513317462e-02
-1.658784354991349463e-02
-6.382220609737868089e-02
3.585031930428841385e-01
-8.702294657503417685e-02
-1.086687119903553822e-01
-1.254484595331656627e-01
2.383841154957050124e-01
-1.404105222500061922e-01
8.111989735378616340e-02
1.248358918588274719e-01
-9.379888465578536949e-02
1.689753401693715879e-02
-9.026820683917530230e-02
4.006111133807828233e-03
-5.465613576571461130e-02
-2.151642695973749186e-01
-2.443189972880102645e-02
5.370144078162279039e-02
-1.784426115553457703e-01
-5.530684555185362561e-02
3.266615359222754247e-04
1.950512396055598674e-01
-1.621731146952964386e-01
-1.354726867286789281e-02
3.741713624393781801e-02
4.385882569790165719e-02
-7.484354803553457114e-02
-3.428708313091148596e-02
-1.270444336897041115e-01
-4.650696037356254892e-02
2.113280686680995835e-01
1.612262581716192855e-01
-1.237554793560612099e-01
4.451494472462835805e-02
8.921545870653849186e-02
-1.352638020726231079e-02
-1.245999670118433794e-01
1.207524771708142278e-02
1.522548872779068141e-01
5.635289095080101701e-02
-3.929007281586037459e-02
-3.738319308703599159e-02
2.055824636551662477e-01
1.464708002596478431e-01
6.234671573742336936e-02
1.466550576496925273e-01
-1.150573353459947018e-01
-7.624052214400041383e-02
-1.355416779814231087e-01
-7.968388236605183916e-02
-2.756210852779971132e-01
-1.259072423570795074e-01
3.545362415167647996e-02
-2.499470603600595364e-02
-1.800544157232998599e-02
1.101162313785188224e-01
9.030726636589007927e-02
-5.721674978641520803e-02
-3.381501571505837050e-02
-1.775928845656684074e-01
6.063467516996808720e-02
-9.544726021626800949e-02
2.638676929957496989e-02
-2.533595324997816034e-01
-6.099767762263727522e-02
5.685837535700413725e-02
1.462852882415719737e-02
1.743044850030746884e-01
-1.186652523279236870e-01
2.759701902353468156e-02
-2.681330281528845894e-02
8.647445841269266187e-02
-1.483629190221979512e-02
-2.448009290265430182e-01
-2.817857143492629168e-01
-4.934033670088766588e-02
-1.638646649437290326e-01
-3.208068823898673205e-01
-1.602872375154925366e-01
1.046949923738787619e-01
-7.338491188032320034e-02
3.150773130230211105e-01
-7.352814326448561810e-02
1.328856347364391205e-02
3.849424219932035679e-02
1.320139003741835071e-01
-1.550419499334485252e-01
-6.583458028271764462e-02
-5.130135463798424222e-02
-3.499885585081533024e-02
-3.474648544089005420e-02
-2.814222373255841070e-02
4.065283050892879585e-03
-2.640577661352187105e-02
-1.813911932838525587e-01
2.429507879687318236e-03
6.534878765926984204e-03
1.375078997128590108e-01
5.751168222917617950e-02
-1.298457925677581892e-02
-1.294230291321730730e-01
1.313943351475454768e-01
4.905910380033422225e-02
1.376942896205867253e-02
-3.361600363065773145e-01
-3.654341297886080919e-02
2.552691828817282849e-01
4.021574877858827279e-01
2.157139632706839283e-01
1.389053130627030397e-01
1.277095969033600897e-01
3.187542317030965244e-01
-8.346123350107627348e-02
-9.767243018187368384e-03
-7.777705427299662355e-02
-2.015079413256821717e-01
1.881367940847676612e-01
-1.569645405620706188e-02
-2.394955059580813617e-01
-1.028565432737317542e-01
-1.107477435485413469e-01
5.131752954816626994e-02
1.630660912923196162e-02
3.794491588671431576e-02
8.494362258849318115e-02
1.542170024918423366e-01
5.837617324928967566e-02
1.500183165840152447e-02
-1.191435547947855417e-01
-1.304611439362374781e-01
-6.020608632434796409e-02
-1.872196762845468043e-01
-8.975709027275198537e-02
2.212975616226527109e-01
3.694750810946854647e-01
4.836551305624702257e-01
3.754779280859006918e-01
3.098787045474866719e-01
3.184723521441074762e-02
3.598924370865330125e-01
-1.050574090806828675e-01
1.043062907399845002e-01
1.567844302263791401e-01
2.978673911100099825e-01
4.873004014416883467e-01
5.617041633473295742e-02
1.883577553153002460e-01
-2.343453237410621781e-01
-3.296726689030183288e-01
-2.024018393239525870e-01
1.926317261702517325e-01
6.592765640635198099e-02
-2.469133530480731049e-03
-9.080905326882554238e-03
-6.425171446143761178e-02
1.490925212843348946e-01
-2.392238083796718526e-02
2.255806107472367334e-03
8.276534341751359825e-02
-1.611762778094505688e-01
5.079443190314496259e-02
1.199172729871390980e-01
2.149126345341746125e-01
4.500452927778421652e-01
2.119482230367045195e-01
1.813941948694258732e-01
-6.603736505826215790e-03
6.269246719745881491e-02
1.479209521757586243e-01
9.024515456037936201e-02
3.194856626303863717e-02
3.866755772136672431e-01
2.154912058489480420e-01
1.366556894797182342e-01
1.341075443130838041e-01
7.394496362594617060e-03
-3.207111109368117052e-01
-4.549494270100692406e-01
6.780131380211509851e-02
-3.290845980651631308e-02
8.072612716013378986e-02
-2.652565105396963510e-02
2.010778547323609222e-02
-1.075358149832582322e-01
-4.983467416709221748e-02
-1.280023101440070643e-01
-3.585396282390781314e-02
-3.295626867088656820e-01
-3.392090563559368999e-01
-3.718662479461017911e-01
-1.095330190031453682e-01
-9.717605375162492731e-02
-1.348822139190331282e-01
-8.861904912017548597e-02
-1.316658884154864595e-01
-2.028431947983864447e-01
-2.651960268399526921e-01
-3.652838872629894373e-01
1.067522998063359131e-02
7.876295519464197870e-02
-2.958716169729373041e-02
-2.380875504753281469e-01
-8.461534704003725871e-02
5.471483967419364658e-02
2.882634072918812546e-02
-3.419787653980637526e-02
-1.396761148897588400e-01
3.539472045488734758e-02
-9.288615330448689311e-02
5.786697286952932617e-02
-3.087301705926342316e-02
8.939771747190755624e-02
5.528831953555326389e-03
5.108046848267561862e-02
7.168905588685721419e-02
1.007082619124540501e-01
-2.588355354112755746e-01
1.067819039702149336e-01
-2.388189727848903376e-01
-1.761259202024206272e-01
-2.088242754373490218e-01
5.412930907556622734e-02
3.584110627705079932e-01
1.630948236895107539e-01
-3.200675815838835425e-01
-9.525729241654788682e-02
-6.876182571315474223e-02
7.173369287070910372e-02
-2.068847559588937457e-01
-2.914919807606717872e-01
-2.567334984222551242e-01
-1.845684059773498864e-01
8.850766271761068005e-02
-5.216091271535893553e-02
1.319800216714358543e-01
1.647103367003387442e-01
1.468648475169004042e-01
2.976728958889118815e-02
6.413601425705131587e-02
3.037823832552127845e-01
-3.722955725263817767e-02
9.985882555569580710e-02
1.831197062738720571e-01
2.069769896412284871e-01
2.042006993013577854e-01
8.758756060921922548e-02
7.335337064700980791e-02
3.888766165746063708e-01
1.993497448753759060e-01
-1.121199299681337885e-01
1.797616034769950188e-01
2.651433228089406513e-01
-5.501994507528940731e-02
3.133147019810662848e-02
5.873812750880707395e-02
6.079614287820374330e-02
-2.181608067200257184e-01
-2.114590995833295906e-01
-9.339818178004363758e-02
1.591620183519083243e-01
1.847848120588603815e-01
1.755224981857821387e-01
2.406958038013455037e-01
3.652695276691803050e-01
2.353722436296179221e-01
9.689633454532659007e-02
-8.730025941611763152e-02
-1.551276928842303671e-01
1.610888021594825137e-01
2.156930120258550021e-01
2.439817892520269871e-01
2.753645053561163958e-01
-5.332229063447121303e-02
-1.511096324533716950e-01
4.548020129411157741e-01
4.069853372411617043e-01
2.665686077083490035e-01
-1.069659950105597279e-01
-2.937623867491377661e-02
1.965115755352388194e-02
-1.434533278846515103e-01
-1.265863045600430781e-01
-1.500871407978439931e-01
-1.549538249446589244e-01
-2.759297847845705500e-03
2.467273644254509013e-01
2.483394550434721015e-01
1.859170608850580775e-01
2.731700480685074206e-01
2.892350478346717435e-01
1.080835448683683808e-01
1.956336498319940775e-01
8.569430526513259483e-02
-1.046228206645259812e-01
6.629445891461992202e-02
7.643393493698166785e-02
-7.320205122320150304e-02
-2.906334848170795127e-01
-1.909713977753251246e-01
-2.088994845560696867e-01
-1.490608344378290540e-01
6.489304977281766529e-02
4.010230539365173263e-01
4.673879635358535456e-01
1.236671541244580425e-01
-8.751613768123655060e-03
-3.169660409751435814e-01
-2.240697550674461136e-01
-9.539149109592993947e-02
-2.093539213967584023e-01
-1.870603300657212587e-01
1.236191501414813237e-01
4.932585786909850917e-02
2.576638285087963776e-01
3.992149450550246115e-02
-1.352290345508847524e-01
-2.592817970089180690e-01
-3.182156238533942472e-02
6.434184022517147605e-02
1.751327591453092358e-01
-1.661633460150611225e-02
-1.467712626606101911e-02
9.725614906741296417e-02
2.867017087413840926e-02
-6.849345943058937625e-02
-3.061734377582204236e-01
-1.456487914863084376e-01
-8.361054434093251331e-02
-1.448228089305875210e-01
2.402352274755764905e-01
3.479057535935571877e-01
2.208035379917071828e-01
1.823660927185091762e-01
9.565078397693245471e-02
1.859695678117848083e-01
3.884837820118304808e-01
2.166217576382483134e-01
-1.753793509897568978e-02
-9.587193229118953774e-02
-1.622616619726035755e-02
1.417502274109951055e-01
-9.635883654950243293e-02
-2.455963864363252258e-01
-3.027433294358803928e-01
-2.864627736196239671e-01
1.016612144819348390e-01
1.767664309808990308e-01
7.078904667933759096e-03
-2.884113463598090253e-04
1.521270704233272930e-01
1.083437646372768515e-01
1.202982359437688997e-01
3.797649188216627170e-02
-3.294379342374565561e-02
-2.284635663721078930e-02
2.914611006209731278e-02
-1.690345005131717315e-02
-5.742473461468703549e-02
3.738930793915281464e-02
-2.816482403339152715e-02
-6.312321179137715677e-02
-1.008958219194077965e-01
-9.622302596060168522e-02
1.047522796619235336e-01
2.326869939387458397e-01
-1.770069340377402045e-01
-3.286290092705082544e-01
-3.826472378899660742e-01
-4.035707542287763627e-01
-1.906768455530609419e-01
-9.228358623387973581e-02
-2.038921925229612853e-02
2.302453947919059218e-01
2.187601447084128181e-01
2.144429727684241949e-01
2.172967416601896407e-01
-3.042066309847248767e-02
-1.687583453271441769e-01
-1.436883951540314508e-01
8.224696894091931831e-02
1.214445478804006689e-01
-3.801623470414638994e-01
-1.162744472037555155e-01
1.672423715007692047e-01
1.859518933491559611e-01
-6.722873764555808984e-02
-2.354455882089926677e-01
-2.854207229479471253e-01
-2.695101362180962190e-01
-3.610543482833504236e-01
-3.722853340254670962e-01
-2.058434287876231561e-01
2.047662074419070652e-02
9.130651381641115283e-02
-3.552548018545527708e-01
-4.153342239423062909e-01
1.063078426000553262e-03
-1.051633999589737106e-01
3.394411813469808831e-02
3.394775231613309519e-01
2.260670095335351459e-01
-2.480046545769242772e-01
2.098765399937127865e-02
7.914084168399601604e-02
-6.978635212699574319e-02
-1.620173822016858223e-01
-1.516716759583786323e-01
2.396397263921935458e-02
-1.300817309744093930e-01
6.465576601036462923e-02
-1.203837940095501546e-01
1.239184057457557442e-01
1.152128899883350238e-01
2.248753384331186322e-01
-1.304919938646447175e-01
-4.591406856968828221e-01
1.201523254697405424e-01
-9.347522756436819902e-02
-2.930976277695202525e-01
-1.186791150885882773e-01
4.515403574877172727e-02
2.325111326681928714e-01
2.764567762362291625e-01
1.105614232573307598e-01
5.297439463802857545e-02
1.098006205428170845e-01
1.586608041197690722e-01
-4.424020302189428377e-02
-6.595421629647335582e-02
-2.722172619197024690e-01
-6.178578234140590097e-02
-2.642442031399010877e-02
-1.409541155064298334e-01
-1.207900227588139530e-01
2.055633430458813152e-02
1.312854148800451370e-01
-1.735452754605729120e-02
2.943891393261060530e-01
8.329991101520563268e-02
1.563979218696043838e-01
2.076440606374401199e-01
1.108867432423065735e-01
5.786552116739965279e-02
-4.296768801023091028e-03
-5.652868059589552518e-02
5.151386563996372811e-05
-1.809902009938327838e-01
-2.739263317306407375e-01
2.092643649974453846e-01
2.908572118290657649e-01
4.210261763225489062e-01
3.613521338400583344e-02
6.870840760674025958e-03
3.570378156319568563e-01
2.010955144087361035e-01
-8.586383622516158276e-02
1.202206062171135431e-01
-1.014686776534257373e-01
5.538418434504803478e-02
3.177561933323470172e-02
1.813394353205062884e-02
2.951037965044513989e-01
-1.855321840520429144e-01
1.381038204808527070e-01
-1.105457535476043196e-01
6.410777679389556560e-02
-1.682411388255213025e-01
-3.476454770775511821e-02
2.991975871272205545e-01
1.572526221929254620e-01
1.162580290784040460e-01
-1.292643252902594686e-01
-2.784830545905760402e-01
-5.497970869279855677e-02
-2.054084183572655598e-01
-2.297773212738093151e-01
-3.026119668419048336e-01
-4.125309931255408125e-02
4.351643739331251953e-02
2.368924235423773006e-01
-1.206520332805205292e-01
-4.240064257416491234e-02
-1.949465798458121235e-01
-4.292428287826720035e-01
-1.729391105255835559e-01
-1.055460625563326982e-01
-8.361178771395191833e-02
-8.656319797896187829e-02
-1.467304613517336764e-01
1.580854894652809414e-02
-5.834715847357922064e-02
-1.256600524206042367e-02
-7.861035976736478748e-02
3.497411782473399539e-02
-1.567348712011326917e-01
-8.289608784182835033e-02
-4.839674918382465968e-02
-5.881567485296493314e-02
-1.117250341559431620e-01
-2.379650306335113763e-01
-5.486655971291455602e-02
1.903873008732725469e-01
-2.416378388104571326e-02
-3.126040171454653183e-01
-2.007717963903755121e-01
-2.152524447607115365e-01
1.808903172656746092e-02
-2.171013986948248931e-01
-2.600479979259557872e-01
2.411980015244816027e-03
-3.061044443921781544e-01
-2.787246679498885382e-01
-2.556923880931069037e-01
-1.544574848104989240e-01
1.287508326727639651e-01
-1.597724080565277871e-01
3.799479944303253004e-02
4.192512233849810671e-02
-2.196835712136838148e-02
1.264241561553812732e-01
1.371224606147616008e-02
-8.979642541978831438e-02
-2.531646734035459811e-01
-1.778357926110537834e-01
-2.906345926057052331e-01
-1.987627793885377581e-01
-1.315996578291036001e-01
-1.289716419486870713e-01
2.117000844203499599e-01
-3.070676350204778852e-03
5.170663753954763547e-02
4.294995255858852917e-02
-4.726498201730373189e-02
-1.118038152561156295e-01
-2.843135516368184290e-01
-9.440233561888494718e-02
-2.772464992770918846e-01
-2.441944824649127654e-01
-3.111273580316851195e-01
-6.844612374377294362e-02
-1.449159711837927911e-01
2.993084432351555621e-02
-6.490902735805292867e-02
6.549798169470900933e-02
-1.016456567712272357e-01
9.182424630200745896e-02
-1.178028818958898882e-01
3.311562538820909951e-02
2.999390739363436489e-02
4.983861324643247548e-02
-2.612932673242440162e-01
5.898618068314857160e-02
-1.686746699738226329e-01
-1.065160184001691657e-01
-2.346828845598933622e-01
-2.198278796445491123e-01
-2.947190562319827734e-02
-3.624752862615355630e-03
8.569973233253849743e-02
2.277091078688091574e-01
8.494405197468690716e-02
1.188443636886782756e-01
2.293150515766110287e-01
5.516551334145092418e-03
-1.209927200159862104e-01
-2.097734224708966699e-01
-9.506526289857510081e-02
-1.887707023933277717e-01
-1.749574381786502264e-01
1.192286797129763348e-01
9.835280064103929520e-02
4.395132634982967107e-02
-9.637127393554158206e-02
-1.073736899887114959e-01
-4.960709580047042294e-02
-9.427266306032813792e-02
-1.071570085451336724e-01
-2.058926452161991688e-02
4.748180294143693886e-02
1.301428550696591135e-01
7.923729016458461172e-02
-8.471906427084888169e-02
-6.993910128304012264e-02
-8.541842419682329698e-03
2.804153924303316378e-02
1.196856361299111216e-01
1.508428921668976408e-01
1.800161006881347281e-01
2.354263895346210278e-01
9.868030842953250115e-02
2.724217931266117998e-01
7.694553171934111202e-02
-1.145755561166846709e-01
-9.235365095948955966e-03
-1.137677971531763921e-01
5.898048772377372656e-02
-1.466670286372891707e-01
-1.266321914299660956e-01
-5.066933359211767129e-02
-4.443375920794725986e-02
-1.614568775977083259e-01
1.027505484822014981e-01
-1.206595510167423752e-01
-2.521222296929452253e-02
7.718605858656327201e-02
8.903055595913347831e-02
-5.581356664428559211e-02
-8.877716447052005910e-02
-1.121400381076574637e-01
7.341410868954942326e-02
-9.116465329121391237e-02
3.275305482154967640e-01
2.421051293038543051e-01
-1.389934168808386501e-02
-4.174163610390062978e-03
1.086818522211530497e-01
1.972962248189578591e-02
-3.390692605369931278e-02
1.926523610756420563e-02
1.021398242175831778e-01
-6.381310937915860015e-02
-3.698230547148762676e-02
1.974409778489163991e-01
-1.891515578690511346e-01
-4.714211827486304899e-04
-1.587211861508779354e-01
-1.429878727588350662e-01
-5.325149644772787620e-03
1.660637124836166281e-02
-6.574869102393350595e-02
4.658147676735367726e-02
1.896541817633809468e-02
-3.065198659375877321e-01
-6.479915478895328929e-02
3.819558893913593128e-02
-1.875512707528690509e-02
-4.759973449296365372e-02
7.030255602201747334e-02
1.177697211764243690e-01
9.827660671388234459e-02
1.735494604009069353e-01
7.995052742139945046e-02
-1.374759792389024793e-01
-1.323502023493477175e-01
1.207627074454391408e-01
4.885033185033558351e-02
3.342407827419121430e-02
-3.900969072546975162e-03
1.395976755821024679e-02
8.739564920171707940e-02
-7.062481721912892974e-02
-2.486762283609155189e-01
4.680157262281601366e-02
-8.892192776502268192e-02
-2.040349481731718040e-01
1.182466300524461639e-01
6.549090872798206397e-02
6.964579055254337125e-02
6.721582051587780826e-02
-1.090698152556591159e-02
-5.562213943488612117e-02
-6.065853808906100653e-02
-4.921323724420911122e-02
5.583220215154473254e-02
-9.270608050154270988e-03
-9.491227948015321103e-02
-6.408296582654482432e-02
8.017854655146700038e-02
-8.827956970598663244e-02
5.764216451791899509e-02
-6.978389936132749216e-02
1.121927263137342257e-01
-1.079396627305021228e-01
-9.692460093457170136e-04
-1.565037763977523977e-02
-1.407153519793253871e-01
-2.213540127859145099e-02
-8.371901153633237724e-02
-1.716652520316577779e-02
-2.825706455720792404e-02
1.639108837582392911e-02
-5.321499088594114357e-02
-1.693272743186067242e-01
-1.800134125038526517e-02
3.388906793769160680e-02
1.610878546580135351e-01
-1.845571106773710723e-01
-2.241709132645652858e-02
7.042599301792298871e-02
-5.378467410602380538e-02
-9.004966874805374333e-02
1.260095763288148485e-01
4.406852978202975557e-02
5.319405805138997106e-02
-9.684978136770068524e-02
3.707867297212873170e-02
5.610475164787431801e-02
1.965731306391029637e-02
6.583785480710950544e-02
-1.970142377722098048e-01
-7.280347087803362705e-02
1.004928530049464391e-01
1.140739677612216535e-01
4.302378117960497378e-02
2.048740848536598769e-01
-9.347096565393014575e-03
-2.392389674351490247e-02
-8.244072998942213182e-02
3.540670879608945679e-03
-9.223344201730975314e-03
-1.068050857458184739e-02
-9.875798871834101655e-02
